%YAML:1.0
---
opencv_ml_svm:
   format: 3
   svmType: C_SVC
   kernel:
      type: LINEAR
   C: 1.
   term_criteria: { epsilon:1.1920928955078125e-07, iterations:1000 }
   var_count: 5880
   class_count: 2
   class_labels: !!opencv-matrix
      rows: 2
      cols: 1
      dt: i
      data: [ 0, 1 ]
   sv_total: 1
   support_vectors:
      - [ 1.73757697e-04, 5.46117255e-04, -2.39962519e-05,
          8.68102885e-04, 3.89896246e-04, 5.36602398e-04,
          -3.84656771e-04, -1.80479510e-05, 5.58723113e-05,
          3.87623353e-04, 7.05980696e-04, 3.23826156e-04,
          -4.79277573e-04, 3.56403529e-04, 3.61404440e-04,
          3.06816131e-04, -1.05876813e-03, 1.58962910e-04,
          6.38323487e-04, 2.39866058e-04, -1.75934401e-04,
          2.08425045e-04, -1.34513422e-03, -4.20167402e-04,
          5.09744801e-04, 7.17540330e-04, 8.48310243e-04, 8.83132307e-05,
          1.55345901e-04, 1.53093293e-04, -3.74406605e-04,
          -2.10022088e-03, -7.94777705e-04, 1.49457133e-04,
          5.19188412e-04, 1.31248526e-04, -1.19301694e-04,
          -5.10515471e-04, -3.21036641e-04, -6.78646844e-04,
          1.29406762e-04, -4.23414313e-05, -8.70559161e-05,
          9.70006950e-05, -2.55033112e-04, -4.31355700e-04,
          -4.95638451e-05, -1.40344608e-04, 4.89349884e-04,
          1.17777345e-04, 4.46473801e-04, 2.23936702e-04, 2.91510165e-04,
          -1.67960789e-05, 3.17947561e-04, 1.64850033e-04,
          -1.88768987e-04, 1.69963707e-04, -4.56331647e-04,
          5.58933883e-04, -3.51985727e-05, 2.17084409e-04,
          -6.61899569e-04, -2.69428303e-04, 4.12272260e-04,
          4.33635832e-05, 5.51121309e-04, 4.23417951e-04,
          -3.79066361e-04, 6.32625233e-05, 2.60231114e-04,
          2.02045965e-04, -1.60469615e-03, 3.36701080e-04,
          7.33901921e-04, -4.04426042e-04, -9.29949747e-04,
          -3.71799164e-04, -1.12926413e-03, -1.26429237e-04,
          -1.02264236e-03, 9.23459767e-04, 4.35437803e-04,
          -7.50075968e-04, -9.63868573e-04, -8.14920582e-04,
          -5.91938209e-04, -8.82499386e-04, -3.73356743e-04,
          4.06066072e-04, 6.41189690e-04, -1.30819331e-04,
          -1.74864210e-04, -3.18018196e-04, -8.08155048e-04,
          -2.64407136e-04, 6.65076823e-06, 1.37802970e-04,
          1.09917521e-04, 1.99287708e-04, -2.64964096e-04,
          -3.34627723e-04, -1.27799940e-05, -1.19006101e-04,
          3.41023639e-04, 7.07837971e-05, -4.49433137e-04,
          1.87080688e-04, 3.84055864e-04, -4.58444310e-06,
          -9.81260528e-05, 1.29844979e-04, -8.39850545e-05,
          1.96629961e-04, -8.55336897e-04, 5.48882235e-04,
          8.53515085e-05, 1.94905413e-04, -7.23736739e-05,
          5.79872631e-06, 3.30192968e-04, 3.47285590e-04, 4.58096649e-04,
          7.40712974e-04, -3.31524294e-04, 7.02789112e-05,
          -8.80953849e-06, -2.34248037e-05, -1.41948054e-03,
          5.12300641e-04, 1.20212859e-03, -2.51440331e-04,
          -4.57182614e-04, -3.27700400e-04, -4.20874567e-04,
          -6.22024963e-05, -1.54991657e-03, 1.37719768e-03,
          5.56614192e-04, -1.79693219e-04, -4.74192901e-04,
          -8.67539435e-04, -9.28141817e-04, -5.86694165e-04,
          -2.99539679e-04, 3.73814291e-05, 4.54157038e-04,
          -2.45722040e-04, 2.60581164e-05, -3.13111843e-04,
          -4.07066051e-04, -3.11408832e-04, -3.92265065e-05,
          1.82955991e-04, 1.38946547e-04, 1.51073385e-04,
          -1.01188612e-04, 4.71196872e-05, -1.70564002e-04,
          -2.41394955e-05, 3.79948091e-04, 1.47321320e-04,
          -2.35971253e-04, 9.34156851e-05, 4.01713216e-04,
          -1.87689475e-05, -3.93523515e-04, -5.11597063e-05,
          -7.92522987e-05, 3.25472298e-04, -4.61799675e-04,
          7.24416401e-04, -7.92478459e-05, 1.86982186e-04,
          3.84471175e-04, 4.71575651e-04, 3.49079201e-04, 6.21486746e-04,
          8.02702794e-04, 5.62861329e-04, 3.05432826e-04, 3.85218707e-04,
          2.33476429e-04, 1.28846936e-04, -7.14333029e-04,
          6.88626547e-04, 7.13093264e-04, 4.61407792e-04, 5.85748756e-04,
          -4.31933004e-04, -4.76027519e-04, -2.51763762e-04,
          -6.51201044e-05, 7.32689106e-04, 1.26989456e-04,
          2.75939674e-04, 1.60065538e-04, -8.68475239e-04,
          -6.80702215e-04, -8.11790451e-05, -2.68950127e-04,
          1.16092437e-04, 3.76785698e-04, -1.35609225e-04,
          1.40903503e-04, -6.49877999e-04, -3.33878648e-04,
          -6.32596726e-04, 8.96156689e-06, 5.66696981e-05,
          2.12061161e-04, 3.16517311e-04, -7.52538544e-05,
          6.46374028e-05, -8.42185545e-05, -4.93167181e-06,
          3.67593457e-04, 1.25390012e-04, 5.64263959e-04, 1.28364758e-04,
          4.16258757e-04, -9.75558464e-07, -4.16070106e-04,
          -5.79179541e-05, 1.47260012e-04, 5.26237651e-04,
          -4.83017677e-04, 7.39482406e-04, 5.04854019e-04,
          2.85672897e-04, 6.03462395e-04, 4.84270888e-04, 6.13048032e-04,
          7.02724094e-04, 2.49276491e-05, 4.52200096e-04, 2.49723060e-04,
          -2.28044537e-05, 2.52331636e-04, 6.32719239e-05,
          -3.20027793e-05, 3.05970025e-04, 5.76672668e-04,
          1.51451517e-04, -1.09142577e-03, -2.33708924e-04,
          -2.35975269e-04, -1.56269918e-04, 4.68039943e-04,
          5.09331061e-04, 2.40976035e-04, 4.54254507e-04,
          -5.77919767e-04, -5.56111452e-04, -5.13699546e-04,
          1.01695703e-04, -2.45546089e-05, 2.74364051e-04,
          4.15157177e-04, -6.58696590e-05, -1.43209501e-04,
          -3.22213105e-04, -6.26552035e-04, -3.69243615e-04,
          1.58954761e-04, -1.96624533e-05, 1.97083180e-04,
          2.27678116e-04, 1.08109480e-05, 5.32429622e-05, 2.80633249e-04,
          -4.42833225e-05, 2.67029944e-04, 7.37034934e-05,
          -2.38545676e-04, 7.88584366e-05, 2.48887634e-04,
          9.99432723e-06, -5.34199702e-04, 2.58958516e-05,
          3.47856869e-04, 7.41976837e-04, -1.58447408e-04,
          8.86375550e-04, 6.75268879e-04, 2.25097276e-04, 1.29812572e-04,
          1.58742754e-04, 4.10326989e-04, 7.07230065e-04, 1.29666194e-04,
          9.56805074e-04, 6.05211244e-04, 3.48203117e-04, 3.88415465e-05,
          -3.38265236e-04, -6.14742981e-04, -2.65556766e-04,
          3.26015928e-04, 7.74648623e-04, -1.01368560e-03,
          4.46447171e-04, -6.89100765e-04, -4.76275280e-04,
          -4.89494181e-04, 4.17237345e-04, -1.74847810e-04,
          4.72299434e-04, -1.24731770e-04, -6.47892419e-04,
          -7.13645015e-04, -7.01030134e-04, -1.13812515e-04,
          -8.17204273e-06, 2.13177802e-04, 3.21376370e-04,
          2.92045472e-04, 2.70336750e-04, -8.17341963e-04,
          -1.50711276e-04, 2.34689476e-04, 1.90380742e-05,
          2.71366516e-05, 2.89466785e-04, -8.27533077e-05,
          4.00150238e-05, -1.95811692e-04, -4.50370193e-04,
          3.56647361e-05, 1.39481606e-04, -8.84014938e-04,
          2.15949025e-04, 3.87462380e-04, 2.09775186e-04,
          -4.21348726e-04, 8.63494060e-05, 1.90727937e-04,
          9.12226795e-04, -2.55555758e-04, 3.94920760e-04,
          2.87735718e-04, 3.37211939e-04, -3.48692876e-04,
          4.27973544e-04, 5.04889875e-04, 4.46777587e-04, 8.40062276e-04,
          5.14415733e-04, 3.32571886e-04, 3.00900923e-04, 9.16829522e-05,
          -5.40153596e-05, -2.13499923e-04, 2.65873299e-04,
          2.88835232e-04, 7.50206935e-04, -1.05989480e-03,
          -4.76996911e-06, -8.59336462e-04, -2.40943380e-04,
          4.40141244e-04, 3.29688512e-04, -4.75888519e-04,
          -5.21876034e-04, -1.74538977e-03, -3.65750428e-04,
          -3.15381010e-04, -5.97228762e-04, -1.89335071e-04,
          -3.71297101e-05, 1.92903724e-04, 3.02844448e-04,
          -7.63387710e-04, -2.28205772e-06, -4.52338078e-04,
          -5.31601137e-04, 1.76842703e-04, 7.64699944e-05,
          4.87103098e-05, 3.45021195e-04, -9.43738778e-05,
          4.53303146e-05, -3.93623748e-04, -3.90055357e-04,
          -2.09857404e-07, -2.13272197e-05, -5.21282964e-05,
          1.46463353e-04, 2.37524422e-04, 1.00773083e-04,
          -2.27298733e-04, 2.47475764e-05, -3.91216745e-05,
          5.47879434e-04, -8.82624154e-05, 6.13183656e-04,
          6.09986833e-04, 2.28245190e-04, -2.70602341e-05,
          1.97576548e-04, -2.23135285e-04, -1.97991671e-04,
          2.07916382e-04, 5.76144783e-04, -1.25789229e-05,
          1.56442606e-04, -1.39504205e-04, 9.10597009e-05,
          -7.71460065e-04, 2.07001522e-05, -9.06269473e-04,
          -3.58284626e-04, -9.02443935e-05, 5.73276076e-04,
          -3.65040381e-04, -2.76319275e-04, -1.00928919e-04,
          -1.04566535e-03, -1.73541938e-03, 4.62821947e-04,
          -1.14326342e-03, 4.89266124e-04, -6.13424811e-04,
          -1.20889966e-03, -4.51326283e-04, -7.23646881e-05,
          -4.67546692e-04, -9.60687830e-05, -6.70318623e-05,
          -6.92940317e-04, -3.21439962e-04, -6.00073719e-04,
          -1.46855891e-04, -1.80886316e-04, -1.25774037e-04,
          3.14146564e-05, -1.06989492e-05, -6.91568785e-05,
          -1.17347525e-04, -1.89831888e-04, 2.47493241e-04,
          2.02350901e-04, -3.74930998e-04, 1.57627892e-06,
          2.68147531e-04, 1.36163741e-04, -1.86524849e-04,
          6.70013833e-05, 8.80375665e-05, 9.43938576e-05,
          -1.00128399e-03, 8.19418754e-04, -2.11451596e-04,
          3.56344361e-04, -7.11638713e-04, -7.65783843e-05,
          -1.49255327e-04, -1.87121666e-04, -7.94095540e-05,
          3.98700649e-04, -2.84765643e-04, -2.13241401e-05,
          3.16190737e-04, 2.14307714e-04, -1.29500823e-03,
          -1.39219410e-04, -7.92532985e-04, -5.58471133e-04,
          -1.60517986e-03, -1.93483676e-04, -8.18881730e-04,
          -1.49592946e-04, -1.24368677e-03, -9.33125615e-04,
          -2.13450636e-03, -1.29175803e-03, -1.75943889e-03,
          -3.25888803e-04, -7.41173513e-04, -1.55860232e-03,
          -1.99029906e-04, -1.24633312e-04, -6.19868806e-04,
          -3.47961788e-04, -4.76638961e-04, -1.76436544e-04,
          -3.87472595e-04, -3.35787598e-04, -3.05467693e-04,
          -1.84071905e-04, 2.75958064e-05, 2.72807200e-04,
          -1.67470440e-04, -1.19257165e-04, -3.79645207e-05,
          -1.37673414e-04, -1.96167006e-04, -1.50765109e-05,
          -5.95965015e-04, 1.00968849e-04, 2.60382949e-04,
          2.52735917e-04, -3.49630398e-04, 1.42315344e-04,
          2.79395579e-04, 1.86457662e-04, -1.62353288e-04,
          5.53928607e-04, 2.94669371e-05, 4.05300496e-04,
          -9.38181474e-05, 2.64777220e-04, -2.73466256e-04,
          -1.39179887e-04, -4.89003782e-04, 4.66566096e-04,
          1.24735205e-04, 1.54401627e-04, 5.54767787e-04, 3.05669993e-04,
          -1.54633459e-03, -2.99904030e-04, -2.20349160e-04,
          -4.68653394e-04, -1.53431634e-03, -3.04274145e-04,
          -1.93590589e-04, -4.81630850e-04, -1.35760300e-03,
          -1.50588283e-03, -1.98149751e-03, -8.10762751e-04,
          -9.38094337e-04, -6.66671374e-04, -2.56436935e-04,
          -1.75177108e-03, -5.24422736e-04, -5.00039198e-04,
          -9.80201527e-04, -1.35209179e-03, -2.14714324e-04,
          -6.78388897e-05, -5.51971934e-05, -3.79815669e-04,
          -2.05607619e-04, 7.89821570e-05, 4.17118645e-05,
          1.70853629e-04, -2.79249380e-05, -1.48870415e-04,
          7.71730847e-05, 1.04577688e-04, 8.49682910e-05, 1.95195626e-05,
          1.11817222e-04, 2.28523815e-04, 4.03929807e-05, 7.58729366e-05,
          -4.75567358e-04, 1.57862396e-05, 9.24263513e-05,
          4.68471146e-04, 1.67870196e-04, 3.84617364e-04, 8.24078015e-05,
          5.22796880e-04, 8.49193952e-04, 4.12064895e-04,
          -1.46459718e-06, 1.85198922e-04, -9.02162501e-05,
          3.64973166e-05, 6.58517121e-04, 1.90818493e-04, 2.12725194e-04,
          3.27403133e-04, -5.31877449e-04, 1.59615476e-04,
          -2.01447489e-04, 4.71590574e-05, -5.89566538e-04,
          -3.69297195e-04, -1.31313675e-04, -2.48368247e-04,
          -8.52065976e-04, -2.48254067e-03, -3.51073500e-03,
          4.54387424e-04, 4.07629501e-04, -3.74560186e-04,
          -2.04943412e-04, -7.52884662e-04, -5.04419440e-04,
          -7.27216946e-04, -8.93540448e-04, -1.01755850e-03,
          1.30471482e-04, -2.30229824e-04, -1.10050432e-05,
          -1.79066221e-04, -2.55637773e-04, 2.95773571e-05,
          -2.80624208e-05, -3.90969974e-04, 1.44329577e-04,
          -2.74336599e-05, -7.85351294e-05, 1.28494692e-04,
          2.20503571e-04, 6.89307562e-05, 3.70687747e-04, 1.40890857e-04,
          -8.04794108e-05, 1.36645813e-05, -2.15440305e-04,
          -1.04579325e-04, 2.37398082e-04, 6.44027139e-04,
          1.64341356e-04, 5.64417976e-04, 6.66654902e-04, 5.71960467e-04,
          2.63599853e-04, 2.88688461e-04, 6.83651189e-04, 3.13540339e-04,
          -1.79072988e-04, -3.24427412e-04, 2.93136603e-04,
          -2.79346605e-05, 3.16497724e-04, 5.98992046e-04,
          -6.68040302e-04, 3.08299583e-04, -2.79600354e-04,
          -1.47500541e-04, -5.77820523e-04, -4.77333204e-04,
          -3.83580598e-04, -3.07815877e-04, -1.04895700e-03,
          -1.43363921e-03, -2.02384894e-03, -9.14663833e-04,
          -1.12526491e-03, 2.85411461e-05, -1.36818242e-04,
          -1.13328232e-03, -5.05056349e-04, -3.63090949e-04,
          -7.12683890e-04, -4.51894331e-04, -5.47940843e-04,
          -3.06008937e-04, -2.31191298e-04, -4.33377718e-04,
          2.53998151e-04, 1.98461130e-04, -1.20048819e-04,
          -1.78901828e-04, -1.06651598e-04, 3.39055769e-05,
          -1.12709604e-04, -2.43391169e-05, 1.44665551e-04,
          2.66949675e-04, 6.64235777e-05, 1.00720368e-04,
          -6.95724302e-05, -5.45967305e-05, -4.88151185e-04,
          1.02139338e-05, -1.18008611e-04, 4.86025849e-04,
          -1.76665562e-04, 8.94449069e-04, 1.40079501e-04,
          2.94050173e-04, -5.81764434e-05, 2.50621466e-04,
          2.04699390e-04, 7.92665960e-05, -6.58173958e-05,
          -2.64561124e-04, 1.43329307e-04, 8.76085323e-05,
          1.76310190e-04, -1.57093411e-04, -1.09040830e-03,
          -7.05396582e-04, -8.17527936e-04, -1.74052882e-04,
          -4.82059782e-04, 7.59444491e-04, -8.07457545e-04,
          -5.21703740e-04, -8.82037450e-04, -1.80061662e-03,
          -1.08289730e-03, -5.64623624e-04, 9.77489763e-05,
          -2.99599662e-04, -3.26531328e-04, -9.90543864e-04,
          -1.95958899e-04, -2.59249609e-05, -6.92465808e-04,
          -4.96032262e-05, -1.53467336e-04, 3.86865955e-04,
          -3.86023254e-04, -2.80049921e-04, 2.91393721e-04,
          2.83767469e-04, -1.58347801e-04, -2.13114166e-04,
          -1.74464061e-04, 3.69680274e-05, -1.86398698e-04,
          -1.75655092e-04, -2.52054801e-04, 2.69340439e-04,
          -7.52209744e-04, 1.78326343e-04, -3.23129061e-04,
          3.02440953e-04, -2.80350156e-04, 1.40025018e-04,
          2.57814449e-04, 2.27473109e-04, -2.49056582e-04,
          8.86186535e-05, -2.16092449e-04, 2.80666485e-04,
          -1.26235827e-04, 2.76565552e-04, -1.30861925e-04,
          1.50918364e-04, 1.51615473e-04, -2.71914556e-04,
          2.30013495e-04, -2.30460209e-04, 2.07409452e-04,
          -4.17082832e-04, -1.13153175e-04, -2.50902696e-04,
          -1.17471046e-03, -2.54034676e-04, -3.10951291e-04,
          6.90090295e-04, -4.43142257e-04, -6.71221205e-05,
          7.46705860e-04, -1.60304119e-03, -1.56789995e-03,
          -7.94586318e-04, -6.63520477e-05, -3.65048065e-04,
          -2.69402299e-05, -1.27171585e-03, -3.10950818e-05,
          -8.76770209e-05, -7.20957294e-04, -9.61453843e-05,
          -5.34053135e-04, 6.76705940e-06, -2.14630229e-04,
          -2.30900710e-04, -5.55347106e-05, 7.65656296e-05,
          -1.87753569e-04, -1.54733207e-04, -1.87045982e-04,
          -5.43054484e-05, 2.94709525e-06, -6.19756611e-05,
          -1.85791887e-05, -1.91783096e-04, -3.35331919e-04,
          2.57251435e-04, -3.54752592e-05, 1.39631811e-04,
          -4.74137305e-05, 1.23622303e-04, 4.39906114e-04,
          2.03176998e-04, 3.49457900e-04, 1.84016957e-04, 2.92395678e-04,
          4.29995998e-04, -1.61968259e-04, 4.47865954e-04,
          3.28954018e-04, -3.07661336e-04, 3.02102253e-05,
          -1.45931641e-04, 2.38442430e-04, 1.84174598e-04,
          -3.32719865e-05, -7.57804664e-04, -9.82253347e-04,
          -5.14092972e-04, -2.00629438e-04, -5.54898405e-04,
          -7.70304468e-05, -7.44418823e-04, 5.87102433e-04,
          -6.16575999e-04, -1.08908874e-03, -1.04302564e-03,
          -1.27014471e-03, -3.49894894e-04, -1.01526338e-03,
          -9.60999634e-04, -3.92551097e-04, -8.36627092e-04,
          -7.51816027e-04, -6.97604672e-04, -4.09914210e-04,
          -2.24565534e-04, -2.49501609e-04, -9.62880556e-04,
          -3.60753416e-04, -7.24300626e-04, -1.46751321e-04,
          -4.33873429e-05, 3.68709152e-05, -7.06207402e-06,
          4.77425347e-05, 3.31934658e-04, 1.11531313e-06,
          -2.47583259e-04, 2.35056868e-04, 3.73678369e-04,
          -3.89962806e-04, 5.90025957e-06, 8.00731359e-04,
          1.63118355e-04, -1.93864485e-04, -3.94277813e-05,
          7.67059464e-05, 6.96850911e-05, -8.59003107e-04,
          4.53857647e-05, -1.71972642e-04, 2.40070935e-04,
          -1.04803138e-03, 2.19270834e-04, 2.66631279e-04,
          -3.05689435e-04, -2.50985468e-04, 2.85765738e-04,
          6.43685125e-05, -2.84319656e-04, 2.05346820e-04,
          1.25609964e-04, -1.16860738e-03, -6.04064408e-05,
          -4.18921903e-04, -4.73045453e-04, -1.21810730e-03,
          -7.84580188e-04, 7.05746468e-04, -2.37240631e-04,
          -1.21502765e-03, -7.90468650e-04, -1.33198197e-03,
          -1.51558337e-03, -2.68182997e-03, -2.84184789e-04,
          -1.11062999e-03, -1.86818116e-03, -4.30258195e-04,
          -4.44644422e-04, -6.29936345e-04, -5.73726371e-04,
          -7.05733604e-04, -6.06505433e-04, 1.71521402e-04,
          -4.45094280e-04, -1.85906720e-05, -9.76148440e-05,
          -6.35165998e-05, 1.37876166e-04, 8.18177796e-06,
          -4.38626012e-04, -5.60545886e-05, -3.64806365e-05,
          -1.59685136e-04, 1.71360934e-05, -4.81257535e-04,
          4.81730713e-05, 3.91895243e-04, 8.77244165e-05,
          -2.76164617e-04, 1.54153877e-05, 1.06632979e-04,
          2.96159793e-04, 1.85940589e-04, 1.14726296e-04,
          -2.79085303e-04, 3.88190441e-04, 3.47334222e-04,
          6.16702193e-04, -1.03217877e-04, -3.61653307e-04,
          -6.03960245e-04, 5.96306054e-04, 3.95736424e-04,
          -4.12019435e-05, 2.45802425e-04, 1.23353093e-04,
          -1.31477820e-04, -2.06415192e-04, -3.46548302e-04,
          -4.58099152e-04, -6.54318079e-04, -4.43724479e-04,
          -2.32013961e-04, -4.21708275e-04, -1.10722752e-03,
          -1.02858560e-03, -1.73148466e-03, -1.41228572e-03,
          -1.81829557e-03, -8.69964366e-04, -2.24506133e-03,
          -1.44546921e-03, -1.03185339e-04, -3.19221028e-04,
          -5.76876453e-04, -1.49366632e-03, -3.22136388e-04,
          -8.36412015e-04, -2.41052257e-04, -6.02403074e-04,
          -2.32705293e-04, 1.46359438e-04, -3.85098319e-05,
          -6.83500475e-05, -5.79012740e-05, -4.76723100e-04,
          -1.47411163e-04, 1.57250790e-04, 2.15443157e-04,
          -7.10876120e-05, 2.13884457e-04, 1.07117114e-04,
          2.81392189e-04, 8.13033548e-05, -3.93962982e-05,
          2.74896684e-05, -1.62929922e-04, 6.59367826e-04,
          1.11853669e-03, 5.38397871e-04, 2.81124288e-04, 4.25973936e-04,
          1.74114550e-03, 5.25359414e-04, -4.12849797e-04,
          -1.61600416e-04, -2.55749590e-04, 5.20464440e-04,
          5.04145341e-04, -4.88561955e-06, -1.45882994e-04,
          7.88087855e-05, 4.04906168e-04, -6.15839381e-04,
          -4.22781100e-04, -8.00338225e-04, 4.33357753e-04,
          -2.94194906e-04, -8.52948753e-04, -6.47796085e-04,
          -1.83408218e-03, -1.53134088e-03, -2.37470004e-03,
          -3.81805759e-04, 4.70161380e-04, -1.81699730e-03,
          -3.40229087e-03, -8.73357116e-04, -1.42499601e-04,
          -5.47595322e-04, -2.43422226e-04, -9.95858223e-04,
          2.98530213e-04, -1.00125349e-03, -6.53640600e-04,
          -7.42367411e-04, -1.04607832e-04, -7.95340020e-06,
          2.48444965e-04, -1.77545371e-04, 1.36417570e-04,
          2.00037775e-05, -1.49447791e-04, 3.10820797e-05,
          5.37644781e-04, -1.31105844e-04, 3.76347365e-04,
          1.40003176e-05, 3.81833030e-04, 6.65714542e-05, 7.50061241e-04,
          -3.66870845e-05, -6.73431263e-04, 2.43966555e-04,
          8.20943853e-04, 5.07634366e-04, 8.80651860e-05, 7.24087178e-04,
          2.05613067e-03, 5.27856580e-04, 3.03763314e-04, 5.98445076e-05,
          -3.88146174e-04, -2.25181211e-04, 1.85002384e-04,
          -2.75553961e-04, 5.37332846e-04, 3.49245180e-04,
          6.39943173e-04, -5.91671444e-04, -6.10744290e-04,
          -6.74020092e-04, 1.04477792e-03, -1.34846385e-04,
          -1.42767932e-03, -5.17080305e-04, -1.03939476e-03,
          -1.70426886e-03, -1.50409038e-03, -7.52877560e-04,
          -3.81810911e-04, -1.80809060e-03, -1.26410194e-03,
          -1.43639615e-03, 6.22748048e-05, -7.16351380e-04,
          -2.49697827e-04, -5.21552516e-04, 3.63540050e-04,
          -7.62154057e-04, -5.25241718e-04, -9.31323739e-04,
          2.48330063e-04, 9.30331735e-05, 4.37546187e-05,
          -2.03024727e-04, 8.91060117e-05, 5.84047048e-05,
          -6.17401442e-04, -1.13444963e-04, 2.67900788e-04,
          1.11291010e-04, 1.40082021e-03, 3.79482408e-05,
          -2.14359097e-04, 1.62668221e-04, 6.05539419e-04,
          1.36007598e-04, -1.73390930e-04, 2.52704311e-04,
          -4.75693174e-04, 8.90873373e-04, 2.94873404e-04,
          5.81387489e-04, -6.08931587e-05, 3.84184968e-04,
          4.03544342e-04, 2.30882491e-04, 1.31329100e-04,
          -5.62801550e-04, 1.86726684e-04, -1.02123733e-04,
          2.43093629e-04, 1.95845947e-04, -9.62301332e-04,
          -8.87342554e-04, -6.38985133e-04, -1.93509040e-04,
          -2.36499880e-04, -6.35246164e-04, -6.16552890e-04,
          -3.02836415e-04, -9.99415875e-04, -1.94324064e-03,
          -8.13055609e-04, -6.28629583e-04, -2.12524377e-04,
          -9.18503967e-04, 2.55868770e-04, -1.60904007e-03,
          -8.14458035e-05, -9.37984296e-05, -1.58991330e-04,
          -1.03026527e-04, -3.39531907e-05, -3.86755215e-04,
          9.77306845e-05, -6.39086764e-04, 1.45308615e-04,
          1.60094030e-04, -3.06352995e-05, -2.98421364e-04,
          5.79493571e-05, 3.92666079e-05, -2.82267894e-04,
          4.60462325e-05, 4.22278332e-04, 3.81697377e-04, 4.03486629e-04,
          1.55174857e-04, -3.12616205e-04, 2.78951076e-04,
          3.58701102e-04, 1.78887552e-04, -4.24100406e-04,
          1.68634127e-04, 2.57827720e-04, 5.38059976e-04,
          -1.78895032e-04, 4.26967250e-04, -2.05746052e-04,
          6.57357232e-05, -3.80202604e-04, -3.75739881e-04,
          5.11793914e-05, 1.71724998e-04, 2.98323255e-04, 1.59341973e-04,
          -1.62306926e-04, 2.28928984e-04, -4.43948637e-04,
          -1.14563922e-03, -7.27528823e-04, -4.03320155e-04,
          -5.75281389e-04, -3.28511873e-04, -2.12902218e-04,
          -4.65735240e-04, -8.34794657e-04, -2.06208299e-03,
          -1.13194517e-03, -1.42321619e-03, 5.02616924e-04,
          -4.90247097e-04, -3.66545777e-04, -6.12706935e-04,
          -2.25084514e-04, -3.34748765e-04, -3.39920720e-04,
          -4.10002656e-04, -7.01316283e-04, -3.44068074e-04,
          8.15311942e-05, -7.02560181e-04, -3.09331626e-05,
          -5.20920912e-05, -9.30190217e-05, -7.93625295e-05,
          2.82731198e-04, -4.55777517e-05, 2.73332669e-04,
          5.26719596e-05, 2.43594084e-04, 8.86892522e-05,
          -6.03991153e-04, 2.70925782e-04, -8.25023599e-05,
          4.22319747e-04, 3.40003782e-04, 1.93611340e-04, 3.27106536e-04,
          3.01831460e-04, 6.88900123e-04, 2.98130090e-05,
          -1.23671547e-04, 5.12612460e-04, -8.32021542e-05,
          1.26949672e-04, -2.65127310e-04, -4.53738787e-04,
          -6.32873634e-05, -4.82750736e-04, 4.39554657e-04,
          8.80179345e-04, 3.91130685e-04, 8.93411052e-05,
          -1.46676274e-03, -1.45128497e-03, -5.19245223e-04,
          -7.73722481e-04, -1.10962501e-04, -1.05605484e-03,
          7.59996939e-04, -7.27540813e-04, -1.53051224e-03,
          -1.76520634e-03, -1.10982999e-03, -7.97650893e-04,
          -1.12801464e-03, -4.24477475e-04, -6.39162434e-04,
          -1.53212994e-03, -7.21497985e-04, -9.49660840e-04,
          -3.17153608e-04, -3.59925645e-04, 2.28639197e-04,
          -2.72384859e-05, 4.90620849e-04, -4.73775814e-04,
          -8.65882321e-05, -4.98262583e-04, -7.95495362e-05,
          1.44437407e-04, 4.86882025e-04, 2.61305220e-04, 6.71135145e-04,
          6.87674838e-05, -3.37530219e-05, 9.84433718e-05,
          -1.58142226e-04, -1.22213518e-04, -1.66682803e-05,
          1.07371583e-04, -2.53222443e-05, 2.78715397e-05,
          3.66509958e-05, -7.39020252e-05, 3.05422873e-05,
          -2.85449467e-04, -1.98886119e-04, -1.68110535e-04,
          -8.82582463e-05, -1.91255123e-04, -2.70547002e-06,
          -1.04981149e-03, 8.10018173e-05, -1.55956630e-04,
          -2.53184029e-04, -1.33343638e-04, 1.50671884e-04,
          7.74833024e-04, -7.39189505e-04, -7.78063477e-05,
          5.90821961e-04, -8.75387108e-04, -5.59193373e-04,
          -5.95787482e-04, 1.09774945e-03, -5.79692074e-04,
          -1.65525347e-03, -1.33744499e-03, -1.10038335e-03,
          -1.44644163e-03, -1.83268811e-03, -5.87308430e-04,
          -1.50822790e-03, -3.42739932e-03, -8.58007232e-04,
          -7.92872219e-04, -2.38316375e-06, -2.63445108e-04,
          -6.39196543e-04, -4.71396837e-04, 5.52444893e-04,
          -3.14184610e-04, 1.13340648e-04, -1.41613127e-04,
          2.05980818e-04, 1.13429560e-04, 2.72551639e-04,
          -3.75622767e-04, 2.22575633e-04, 2.42892726e-04,
          6.40625512e-05, -1.64498328e-04, -3.67782370e-04,
          -1.57403454e-04, -9.78681928e-05, -7.76908200e-05,
          1.44216334e-04, 1.16675983e-04, -4.59771953e-04,
          2.07827572e-04, 9.46701388e-04, 1.17819138e-04,
          -2.01130722e-04, 1.89603579e-05, 6.49496214e-04,
          1.36414339e-04, 1.04806881e-04, -8.41486151e-04,
          -4.64840268e-05, 3.28935275e-04, -2.16627450e-05,
          -1.89898128e-04, 3.80231832e-05, 3.49906622e-04,
          6.96575444e-04, 1.31907684e-04, 3.41914012e-04,
          -3.19509243e-04, 2.83403897e-05, 1.37485549e-04,
          5.77554631e-04, -5.24329895e-04, -5.31068596e-04,
          -7.97545654e-04, -8.87052622e-04, -1.30496512e-03,
          -1.43820338e-03, -4.87158541e-04, -4.10102308e-03,
          -1.89297704e-03, -3.39383150e-05, 2.74121005e-04,
          2.15630396e-04, -2.18293557e-04, -3.64202861e-04,
          -4.27420804e-04, -4.56768350e-04, -9.83869308e-04,
          1.19413438e-04, 2.99717969e-04, 4.64290024e-05, 1.01211255e-04,
          1.53761735e-04, -2.11912891e-04, -3.82706385e-05,
          1.51991873e-04, 4.10115084e-04, -1.65507561e-04,
          3.20612133e-04, -1.04242710e-04, 4.62388125e-04,
          -6.56567136e-05, 1.57882649e-04, 3.99220735e-05,
          -5.03121351e-04, 4.38260788e-04, 1.23760314e-03,
          4.32737579e-04, -1.57222006e-04, 2.22277682e-04,
          1.75123604e-03, 4.21037286e-04, 3.48970934e-05,
          -1.34994640e-04, -3.50156944e-04, 6.62068545e-04,
          1.44043288e-05, -2.80623412e-04, 1.98312875e-04,
          -1.31056091e-04, 2.12999119e-04, -1.19642478e-04,
          2.48638593e-04, -4.86735429e-04, 7.56925263e-04,
          4.01261845e-04, 6.19132188e-04, -5.22993621e-04,
          -9.45633627e-04, -5.19146502e-04, -1.02764019e-03,
          -1.00976473e-03, -1.08534965e-04, -2.30151764e-03,
          -3.87885212e-03, -3.81964608e-04, 3.68906367e-05,
          2.35532672e-04, 2.54193321e-04, 1.99492679e-05,
          -3.66350541e-05, -7.42243137e-04, -5.40282526e-05,
          -9.26289707e-04, 1.34635076e-04, 2.02846466e-04,
          3.45738808e-04, 2.49689852e-04, 1.10831352e-04, 2.15718595e-04,
          -2.09316437e-04, 1.91413419e-05, 3.32841009e-04,
          -2.72881123e-04, 5.51274978e-04, 3.84381419e-05,
          4.72412648e-04, 7.93339932e-05, 9.37940844e-04,
          -4.12735471e-06, -8.77040846e-04, 1.14994828e-05,
          2.32413877e-03, 4.01879552e-05, -6.50537841e-04,
          1.72329383e-04, 2.30252952e-03, 2.54142826e-04, 3.66161024e-04,
          1.71133201e-04, -6.27891393e-04, 4.82343719e-04,
          1.08302644e-04, 4.09078231e-04, -2.11051462e-04,
          1.56937924e-04, 1.43308740e-03, -8.05282441e-04,
          -3.62133782e-04, -5.25823969e-04, 1.37703330e-03,
          5.25810639e-04, 3.49271315e-04, 1.48923369e-04,
          -1.18131144e-03, -1.75025442e-03, -1.08144782e-03,
          -2.06561846e-04, -1.19664439e-03, -4.39203437e-03,
          -8.02363502e-04, -3.60238890e-04, 2.66015413e-04,
          -2.61822686e-04, 1.12014377e-05, -3.29857809e-04,
          3.72306124e-04, -1.15764514e-03, 2.63572991e-04,
          -7.33287539e-04, 2.23294192e-04, 1.44586811e-04,
          -1.90301616e-05, -8.53711826e-05, 1.33324895e-04,
          3.60584818e-04, -5.41750633e-04, 2.90911790e-04,
          4.60454903e-04, -7.73243664e-05, 1.28756079e-03,
          4.09530585e-05, -8.00083872e-05, 2.69026263e-04,
          1.06329645e-03, -3.22782835e-05, -8.98187864e-06,
          1.69489023e-04, 4.59576491e-04, 4.80268500e-04, 1.40251737e-04,
          -1.63252713e-04, 3.71927272e-05, 4.37702874e-05,
          3.94878938e-04, 4.22038458e-04, -1.36401781e-04,
          -3.04588699e-04, 2.10196042e-04, -3.11203854e-04,
          -3.94616713e-04, 9.18415681e-05, 1.29534368e-04,
          -8.26044707e-04, -2.17170251e-04, -5.03691554e-04,
          4.22789861e-04, -1.01740472e-03, -9.46908403e-05,
          -2.58632033e-04, -1.06272392e-03, -1.55414769e-03,
          -1.51449942e-03, -1.74975095e-04, -1.63716264e-03,
          -1.86155562e-03, -7.58433482e-04, -6.30652474e-04,
          -2.01255476e-04, -2.35197091e-04, 3.02198605e-04,
          6.08597620e-05, -3.11832293e-04, -7.48505001e-04,
          3.24973989e-05, -5.43280737e-04, -1.53729197e-04,
          8.10242182e-06, -1.83019583e-04, -1.53377943e-04,
          2.74650694e-04, -5.05813732e-05, -4.62427852e-04,
          3.50671646e-04, 3.85071617e-04, 3.45555200e-05, 3.62581522e-05,
          -1.15288722e-05, 2.19522160e-04, 2.07595396e-04,
          3.46453104e-04, -8.37206753e-05, -5.86934621e-04,
          3.07946539e-05, -6.24049608e-06, 3.53413721e-04,
          2.16841741e-04, -1.40181146e-04, -2.96861690e-04,
          7.85084194e-05, -4.48749284e-04, -1.52169319e-04,
          -2.27175969e-05, 4.54831898e-05, -5.28453733e-04,
          8.17702021e-05, 1.52353605e-05, -3.81720783e-05,
          -3.52832343e-04, -8.08825775e-04, -2.51726218e-04,
          -1.08036713e-03, -6.69623667e-04, -6.91827212e-04,
          1.67672624e-04, -3.48039845e-04, -1.54032861e-03,
          -1.74600049e-03, -1.56308722e-03, -1.69605715e-03,
          -9.22168605e-04, -3.44356406e-04, -4.40764998e-04,
          -7.55844871e-04, -4.43147583e-04, -7.81724462e-04,
          -2.17188608e-05, -6.61385362e-04, -8.30302131e-04,
          -8.18701228e-04, 2.57945358e-04, -5.02295035e-04,
          -1.23709833e-04, -6.39328646e-05, -3.63130064e-04,
          5.01981121e-05, 1.38363437e-04, -2.41763410e-05,
          -7.93734944e-05, 3.49873095e-04, 2.73723796e-04,
          -6.97155656e-06, 6.41937686e-06, 2.98198593e-05,
          1.20637033e-05, 1.32520960e-04, -2.49683708e-05,
          1.58435912e-04, -2.11426246e-04, 1.22570873e-05,
          1.20288995e-03, -6.97034266e-05, -4.70537314e-04,
          6.50472706e-04, 1.15576608e-04, 3.53802345e-04, 2.69616925e-04,
          3.01591732e-04, 5.15025924e-04, 4.37660870e-04, 4.84951801e-04,
          8.25695985e-04, 3.85481748e-04, 2.64361268e-04,
          -8.90700030e-04, -8.24501156e-04, -1.02671492e-03,
          -6.74828014e-04, 7.44356599e-04, -4.69460269e-04,
          -1.75950129e-03, -6.20648614e-04, -3.11235664e-03,
          -2.13898206e-03, -1.22143095e-03, -7.50447332e-04,
          -4.43728321e-04, -1.85843906e-03, -9.99271986e-04,
          -1.09623407e-03, -2.34296938e-04, -6.78646436e-04,
          -4.43801953e-04, -4.23102290e-04, 4.72857151e-04,
          -2.99658976e-04, -2.01160336e-04, -4.17266157e-04,
          -2.22149931e-04, -4.84029908e-04, -1.41511395e-04,
          1.55555434e-04, 2.50883109e-04, 4.40340264e-05, 8.54605823e-05,
          3.46926572e-05, 9.82295314e-05, -2.46318450e-05,
          -3.66089487e-04, 8.10617785e-05, -1.48146137e-04,
          1.34837668e-04, 6.23244850e-04, 8.37710759e-05,
          -1.99196118e-04, -2.26887001e-04, 6.55549578e-04,
          1.77550130e-04, -2.29636644e-04, -9.03870750e-05,
          3.10294505e-04, -7.66134981e-05, -3.17279628e-05,
          -4.93379892e-04, 2.70985940e-04, -2.29660836e-05,
          -5.80156746e-04, -1.32186775e-04, 5.52587153e-04,
          3.41152598e-04, 2.27843193e-04, -8.42214577e-05,
          -1.52972018e-04, -8.47121351e-04, 1.96659254e-04,
          -6.75195261e-05, -1.76330257e-04, -2.86752562e-04,
          -2.38041347e-03, -2.09820690e-03, -5.65144932e-04,
          -2.92459573e-03, -9.60282632e-04, -1.61553093e-03,
          -5.49389864e-04, -3.04111210e-03, -4.84254415e-04,
          -8.40174966e-04, -3.11620679e-04, -2.95065693e-04,
          -3.45922366e-04, -1.41847631e-04, -2.67216674e-04,
          -6.65531144e-04, -2.41197529e-04, -3.38709273e-04,
          -1.67411534e-04, 2.84568581e-04, 8.76454214e-05,
          2.15562744e-04, -2.06454497e-04, 7.69402250e-05,
          5.36463704e-05, -1.99117989e-04, -1.10063782e-04,
          -3.50768933e-05, -1.59810428e-04, -8.66689970e-06,
          8.67872208e-04, 5.92809156e-05, -9.39908059e-05,
          2.17035951e-04, 9.24291613e-04, 5.13921957e-04, 1.69129402e-04,
          2.53560283e-04, 6.27556234e-04, -3.14634890e-05,
          1.29041800e-04, -4.03169077e-04, 4.32520057e-04,
          5.78610852e-05, -1.08526307e-04, -1.01580175e-04,
          6.80533820e-04, 6.50514849e-04, 1.03656924e-03, 2.17332963e-05,
          -1.69782754e-04, -4.43052326e-04, 2.84611539e-04,
          2.80635053e-04, 1.36576314e-03, 1.45317797e-04,
          -1.06761116e-04, -1.23713561e-03, -3.50111019e-04,
          -2.58551561e-03, -4.48395382e-04, 1.66154321e-04,
          -5.00808994e-04, -2.70881900e-03, -2.29361569e-04,
          -8.96471320e-04, -7.61138799e-05, -1.37734212e-04,
          -1.51545944e-04, 1.26433908e-04, 7.52030828e-05,
          -2.86086986e-04, -1.18317941e-04, 1.81015814e-04,
          -8.33496233e-05, -1.03106840e-05, 1.18369244e-04,
          -1.27366060e-04, 2.62949616e-04, 2.01735136e-04,
          3.98421340e-04, -6.29417191e-05, 2.33814862e-04,
          -4.86953977e-05, 1.54091700e-04, 9.57827724e-05,
          1.02553982e-03, 9.24318883e-05, -3.35323748e-05,
          4.55458357e-04, 1.05211034e-03, 1.47365514e-04, 2.08031721e-04,
          1.21897610e-04, 1.09766109e-03, 9.41686594e-05, 4.17888295e-05,
          3.19646177e-04, 1.66962764e-05, 1.08805529e-04,
          -2.33619867e-04, -7.62592419e-04, 2.09859165e-04,
          1.49196945e-04, 5.25066105e-04, 7.62430936e-05, 4.32914327e-04,
          -7.12809153e-04, 3.56302946e-04, 2.66315648e-04,
          1.71952730e-03, -3.70908674e-05, -1.24387292e-03,
          -5.60081331e-04, -6.37434714e-04, -1.21982547e-03,
          -8.26106465e-04, 7.36156071e-05, -9.01186650e-05,
          -7.62864132e-04, -6.82996470e-05, -1.34338523e-04,
          3.39298625e-04, -3.62524821e-04, -3.43673077e-04,
          2.02506475e-04, 9.85961058e-04, 6.18693230e-05,
          -6.43643507e-05, 1.67596110e-04, -1.05077692e-04,
          2.60927976e-04, 1.92742198e-04, -6.33473392e-05,
          -5.85165362e-05, 2.47678603e-04, -2.71697922e-06,
          -5.37033848e-05, 1.09640387e-04, 1.65234480e-04,
          2.71066092e-04, 7.23319099e-05, 8.05824704e-04, 1.36022154e-05,
          9.72648922e-05, 3.36992205e-04, 1.63231883e-03, 1.01941681e-04,
          2.53499777e-04, 2.16640314e-04, 1.57430419e-03, 3.80091864e-04,
          1.33090231e-04, -1.00029640e-04, -4.89419152e-04,
          8.70214892e-04, 4.35868045e-04, 5.94355748e-04,
          -3.55155411e-04, 5.79849184e-05, 6.45025517e-04,
          -7.47608778e-04, 5.59035572e-04, -2.41641348e-04,
          1.23382837e-03, 7.14720692e-04, 1.37693994e-03, 2.38635956e-04,
          -2.40608305e-03, -9.45333974e-04, -6.06351648e-04,
          -3.43159336e-04, -2.16454361e-03, -3.63856700e-04,
          2.52714759e-04, 3.00652027e-04, -9.75420407e-05,
          -6.85301260e-04, 1.89192899e-04, -6.79262797e-04,
          2.50806508e-04, -2.10538783e-04, 8.12241051e-04,
          -1.33177746e-04, 1.14620052e-04, 1.04962222e-04,
          -4.32839355e-04, -9.58792152e-05, 1.44351026e-04,
          3.82843980e-04, -2.45943491e-04, 5.05431730e-04,
          2.17482826e-04, -1.71955544e-04, 4.11510671e-04,
          1.07238287e-04, 5.27046097e-04, 2.04351367e-04, 1.47242576e-03,
          1.32398738e-04, 2.87367584e-04, -2.13839030e-06,
          -3.15065670e-04, 2.79668282e-04, 6.58869976e-04,
          1.61917051e-04, -3.54002812e-04, -2.98862142e-04,
          1.19797507e-04, -4.16286712e-05, -7.49931613e-04,
          5.46796000e-05, -4.25535909e-05, 5.14537387e-04,
          1.41757526e-04, -1.38512012e-04, 5.24557981e-06,
          -1.13160594e-03, -7.85171651e-05, -1.98544003e-04,
          4.30829095e-04, -4.55060595e-04, -1.13396673e-04,
          -1.73912398e-04, -2.38141371e-03, -6.83607592e-04,
          -2.02306313e-03, -1.54930283e-03, -2.83884630e-03,
          -1.56776121e-04, -9.77650518e-04, -8.76288919e-04,
          -5.11018268e-04, -5.51885576e-04, -3.45630833e-04,
          -2.74858321e-04, -3.29207047e-04, -4.56145848e-04,
          -5.93883260e-06, 1.04416715e-04, 1.33681126e-04,
          1.99213449e-04, -2.95449572e-04, -1.92714389e-04,
          3.58716323e-04, 2.84025940e-04, 5.85321359e-05, 3.80313752e-04,
          2.13619263e-04, -1.87324003e-05, -3.84251325e-04,
          3.23585227e-05, 3.21681931e-04, 1.56165173e-04, 3.71231408e-06,
          2.38570337e-05, 6.11213909e-05, -3.38451908e-04,
          -1.47658575e-04, 1.38107134e-04, -1.44302066e-05,
          -4.79693335e-05, -9.28716501e-04, -1.94740096e-05,
          -3.27619637e-04, 1.25085367e-04, -1.17965152e-04,
          -1.67935868e-04, -5.86740673e-04, 5.65635681e-04,
          4.45030659e-04, 4.83535929e-04, -1.84218690e-04,
          -4.91370505e-04, -6.35567587e-04, -6.23046421e-04,
          -6.31249161e-04, -2.58359942e-04, -5.60201879e-04,
          -1.81329830e-04, -9.14493750e-04, -4.69957886e-04,
          -2.17040256e-03, -3.75955342e-03, -1.44680508e-03,
          -2.17069901e-04, -1.05953368e-03, -1.47835491e-03,
          -2.35816740e-04, -5.50500350e-04, -2.46603246e-04,
          -3.19315412e-04, -3.51965369e-04, -4.28590603e-04,
          8.88249633e-05, -1.40154676e-04, 1.16485848e-04,
          1.94998138e-04, 7.82722127e-05, -1.71942302e-04,
          -4.75363195e-05, 1.67039427e-04, 1.61077856e-04,
          2.43653078e-04, 2.38135195e-04, 1.65200854e-05,
          -3.54970980e-04, 1.09676272e-04, 1.29129214e-04,
          8.75203768e-05, 6.89730005e-05, 1.90925239e-05,
          -7.24112382e-04, 2.51936784e-04, 2.60992645e-04,
          2.86664959e-04, -2.74044491e-04, 4.87821468e-04,
          3.23146203e-04, 2.08736121e-04, 1.91190280e-04, 3.64866515e-04,
          3.56567703e-04, 1.59427553e-04, 2.60717643e-04, 2.38320339e-04,
          8.38338892e-05, -1.03617451e-04, -2.30038931e-04,
          2.80043576e-04, -1.04118290e-03, -1.56873411e-05,
          7.02218676e-04, 1.24945538e-04, -2.15210975e-03,
          -6.65819272e-04, -3.36886081e-03, -6.73303322e-04,
          -2.90771510e-04, -1.25774750e-04, -6.85961044e-04,
          -2.03615986e-03, -1.38004927e-03, -2.15837755e-03,
          -1.61298507e-04, -2.03037038e-04, -6.98077274e-05,
          1.20139972e-04, 2.44328054e-04, -5.83352921e-05,
          -4.52085544e-04, -5.76469756e-04, -1.36156959e-04,
          -8.03363073e-05, 3.61753249e-04, 3.13387311e-04,
          2.63537426e-04, 3.41302628e-04, -4.42272358e-05,
          -2.62789195e-04, 8.51984732e-05, 2.66845509e-05,
          -6.12038566e-05, 1.22200872e-04, 2.06426441e-04,
          1.58823041e-05, 3.53320065e-04, 4.73333785e-05,
          -2.89959658e-04, 1.82362157e-04, -1.77655005e-04,
          4.46780876e-04, -2.68319360e-04, 4.23281395e-04,
          4.40062344e-04, 1.99732131e-05, 1.82527394e-04, 3.32920492e-04,
          3.92756965e-06, 1.61832228e-04, -1.26992862e-04,
          2.09726990e-04, 3.92795249e-04, -1.13390844e-04,
          3.02383327e-04, -2.96206872e-05, -5.53801772e-04,
          -8.72665434e-04, -4.33891582e-05, -8.06230877e-04,
          -4.92421910e-04, 2.61752139e-04, -1.98810035e-03,
          -5.71659300e-04, -6.12846634e-05, -1.96165754e-03,
          -2.10286072e-03, -1.51630770e-03, -4.39767493e-04,
          -2.02133344e-03, -2.79183383e-04, -2.91232398e-04,
          -2.19838519e-04, -2.91761360e-04, -3.60126374e-04,
          -3.81687365e-04, 1.81676121e-04, -2.36442662e-04,
          -2.29106590e-04, -1.30197339e-04, 9.50757458e-05,
          7.22949189e-05, 1.35739319e-04, 2.07523466e-04,
          -2.50864861e-04, -9.38857011e-06, 3.14311619e-04,
          -1.08056440e-04, -2.20090209e-04, 4.80445051e-05,
          2.74218881e-04, 5.28538403e-05, 4.87572863e-04, 1.00979385e-04,
          4.67365026e-04, 3.03451176e-04, 8.30743345e-04, 6.13386102e-04,
          4.57446993e-04, 6.38885715e-04, 4.00489051e-04,
          -1.42728473e-04, -3.49458074e-04, 4.38378105e-04,
          8.66675342e-04, 5.71057608e-04, -2.42010676e-04,
          -1.92740539e-04, 5.63912326e-04, 2.44477251e-05,
          2.46991229e-04, -1.09735229e-04, 7.97630928e-05,
          -6.12755655e-04, -5.14883606e-04, -1.37785028e-04,
          1.01177243e-03, -1.54475012e-04, -4.27554682e-04,
          -1.84900899e-04, -3.51586990e-04, -3.05542047e-03,
          -1.33523776e-03, 5.69121446e-04, -7.81096314e-05,
          -3.34777683e-03, -6.54072559e-04, -2.66613759e-04,
          1.41735829e-04, -6.22812135e-04, -3.94034694e-04,
          -4.30361542e-05, 5.74533420e-04, -2.42189926e-04,
          -3.32779047e-04, -1.43705562e-04, 1.02986523e-04,
          -8.99126899e-05, -4.46470222e-04, -2.26089309e-04,
          2.61705136e-04, 3.17702536e-04, 2.57798529e-04,
          -1.96496057e-06, 3.13324970e-04, 2.23953277e-04,
          2.30068428e-04, -1.29703249e-05, 8.04458978e-04,
          9.51901438e-06, 2.45147850e-04, -8.57759660e-05,
          1.37276575e-03, 2.76945764e-04, 1.99138696e-04,
          -5.22926996e-07, -2.24172152e-04, -5.61004330e-04,
          -5.29437442e-04, 5.79175656e-04, 4.48067411e-04,
          -2.75735540e-04, -2.15173859e-04, -4.72359476e-04,
          -4.97029687e-04, -2.75207829e-04, 7.02449353e-04,
          -2.38338733e-04, 6.62993349e-04, -7.92632869e-04,
          6.48664194e-04, -5.05583885e-04, 4.16386843e-04,
          -4.82116564e-04, -9.30441951e-04, -1.42898265e-04,
          8.80576728e-04, -8.12612299e-04, -7.04344478e-04,
          8.22553644e-04, -3.80700745e-04, -1.07737945e-03,
          -4.55492518e-05, -7.51490807e-05, 3.50625109e-04,
          -7.99149057e-05, 4.63936885e-04, 1.77316542e-04,
          2.18448797e-04, 6.68142093e-05, -8.88620270e-05,
          -2.39565015e-05, -1.50813183e-04, 1.85038400e-04,
          -3.61201295e-04, -1.94860535e-04, 1.90996016e-05,
          1.01581827e-05, -1.74580273e-05, 1.99610789e-04,
          7.95782718e-04, 2.98885803e-04, -1.73630826e-06,
          -1.60650205e-04, 3.60442093e-04, -1.77379130e-04,
          4.44170844e-04, 1.74571265e-04, 5.88682131e-04, 4.11691377e-04,
          4.22491721e-04, -6.04451016e-05, 4.81784518e-04,
          1.07355438e-04, 3.74711235e-04, 4.57309216e-04, 7.00353063e-04,
          2.66343413e-04, -8.89907642e-06, 4.32164234e-04,
          -1.26055937e-04, -1.43937505e-04, 3.44378350e-04,
          -4.83129959e-04, 4.39365453e-04, -1.59602365e-04,
          1.21296151e-03, 3.13290584e-05, 2.60801862e-05,
          -2.84038397e-04, -9.68387700e-04, 3.00815591e-04,
          2.12615007e-03, -1.00342685e-03, -1.84041774e-03,
          3.01947264e-04, -2.82663881e-04, -6.65221713e-04,
          1.40749598e-05, -4.03713551e-04, 2.92669603e-04,
          4.24381462e-04, 7.32793487e-05, 1.09927510e-04, 1.89293642e-04,
          -2.01305797e-04, 2.55532341e-05, 2.79426138e-04,
          -3.61851882e-04, 2.80722859e-04, 5.03916090e-05,
          4.28914529e-04, -1.48010819e-04, -1.57639472e-04,
          3.23632266e-04, 5.46111078e-05, 3.51839582e-04,
          -1.12102578e-06, 2.70064338e-04, -5.23684066e-05,
          6.86773099e-04, -1.35920447e-04, 1.97503861e-04,
          4.81801748e-04, -1.02321210e-03, 2.96745478e-04,
          9.20695602e-05, 1.45859565e-04, -3.48145368e-05,
          3.60683334e-04, 1.48512700e-04, 5.25243871e-04, 3.46075452e-04,
          2.33088373e-04, -2.89107789e-04, 8.14778847e-04,
          1.28473999e-04, -2.56042375e-04, -4.05453611e-04,
          -5.01380593e-04, 7.74697401e-05, -5.26711228e-04,
          -1.01621401e-04, 9.34245036e-05, -8.42560257e-04,
          -4.50109830e-04, -4.49144602e-04, 7.24368205e-04,
          -2.18747722e-04, -1.66733877e-03, -2.42440985e-03,
          9.58217133e-05, -1.07168872e-03, -3.00847203e-03,
          -2.71701691e-04, -4.31508408e-04, 5.23833769e-05,
          1.72327163e-05, -5.45170682e-04, -3.34712677e-04,
          -7.89206169e-05, -3.67665809e-04, 1.60551921e-04,
          4.82777541e-04, -1.30947476e-04, -2.51973106e-05,
          6.81354722e-05, 2.30051402e-04, 3.26872629e-04,
          -1.22590636e-05, 4.78743663e-04, 1.65810852e-04,
          -1.48448773e-04, 2.29601519e-05, 1.42812554e-04,
          3.98889933e-05, -1.00959369e-04, 7.94279276e-06,
          -3.58317426e-04, 3.62431456e-04, 3.40295257e-04,
          3.05407244e-04, -5.70607313e-04, -6.20432475e-05,
          6.66199136e-04, 2.96302605e-04, -2.78216001e-04,
          1.71336826e-04, -1.23042482e-04, -7.75444205e-05,
          -1.93140382e-04, 3.46891466e-04, 5.03114366e-04,
          1.88762497e-04, 8.73148325e-04, -1.80380928e-04,
          -6.37958001e-04, -2.29658617e-04, 4.53995017e-04,
          7.98198234e-05, -1.48524088e-03, -1.38173869e-04,
          1.24274893e-03, 3.39677237e-04, -4.72879474e-04,
          -4.02305787e-03, -1.95519184e-03, -7.44371500e-04,
          -1.45340909e-03, -1.63117133e-03, 2.16015411e-04,
          2.89580697e-04, 3.61524639e-04, -1.45637969e-04,
          -1.83542448e-04, -1.49494008e-04, -1.08953012e-04,
          -1.83871234e-04, 1.99853501e-04, 4.03099140e-04,
          2.69180600e-04, 2.24616393e-04, 2.32168750e-05, 1.05338222e-04,
          1.48760475e-04, 3.22561245e-05, 2.60235189e-04, 8.44737297e-05,
          9.08401344e-05, 1.00514255e-04, 1.33982394e-04, 9.08167658e-06,
          1.06475120e-04, 2.22661783e-05, -4.80038318e-04,
          5.43751754e-04, 8.42182664e-04, 4.83463809e-04,
          -3.43579391e-04, 2.51753343e-04, 5.85795206e-04,
          3.76751792e-04, 9.33389456e-05, 1.22670011e-04,
          -6.62571765e-05, 1.12528214e-05, 2.67170981e-04,
          5.59828244e-04, 3.14948935e-04, 5.80323685e-04,
          -1.08315100e-04, -3.56828357e-04, -6.91864290e-04,
          -1.20804267e-04, 5.73045574e-04, 2.04127955e-05,
          -3.59626109e-04, -5.86273556e-04, -8.58514162e-04,
          -2.83758302e-04, -4.31574474e-04, 1.28649408e-03,
          3.83120641e-04, 1.20981340e-05, -4.05699393e-04,
          -7.28431391e-04, -1.70405008e-04, -3.32004536e-04,
          5.25837313e-05, 5.55641134e-04, 4.77529160e-04, 6.67467830e-04,
          5.83281973e-04, 3.38333557e-05, 2.37729750e-04,
          -9.09072151e-06, 2.79735657e-04, 2.37081884e-04,
          2.23671392e-04, 5.17779845e-04, 2.39975372e-04, 3.90569148e-05,
          5.25680254e-04, 3.01616674e-05, 9.25613625e-04, 7.79140828e-05,
          2.52579281e-04, 3.14024037e-05, 4.01147612e-04, 1.20400306e-04,
          2.81363755e-04, 2.87547329e-04, -2.72607926e-04,
          4.44601610e-04, 6.80671947e-04, 3.11754149e-04,
          -4.33264329e-04, 2.55271385e-04, 6.60445803e-05,
          1.51105109e-04, -3.99418030e-04, 1.49584332e-04,
          4.89701459e-04, 5.08250901e-04, 3.77009012e-04, 3.29084782e-04,
          6.69251080e-04, -3.80054553e-04, 4.47799015e-04,
          -2.75295053e-04, -1.65110294e-04, -2.09317834e-04,
          8.88522598e-04, 3.99062905e-04, -3.67536384e-04,
          2.30752441e-04, -8.01411006e-05, 4.56752023e-04,
          -2.35412433e-03, 1.34137901e-03, -1.05269261e-04,
          -2.03147717e-03, 2.13827341e-04, -3.32803465e-05,
          4.91838029e-04, 6.69037516e-04, 2.82125939e-06, 6.26144174e-05,
          2.89889314e-04, -2.48828408e-04, 2.44731666e-04,
          -3.59755813e-06, 1.38951567e-04, 3.59443475e-05,
          1.72732671e-05, 1.86615391e-04, -1.60061609e-04,
          -1.15464718e-05, 6.85538631e-04, -1.17990403e-05,
          2.72973179e-04, 8.66772898e-05, 5.38408640e-04, 5.94427001e-05,
          4.62566153e-04, 2.75314742e-05, 4.03446378e-04, 3.72975454e-04,
          -7.04858801e-04, 3.83799343e-04, 8.47369549e-04,
          1.28944812e-04, -1.08608743e-03, -1.51999382e-04,
          -3.24774766e-04, 2.56766740e-04, 3.86776373e-04,
          3.39599210e-04, 9.63438215e-05, -1.86316669e-04,
          2.79117696e-04, 5.63618869e-06, -3.85474792e-04,
          -2.18916190e-04, 7.59343093e-04, 1.42749326e-04,
          -8.17241787e-04, 1.00254510e-04, 1.19036413e-03,
          -5.46636758e-04, -1.11350801e-03, 5.49081087e-05,
          3.44541550e-05, -3.02602490e-03, -1.91837887e-03,
          2.80556735e-03, -2.57266307e-04, -2.85352860e-03,
          1.81039635e-04, 5.42217051e-04, 6.03786320e-04,
          -5.61013294e-04, -4.60230018e-04, 8.19514098e-04,
          1.27964106e-03, -3.95925657e-04, 1.25626189e-04,
          1.78971866e-04, 7.13962345e-06, 3.48266040e-04,
          -2.69876793e-04, -2.90265918e-04, -6.95842973e-05,
          1.17105141e-04, 2.68057629e-04, -7.57913804e-05,
          -3.10944387e-07, 2.59455293e-04, 9.93071535e-06,
          -2.59888038e-05, 3.49696056e-04, -2.95239861e-05,
          1.81518160e-04, 6.80591302e-06, 4.66614874e-04, 3.72169539e-04,
          -2.35735526e-04, -3.17493664e-06, -7.90330407e-04,
          -3.15124402e-04, -2.11818442e-05, 5.84494614e-04,
          1.13198126e-03, 4.20408731e-04, 3.42671410e-04, 1.50414799e-05,
          -1.80691830e-04, -1.72505985e-04, 3.63130704e-04,
          -2.66381510e-04, -2.79145515e-05, 1.34473652e-04,
          7.43813813e-04, -3.86168285e-05, 1.11089833e-03,
          -3.20531224e-04, -1.45222584e-03, -6.54457253e-04,
          2.87331277e-05, 4.95365995e-04, 6.03761873e-04, 4.05339478e-03,
          -6.60924590e-04, -2.62986403e-04, 2.88543204e-04,
          5.68636897e-05, 3.34060256e-04, -3.24942637e-04,
          6.53775816e-04, 9.25199362e-04, 1.04873534e-03, 4.17514908e-04,
          -9.36921879e-06, 6.57687124e-05, 2.36008433e-04,
          1.44216930e-04, -3.99703888e-04, -8.36641557e-05,
          4.91691862e-05, -4.56424488e-04, 3.58901452e-05,
          8.02602590e-05, 6.71596557e-04, 1.69720239e-04, 3.93750161e-05,
          1.97219106e-06, 4.42048215e-04, -1.78533184e-04,
          8.07989563e-04, -2.23026927e-05, -4.27294610e-04,
          3.87355452e-04, 2.71407509e-04, -2.15993772e-04,
          -6.52728777e-04, -1.06811611e-04, 9.83411610e-06,
          3.67791508e-04, 1.10477314e-03, 3.12765565e-04, 2.41060188e-04,
          4.07039275e-04, -1.77099268e-04, -6.88907399e-04,
          1.68338811e-04, -3.37802048e-05, 3.48619826e-04,
          1.67773440e-04, 2.51661288e-04, 1.73972148e-04, 9.83279897e-04,
          3.73982257e-05, -2.63619446e-03, -2.21765382e-04,
          -1.27940148e-04, -5.45860908e-04, -1.04486535e-03,
          4.82569542e-03, 5.01699105e-04, -1.74009555e-03,
          2.82292865e-04, -4.38295741e-04, 2.25384327e-04,
          4.34254966e-04, -9.84929720e-05, 6.08790782e-04,
          5.92686003e-04, 4.81651630e-04, -4.59025177e-05,
          3.72250979e-05, 3.05404770e-04, 3.80453508e-04,
          -2.95437960e-04, 2.49632925e-04, 1.87155038e-05,
          -2.89301301e-04, 9.68734239e-05, 1.54400739e-04,
          3.19932151e-04, -1.20889272e-04, 4.96152381e-04,
          3.67336834e-05, 3.30877403e-04, -1.43214842e-04,
          2.90565164e-04, 3.10423668e-04, -7.69879494e-04,
          1.96046618e-04, 1.61968332e-04, 1.66189231e-04, 2.06413533e-04,
          4.33057925e-04, -3.55541124e-05, -8.46851108e-05,
          4.26024490e-04, 3.37192672e-04, -1.63296703e-04,
          7.34252273e-04, 3.15921934e-04, -3.00982763e-04,
          2.71938014e-04, -2.62760470e-04, 4.14665410e-05,
          -7.01514422e-04, -9.14200617e-04, 5.62946116e-05,
          2.84380803e-04, -3.25089095e-05, -1.45641749e-03,
          -1.28357584e-04, -3.71697388e-04, -1.24630914e-03,
          -2.69404193e-03, 3.50304390e-03, -3.65763495e-04,
          -1.74577930e-03, 2.37255401e-04, 1.64856989e-04,
          3.46726330e-04, 3.29600094e-04, -4.91933257e-04,
          -2.05813572e-04, 8.25799827e-04, 2.39710280e-04,
          1.32554065e-04, 1.78000424e-04, -6.78962460e-05,
          8.65728216e-05, -4.98596928e-05, 2.73854384e-05,
          3.12708667e-04, 9.59914087e-06, 3.34192358e-04, 1.75845053e-04,
          5.33481187e-04, -6.72061651e-05, 7.36476868e-05,
          1.20804216e-05, -1.28892731e-04, 4.27347513e-05,
          -9.62447841e-04, 8.90625932e-04, 2.30307737e-03,
          4.00334247e-04, -3.34796088e-04, 2.95353850e-04,
          1.95508730e-03, 5.09732927e-04, 2.52993118e-06,
          -4.31958790e-04, -8.97193167e-05, -8.70518707e-05,
          8.47488918e-05, 7.68830301e-04, 1.24422077e-04, 1.36894203e-04,
          1.14342780e-03, -1.49246873e-04, -8.79170722e-04,
          -1.08499185e-03, 4.42846242e-04, -2.28297169e-04,
          2.90386175e-04, 5.84534253e-04, 8.20807589e-04,
          -4.83960728e-04, -6.33215241e-04, -1.66312803e-03,
          -3.93986702e-04, 1.58547761e-03, -9.76194104e-04,
          1.19574586e-04, 6.95770432e-04, 3.75858741e-04,
          -1.33919952e-04, 3.46521811e-05, -4.63363744e-04,
          -1.46275255e-04, 8.29675701e-04, 3.95933195e-04,
          2.99727486e-04, 4.27462131e-04, 1.71472697e-04,
          -3.78892801e-05, 3.44182423e-04, 1.65195830e-04,
          3.91704161e-05, 3.07129667e-04, -8.72806704e-05,
          1.51781991e-04, 1.74155191e-03, -4.46878475e-05,
          -3.27209236e-05, -8.45097311e-05, 7.98208814e-04,
          1.07280663e-04, -9.32621188e-04, 6.76251540e-04,
          1.54488196e-03, 7.20108277e-04, -9.63177299e-04,
          6.10394345e-04, 1.13080675e-03, 8.08092649e-04, 9.14932287e-04,
          1.03304519e-04, 7.90079299e-04, 7.75420922e-04, 9.34606942e-04,
          7.38711271e-04, 4.22686309e-04, 8.25300172e-04, 1.52181647e-05,
          3.22658780e-05, -2.66568823e-04, 1.78046801e-04,
          5.49536664e-04, 4.70988452e-04, -6.43147854e-04,
          -1.56923721e-04, -1.42564022e-04, -2.11916558e-04,
          5.82297707e-06, 2.43925885e-03, 1.49566273e-03,
          -1.33365416e-03, 1.71656313e-04, -1.83615877e-04,
          -4.62293101e-05, -7.98555484e-05, 2.84705049e-04,
          6.51451701e-04, 8.49168457e-04, 4.93447005e-04, 3.02869244e-04,
          1.47287938e-04, 3.19434475e-04, -3.53310975e-06,
          4.27438266e-04, 2.83326168e-04, 2.56314961e-04, 5.33832063e-04,
          6.25943503e-05, 4.60346695e-04, -1.62665849e-04,
          1.14040908e-04, 1.48287183e-03, 2.13469146e-04,
          -5.87755458e-05, 1.11124769e-04, 1.00862246e-03,
          1.35366921e-04, -4.34311281e-04, 6.33222458e-04,
          1.02166703e-03, 8.55901628e-04, -5.30214224e-04,
          6.63534040e-04, 6.97132316e-04, 7.61665695e-04, 4.83928336e-04,
          7.11611880e-04, 5.98480401e-04, 9.41044884e-04, 1.10354344e-03,
          4.37748415e-04, 6.13291922e-04, 9.39919963e-04, 9.78088938e-04,
          -3.10259114e-04, 2.69580283e-04, 4.07562620e-04,
          -9.81244448e-05, 6.71515940e-04, -4.88275924e-04,
          6.46633911e-04, 1.60045238e-04, 3.47327790e-04, 2.70053890e-04,
          1.58015534e-03, -1.87050248e-03, -6.23665808e-04,
          4.87340149e-05, -2.90629741e-05, 7.78004411e-04,
          -8.37279222e-05, 7.85400509e-04, 1.12468074e-03,
          -1.89704326e-04, 5.05691685e-04, 2.81460845e-04,
          3.35800170e-04, 5.06954675e-04, 3.01438413e-04, 2.88664014e-04,
          3.16340884e-04, 2.64217262e-04, 3.46900837e-04, 3.42162457e-05,
          4.00438934e-04, 1.59792762e-05, 1.39353026e-04, 1.09012437e-03,
          1.62004217e-04, 2.66616436e-04, 3.67642315e-05, 7.93297542e-04,
          2.79101787e-05, 9.63745755e-04, 6.42185507e-04, 1.50038526e-04,
          1.22656475e-03, 5.97702689e-04, 8.25149531e-04, 7.76075816e-04,
          7.26818165e-04, -4.20616243e-06, 3.86149070e-04,
          2.97783088e-04, 6.15104334e-04, 7.98943976e-04, 4.03011101e-04,
          2.91389384e-04, 6.34919677e-04, 7.61793331e-08,
          -1.74990375e-04, 8.20167246e-04, 1.60816446e-04,
          -8.23379669e-04, 2.29997851e-04, 7.10543070e-04,
          1.30767628e-04, -2.96820072e-04, 6.45368127e-04,
          5.79683285e-04, -2.17262143e-03, -2.05649040e-03,
          7.25157035e-04, 1.59169547e-04, -9.10929346e-04,
          5.59310371e-04, 5.10919141e-04, 8.57193838e-04,
          -4.05663828e-04, -4.07624088e-04, 1.51176588e-04,
          1.44922757e-03, 2.24091195e-06, 1.82758507e-04, 4.86982550e-04,
          1.59091418e-04, 4.51190630e-04, 7.74622022e-05, 1.23648197e-05,
          9.83677965e-05, 2.09948368e-04, 2.73985701e-04, 1.05026120e-04,
          2.31533850e-04, 3.34990094e-04, 1.26798448e-04, 2.20761998e-04,
          1.85635639e-04, 6.99161901e-05, 8.28316493e-04, 3.53077048e-04,
          5.90671028e-04, 7.48484628e-04, 4.73873893e-04, 7.70451792e-04,
          1.60640164e-03, 5.86012320e-04, 2.93458026e-04, 8.78615188e-04,
          9.92568675e-04, 8.08919373e-04, 8.77446611e-04, 2.78366002e-04,
          5.31686637e-05, -2.84363705e-05, 4.13376081e-04,
          -2.39687070e-04, 1.68738799e-04, 3.13032797e-04,
          -3.56230848e-05, 5.33033221e-04, 6.54890318e-04,
          -2.55843595e-04, -1.26530405e-03, -1.87303915e-04,
          1.57815040e-04, 1.53612520e-04, 1.21146534e-03, 3.18843080e-03,
          -3.38001293e-04, 6.19923696e-04, 3.71791073e-04,
          3.98918113e-04, 2.88104871e-04, -1.86604739e-05,
          2.35778250e-04, 8.74664227e-04, 9.25909786e-04, 6.22980180e-04,
          -6.33699310e-05, 2.37146072e-04, 1.32889414e-04,
          5.08034427e-04, -2.80347394e-05, 2.75520491e-04,
          1.43566940e-04, -2.79441796e-04, 2.43219358e-04,
          3.51013332e-05, 4.45504411e-04, 1.85853205e-04, 2.19810783e-04,
          1.17362761e-04, 8.74808058e-04, 5.04512645e-05, 6.33067742e-04,
          3.29379662e-04, -1.54643392e-04, 7.45619531e-04,
          7.89298094e-04, 2.94888712e-04, 6.84349914e-04, 3.11394950e-04,
          1.16848874e-04, 6.89635199e-05, 4.18508513e-04, 5.18874323e-04,
          2.77041167e-04, 1.29464766e-04, 9.31153118e-05,
          -3.70643102e-04, -2.55330844e-04, 1.06079624e-05,
          4.66561614e-04, -1.97678346e-05, -2.35894302e-04,
          4.89097612e-04, 1.13649573e-03, -3.98565346e-04,
          -2.64767953e-03, -4.33411100e-04, 1.79796582e-04,
          2.42195107e-04, -1.27563265e-03, 4.59131040e-03,
          7.52470864e-04, -7.53014639e-04, -1.89599130e-04,
          3.94698691e-05, 1.43137178e-04, 1.87193902e-04, 2.25732620e-05,
          6.58818870e-04, 2.84034177e-04, 6.31962670e-04,
          -1.18387557e-04, 2.35705360e-04, 2.88265583e-04,
          3.34085868e-04, 1.12478694e-04, 2.11763516e-04, 2.81713757e-04,
          -3.14222452e-05, 5.30181569e-05, 5.60018452e-05,
          2.16588116e-04, 1.11042420e-04, 2.32932114e-04, 4.83100775e-05,
          1.19784824e-03, 4.82054056e-05, -7.72473344e-04,
          3.11373005e-04, 3.24296183e-04, 4.19291639e-04,
          -4.99389542e-04, 5.25024196e-04, 6.62552251e-04,
          2.78728025e-04, 1.18670003e-04, -3.27760179e-04,
          3.39198479e-04, -2.85948554e-05, 4.52622044e-04,
          1.95602130e-04, 4.72118147e-04, 2.50162848e-04, 3.82554193e-04,
          5.70187578e-04, -6.35850534e-04, -6.19744475e-04,
          -5.26027172e-04, -1.99248869e-04, 1.21026773e-04,
          -1.33293142e-04, -4.39173105e-04, -3.42719170e-04,
          -8.84342124e-04, -1.23301958e-04, -1.45928271e-03,
          2.96182488e-03, -8.75684258e-04, -8.25793657e-04,
          -3.05472902e-04, 6.44646818e-04, -6.14542951e-05,
          -1.19878569e-04, -1.71821957e-04, 4.37027993e-05,
          5.60375163e-04, 4.29196778e-04, 2.24690157e-04, 3.23472865e-04,
          1.50895430e-05, 1.33474678e-04, 1.88397753e-04, 1.51988352e-05,
          3.87385167e-04, 3.71097776e-05, 6.55454787e-05, 7.25536956e-05,
          5.08851081e-04, 6.21717409e-05, -3.60933162e-04,
          -2.18087353e-05, 4.27727384e-04, 1.42718942e-04,
          -1.48134213e-03, 5.75040933e-04, 3.36988689e-03,
          3.52759787e-04, -7.51233660e-04, 4.85883909e-04,
          2.90316553e-03, 4.36607050e-04, 4.98466019e-04, 9.26611392e-05,
          1.36835326e-04, 5.70620294e-04, 3.69319925e-04, 3.11858574e-04,
          3.14044592e-04, 9.07103764e-04, 1.55826123e-03, 3.91828391e-04,
          -1.21807074e-03, -8.05104210e-04, 2.83999136e-04,
          -1.98645226e-04, 3.50717804e-04, 3.24962486e-04,
          9.11267940e-04, -4.01930185e-04, -1.29247294e-03,
          2.38755401e-05, 4.98383248e-04, 1.10331120e-03,
          -1.45599572e-03, 6.72669965e-04, 6.98363292e-04,
          4.88421356e-04, -1.90667750e-04, -2.81367451e-04,
          -4.32865520e-04, 7.89330370e-05, 7.48868100e-04,
          3.65070242e-04, 1.68748302e-04, 2.98916013e-04, 1.11748421e-04,
          -3.82701437e-05, 5.34967403e-04, 1.14381335e-04,
          2.68385367e-04, 1.69050487e-04, -2.51539586e-05,
          6.43182575e-05, 1.36357627e-03, -5.33746825e-05,
          -3.88148590e-04, 8.31887064e-06, 1.49525271e-03,
          1.58771916e-04, -4.04152001e-04, 7.48310238e-04,
          1.40599837e-03, 8.91872158e-04, 3.36336321e-04, 6.29997347e-04,
          1.83347729e-03, 7.86383520e-04, 7.90663587e-04, 2.42622584e-04,
          8.29559460e-04, 9.45575128e-04, 6.57398428e-04, 1.00333150e-03,
          2.44716095e-04, 5.10729209e-04, -5.07925521e-04,
          5.89502102e-04, 9.45763168e-06, 4.58161609e-04, 1.23278284e-03,
          6.88178872e-04, 3.98960925e-04, 3.89600958e-04,
          -2.78748292e-03, 1.25001723e-04, 7.49064930e-05,
          1.31872552e-03, 1.33139594e-03, -2.43941759e-05,
          9.14902077e-04, -8.93368444e-04, -4.58923692e-04,
          5.99217659e-04, 5.15357475e-04, 2.48019351e-04, 1.10526325e-03,
          6.67675398e-04, 2.25424767e-04, -2.36981999e-04,
          1.43970625e-04, 6.04072193e-05, 6.76958356e-04, 2.76054518e-04,
          1.95095461e-04, 2.93451216e-04, 2.26252261e-04, 2.61524576e-04,
          7.91560979e-06, 6.41935003e-06, 1.06213067e-03, 1.18292315e-04,
          1.96295223e-04, 1.35856753e-04, 1.01882918e-03, 1.78215574e-04,
          -2.00331386e-04, 7.24488578e-04, 1.62768515e-03,
          9.50649846e-04, -2.78428925e-04, 5.64300804e-04,
          1.54723146e-03, 7.51798565e-04, 7.80277071e-04, 7.48311344e-04,
          5.52077137e-04, 1.01774454e-03, 5.39183966e-04, 4.78769973e-04,
          8.00029258e-04, 7.45464407e-04, 7.66588608e-04, 2.73286976e-04,
          8.96450219e-05, 7.87633617e-05, 6.29754271e-04, 6.08855917e-04,
          9.83447808e-06, 3.53320385e-04, -6.91521738e-04,
          -6.02414621e-05, 4.26765037e-04, 7.25511811e-04,
          -1.57679035e-03, -2.62070360e-04, 9.40316881e-04,
          3.33949371e-04, 2.58029671e-04, 3.63414671e-04, 7.64879340e-04,
          5.99609397e-04, -1.05155559e-04, 3.79201199e-04,
          2.12351093e-04, 4.81071300e-04, 2.20928225e-04, 4.50132793e-04,
          6.17043988e-04, 3.08190414e-04, 2.32081147e-04, 6.38355967e-04,
          2.54019134e-04, 4.49545878e-05, 1.08440268e-04, 8.98221188e-05,
          8.54854996e-04, 1.17969787e-04, 1.63587887e-04, 9.59766694e-05,
          5.27397846e-04, 2.56840722e-04, 6.20892271e-04, 9.16775491e-04,
          2.10647006e-03, 6.29126444e-04, 2.02448922e-04, 6.58062170e-04,
          1.70283904e-03, 5.79584623e-04, 8.25232768e-04, 7.71833234e-04,
          6.69094443e-04, 8.57866602e-04, 6.17904530e-04,
          -5.55375591e-05, 6.19096216e-04, 6.04865840e-04,
          5.69729134e-04, 3.98703211e-04, 7.15880014e-04, 2.73845653e-04,
          -6.96415256e-04, 4.07930609e-04, 9.31894290e-04,
          -9.39430975e-05, 1.13644078e-03, 2.17757857e-04,
          5.62575064e-04, -1.54626451e-03, -1.79944828e-03,
          -2.30563091e-04, 1.20961352e-03, -6.58843142e-04,
          2.33063372e-04, 6.63181418e-04, 7.28971732e-04,
          -1.95555695e-05, 1.67046121e-04, 1.10922992e-05,
          2.01676972e-04, 5.79884858e-04, 2.61527079e-04, 4.03358863e-04,
          3.34430806e-04, 9.14228367e-05, 1.33762180e-04, 2.75180588e-04,
          3.27764021e-04, 2.93904377e-05, 1.94267006e-04, 7.01112585e-05,
          5.45846764e-04, 1.86226855e-04, 5.98014740e-04, 1.27779829e-04,
          1.70888205e-04, 2.39954417e-04, 1.03043404e-03, 6.72497437e-04,
          2.66835280e-03, 6.19533414e-04, 1.02956290e-03, 7.25404592e-04,
          1.65468117e-03, 7.43382261e-04, 6.18489168e-04, 5.13363513e-04,
          9.33573057e-04, 6.82987680e-04, 5.81138884e-04, 2.53592822e-04,
          6.81010250e-04, 3.88551445e-04, 9.01912164e-04, 4.68924351e-04,
          3.12580814e-04, 3.01184569e-04, 6.22424588e-04, 1.24389029e-04,
          6.69901958e-04, -2.36080217e-04, 7.11792163e-05,
          -6.93402399e-05, -1.63320758e-04, -5.54141763e-04,
          8.37631000e-04, 9.77916807e-06, 1.04393542e-03,
          -6.98407937e-04, 1.71270935e-04, 5.30149497e-04,
          5.05847966e-05, 1.68063489e-04, 2.40540350e-04, 7.62869837e-04,
          3.50903225e-04, 5.32431412e-04, 6.16163816e-05, 1.21282341e-04,
          1.23569553e-04, 2.31110724e-04, 1.07307358e-04, 8.48783166e-05,
          3.23645858e-04, 2.78109830e-04, 2.89719348e-04, 7.69227845e-05,
          8.33096565e-04, 2.10082799e-04, 5.39769942e-04, 1.61122603e-04,
          3.93452530e-04, 1.39870084e-04, 4.76741901e-04, 3.73386982e-04,
          9.08307498e-04, 7.86732067e-04, 9.93921887e-04, 1.10397965e-03,
          1.71927607e-03, 4.39012161e-04, 5.95773337e-04, 6.17746555e-04,
          8.46826006e-04, 8.82348686e-04, 6.18744409e-04, 7.18718104e-04,
          2.66329065e-04, 2.95860547e-04, 7.27265651e-05, 6.55778160e-04,
          7.00656732e-04, 3.73185438e-04, 2.58122891e-04, 3.04128043e-04,
          7.96605484e-04, -5.12088474e-04, -2.32276670e-03,
          2.10059632e-04, 8.02778522e-05, 2.39342189e-04,
          -1.24139874e-03, 5.03172167e-04, 7.00990204e-04,
          -1.64249178e-03, -8.63414607e-05, 3.49217240e-04,
          1.50343578e-04, 3.87154796e-05, 3.81716876e-04, 3.07982235e-04,
          3.55656724e-04, 4.99020171e-05, 1.74373999e-05, 2.20857095e-04,
          3.12182558e-04, 3.52481235e-04, 1.28576517e-04, 2.69033189e-04,
          3.26528883e-04, 1.89681552e-04, 2.80136213e-04, 2.13848689e-05,
          7.68927042e-04, 2.77474959e-04, 1.92161402e-04, 2.19761627e-04,
          1.27547048e-03, 7.06535211e-05, -5.63072215e-04,
          4.07907559e-04, 3.46584537e-04, 4.22734505e-04,
          -3.70115013e-04, 6.89577369e-04, 7.52873719e-04,
          4.41237498e-04, 6.20808802e-04, 4.23274876e-04, 7.56644644e-04,
          4.03237267e-04, 5.77604456e-04, 3.97037889e-04, 3.65901797e-04,
          3.85998603e-04, 1.02565321e-03, 8.81863758e-04,
          -2.14714659e-04, 2.90909840e-04, 1.29587250e-04,
          1.83560860e-05, -2.19676760e-04, -1.73750144e-04,
          5.97537321e-04, 1.86180696e-05, 2.98331270e-06,
          -1.71188192e-04, -5.16569358e-04, -4.27707331e-04,
          -7.79236376e-04, -1.67598692e-03, -1.54271809e-04,
          7.85928336e-04, 1.86811478e-04, 2.31148479e-05,
          -8.52759622e-05, -3.04030284e-04, -2.34617182e-04,
          -4.91131679e-04, 1.64206489e-04, 3.69388697e-04,
          2.77379411e-04, 4.03785321e-04, -1.67887294e-04,
          2.84298585e-04, 3.49602982e-04, 1.09853390e-04, 8.10525889e-05,
          8.96881902e-05, 1.02127146e-03, 1.08354798e-04,
          -3.46593006e-04, -4.92826484e-06, 8.82892578e-04,
          5.27605007e-05, 1.22290294e-04, 3.90533678e-04, 2.43068743e-03,
          4.76345973e-04, -4.38269431e-04, 4.58829978e-04,
          2.30895379e-03, 4.89898841e-04, 9.14039148e-04, 5.92875178e-04,
          5.05174976e-04, 6.15287165e-04, 2.37148677e-04, 7.71527339e-05,
          4.99396469e-04, 7.03565835e-04, 1.57518149e-03, 7.64800585e-04,
          1.15283969e-04, 5.66743147e-05, -6.49149588e-04,
          -2.51988153e-04, -2.82843015e-04, -4.00967292e-05,
          1.65832555e-03, 1.69289546e-04, 3.57953744e-04,
          -1.10373239e-03, 8.18401575e-04, -8.92294163e-04,
          -4.46616905e-04, -2.14613625e-04, 5.35768108e-04,
          6.35327771e-04, 4.46326303e-04, 4.90517530e-04,
          -4.40345029e-04, -3.26809182e-04, -2.95549864e-04,
          2.40384456e-04, 2.35217667e-04, 2.76109902e-04, 2.28125238e-04,
          2.30054458e-04, 6.41406587e-05, 2.11343824e-04, 7.47155718e-05,
          1.63843608e-04, 2.32872320e-04, 1.03787854e-04, 1.24077231e-03,
          5.71242490e-05, -3.48759233e-04, -2.26584889e-05,
          1.53389934e-03, 1.49064799e-04, 4.84455348e-04, 4.49005835e-04,
          1.76441169e-03, 4.88369551e-04, 6.77787350e-04, 1.86098754e-04,
          1.87909731e-03, 5.33506041e-04, 9.62709833e-04, 2.75758619e-04,
          5.26417338e-04, 4.79573384e-04, 5.17927750e-04, 8.21711437e-04,
          4.90001170e-04, 1.39469383e-04, 4.20836004e-05, 2.15917040e-04,
          9.00775776e-04, 3.75997246e-04, 2.19967961e-03, 6.11739059e-04,
          5.42767986e-04, 2.62028276e-04, -3.38068046e-03,
          3.98332486e-04, 6.29273592e-04, 8.96057696e-04, 1.79271901e-03,
          4.02042679e-05, 6.63920247e-04, -2.73040589e-03,
          -2.17946930e-04, 7.23406556e-04, 5.18915767e-04,
          3.20940861e-04, 7.97362300e-04, 6.55543816e-04, 5.09331148e-05,
          -9.78642493e-05, 2.30378020e-04, 2.14032509e-04,
          2.07751233e-04, 1.88243212e-04, 1.83929340e-04, 4.89193189e-04,
          9.74968862e-05, -1.36732197e-05, 2.92817422e-04,
          2.35493480e-05, 7.57641625e-04, 1.97159497e-05, 4.24071826e-04,
          6.19794228e-05, 9.55487078e-04, 1.51785198e-05, 8.37517960e-04,
          3.06828617e-04, 1.77547138e-03, 3.22892331e-04, 4.17819771e-04,
          1.54139125e-04, 1.85369048e-03, 4.69832215e-04, 7.09735905e-04,
          6.36515324e-04, 4.66924277e-04, 4.27528314e-04, 1.88336591e-04,
          5.14823245e-04, 7.74202053e-04, 3.90479312e-04, 1.70769938e-03,
          7.07711268e-04, 7.36965681e-04, 1.57257862e-04, 1.79488980e-03,
          2.87071103e-04, 6.38727273e-04, 7.58905720e-04,
          -6.29253394e-04, 5.10055281e-04, 2.53879087e-04,
          -1.53471879e-03, -9.36816214e-04, 1.69847684e-04,
          5.69264521e-04, -7.49677536e-04, 2.40796115e-04,
          3.98323347e-04, 5.93989622e-04, 3.88463464e-04,
          -1.39714655e-04, 3.52386764e-04, 1.22719532e-04,
          6.76983691e-05, 1.70469546e-04, 2.63464521e-04, 4.86270001e-04,
          1.58425901e-04, 1.67197315e-04, 6.15411380e-04, 2.23541982e-04,
          -2.63818161e-04, 2.62261077e-04, 1.11617337e-05,
          8.50788376e-04, 3.80715137e-05, 2.92867218e-04, 7.13951813e-05,
          1.12742174e-03, 5.15917709e-05, 9.59807017e-04, 4.67682607e-04,
          1.75652734e-03, 2.98871164e-04, 1.07505510e-03, 4.99600603e-04,
          6.62901090e-04, 1.52304492e-04, 3.82362312e-04, 4.21423523e-04,
          6.74645824e-04, 5.46821859e-04, 2.16238026e-04, 2.36961554e-04,
          4.65971010e-04, 5.66966657e-04, 9.65638494e-04, 7.04981328e-04,
          1.14648114e-03, 6.35670614e-04, -7.52752880e-04,
          5.55099512e-04, 1.45815569e-03, 5.73186495e-04, 4.80589486e-04,
          6.61630998e-04, 4.43085883e-04, -2.69178301e-03,
          -3.77938733e-03, 4.56336536e-04, 1.84754096e-03,
          -1.74993335e-03, -1.46198407e-04, 2.41483882e-04,
          1.06761267e-03, 3.37648409e-04, -1.86924546e-04,
          1.25251565e-04, 3.08289251e-04, -2.48866399e-05,
          8.41791407e-05, 1.69579565e-04, 2.28540797e-04, 1.07057829e-04,
          2.12052939e-04, 4.47494414e-04, 1.63139353e-04, 2.50287267e-04,
          5.11776714e-04, 7.90722479e-05, 1.15525164e-03, 6.61273880e-05,
          6.25860004e-04, 1.05664971e-04, 8.46041832e-04, 9.71784029e-05,
          1.06838101e-03, 6.14921679e-04, 1.59811776e-03, 5.76591759e-04,
          9.65798390e-04, 7.04089820e-04, 4.24958736e-04, 3.45626904e-04,
          4.96843073e-04, 2.76607228e-04, 5.71650220e-04, 7.13371497e-04,
          2.80642998e-04, 3.70035530e-04, 4.95749409e-04, 3.31673364e-04,
          -1.78236674e-04, 5.26369084e-04, 5.48445911e-04,
          6.66245702e-04, -4.77950554e-04, 5.75630460e-04,
          1.13852834e-03, 1.20100092e-04, -2.87281786e-04,
          4.38398100e-04, 4.27958788e-04, -1.62685756e-03,
          -2.01718230e-03, 4.80567949e-04, 1.01884909e-03,
          -2.74038501e-03, -3.50489601e-04, 5.83159745e-05,
          5.63855923e-04, 1.26208717e-04, 5.12565894e-04,
          -9.21339233e-05, 3.13992641e-04, -1.88599006e-06,
          1.24006066e-04, 8.68021962e-05, 1.58595780e-04, 1.79558527e-04,
          1.06657899e-04, 2.49803590e-04, 1.92238935e-04, 3.40552273e-04,
          6.80029043e-04, 8.90760712e-05, 9.46648244e-04, 1.91617903e-04,
          4.98209381e-04, 1.17861753e-04, 5.54905098e-04, 3.14649296e-05,
          4.51045431e-04, 3.06367030e-04, 1.35909452e-03, 6.83899038e-04,
          6.01667794e-04, 7.45690253e-04, 1.40344049e-03, 4.89033118e-04,
          5.65599941e-04, 3.23330314e-04, 6.62069942e-04, 6.67539425e-04,
          4.63649834e-04, 2.44634313e-04, 3.05871246e-04, 4.70099825e-04,
          -3.22467909e-04, 4.47923871e-04, 5.19863097e-04,
          6.27920381e-04, 1.03148443e-04, 3.13466910e-04, 7.96477601e-04,
          -2.55642313e-04, -2.02822569e-03, 1.25730061e-04,
          4.92183957e-04, -7.46034028e-04, -4.46657621e-04,
          3.44260392e-04, 1.33148220e-04, -4.39540949e-03,
          -2.12452796e-04, 2.82007852e-04, 7.15072092e-05,
          2.02021984e-04, 6.72049588e-04, -3.95525451e-04,
          3.01366206e-04, -1.38333256e-04, 9.28752415e-05,
          7.87223253e-05, 2.04965618e-04, 2.91452190e-04,
          -9.37392397e-05, 4.53770248e-04, 2.42801369e-04,
          4.65377383e-07, 2.50882120e-04, 2.30066980e-05, 1.31827942e-03,
          2.26565142e-04, 3.53454234e-04, 1.55593720e-04, 1.33459643e-03,
          5.75618396e-05, 2.67905649e-04, 1.69994470e-04, 7.79692840e-04,
          3.91301845e-04, 4.73220949e-04, 8.36490421e-04, 1.19163701e-03,
          6.45253109e-04, 4.53600893e-04, 4.76511283e-04, 6.22257066e-04,
          1.47053506e-04, 5.44436043e-04, 4.22263576e-04, 7.16047885e-04,
          6.50174450e-04, 1.77137367e-03, 7.01076235e-04, 1.94212291e-04,
          4.35369031e-04, 1.57336821e-03, 4.88686608e-04, 5.45936578e-04,
          9.25950953e-05, -1.66686048e-04, -1.20768009e-05,
          5.09134901e-04, -1.35625960e-04, 8.93285396e-05,
          -2.11405379e-04, -6.95209019e-04, -2.78391666e-03,
          5.04460884e-04, 6.73993956e-04, 3.31606047e-04, 2.00605966e-04,
          9.88888787e-04, -1.86525634e-04, 1.61676071e-04,
          -3.91972950e-04, 1.64797326e-04, 5.18058914e-05,
          1.63390607e-04, 4.26844083e-04, -2.75889091e-04,
          4.17120900e-04, 5.77098283e-04, 3.12038785e-04,
          -2.31654267e-05, 1.07541586e-04, 1.28727907e-03,
          3.61128768e-05, -7.79395268e-05, 3.30698022e-05,
          1.93609623e-03, 8.18549088e-05, 1.11127738e-03, 2.82636989e-04,
          9.45635489e-04, 4.19519783e-04, 5.33829327e-04, 6.59107522e-04,
          1.17705064e-03, 3.42451589e-04, 7.86647026e-04, 5.81825268e-04,
          1.68366940e-04, 4.79343085e-04, 6.17337122e-04, 4.75944864e-04,
          1.07837992e-03, 6.26132416e-04, 1.48433202e-03, 6.47924840e-04,
          9.92087997e-04, 7.53987173e-04, -1.12614805e-04,
          2.97377061e-04, 3.82817874e-04, 3.20095569e-04, 1.01758901e-03,
          2.65903480e-04, 8.43347283e-04, -1.41384208e-03,
          -1.69359974e-03, -4.44651669e-04, 1.76948146e-04,
          -1.45874079e-03, 5.83978079e-04, 1.52011300e-04,
          4.39014228e-04, 5.22476214e-04, 1.18878103e-04, 1.28053551e-04,
          -5.25569230e-05, 4.31972177e-04, 2.49624980e-04,
          1.02171718e-04, 1.43976256e-04, 2.55688792e-04,
          -1.05502528e-04, -1.03391521e-05, 2.33312414e-04,
          8.68351854e-05, 5.14189131e-04, 1.71379012e-04, 8.53352481e-04,
          7.77384412e-05, 4.13462367e-05, -1.02427348e-05,
          1.52660103e-03, 1.01469668e-04, 1.40845915e-03, 3.27680260e-04,
          1.20462780e-03, 3.41106032e-04, 1.13691937e-03, 1.42853038e-04,
          1.67111238e-03, 4.54399880e-04, 3.77840508e-04, 1.88218866e-04,
          4.15915943e-04, 1.24507307e-04, 5.67805546e-04, 5.63832757e-04,
          4.70298779e-04, 5.33061218e-04, -7.31295848e-04,
          -1.07676664e-04, 1.31258066e-03, 3.76190525e-04,
          9.98677569e-04, 4.08989181e-05, 2.36804481e-04,
          -3.24643566e-04, -2.35706149e-03, 1.65388233e-03,
          1.57443865e-03, 9.93045280e-04, 1.93580030e-03, 1.72105560e-04,
          -6.86353480e-04, -3.20471823e-03, -2.87764095e-04,
          3.29872651e-04, 1.15884386e-03, 5.04379219e-04, 5.70300675e-04,
          4.67739796e-04, 3.26365334e-05, -2.28766105e-04,
          3.10166390e-04, 2.35248037e-04, 4.21767501e-04, 1.96071342e-04,
          1.63311270e-04, 2.86059862e-04, 1.64836121e-04,
          -1.03506376e-04, 6.79986842e-04, -3.35920231e-06,
          8.17271008e-04, 2.01488838e-05, 7.59716146e-04, 3.30857729e-05,
          6.12406700e-04, 3.40094957e-05, 1.19727640e-03, 4.18293261e-04,
          6.11161930e-04, 1.98369686e-04, 1.55562314e-03, 1.36248142e-04,
          1.16945710e-03, 4.49099200e-04, 3.31392832e-04, 7.02859601e-04,
          1.60950425e-04, 2.78084972e-05, 3.85880092e-04, 2.60331319e-04,
          7.09347543e-04, 6.64542720e-04, 7.61230185e-04, 6.55457610e-04,
          1.28614611e-03, -1.47630271e-04, 7.20085518e-04,
          1.43569181e-04, 9.21592989e-04, 6.24637469e-04, 1.52270298e-03,
          2.07314058e-03, 6.22738386e-04, -2.08452600e-03,
          4.22433863e-04, 1.56792157e-04, 8.71226657e-05,
          -1.61650835e-03, -5.14746062e-05, 3.79297941e-04,
          1.08506891e-03, 3.72128852e-04, 1.96709098e-05, 2.67819967e-04,
          5.52577316e-04, 2.26403179e-04, 4.25672974e-04, 1.55361908e-04,
          3.05963506e-04, 1.40258217e-05, 8.16739976e-06, 1.17164840e-04,
          1.42805977e-04, 2.36894030e-05, 7.73996522e-04, 3.28187562e-05,
          8.68757721e-04, 3.27016169e-05, 1.27483712e-04, 4.74677872e-05,
          3.77621764e-04, 1.15789233e-04, 1.50120701e-03, 4.90940467e-04,
          9.99672455e-04, 4.53543122e-04, 1.72090752e-03, 5.61681634e-04,
          1.06481928e-03, 6.56942837e-04, 3.19201819e-04, 3.58434074e-04,
          2.90258264e-04, 5.79884159e-04, 4.99266898e-04, 1.05613348e-04,
          8.23942362e-04, 5.54086466e-04, 8.66361661e-04, 5.47289150e-04,
          2.31521577e-03, 3.89622495e-04, -7.19886448e-04,
          1.46642284e-04, 1.32527028e-03, 4.89085098e-04, 1.43378216e-03,
          2.02820380e-03, 1.22894102e-03, -3.13793099e-03,
          -2.63630436e-03, 7.76815927e-04, 3.31078772e-04,
          -1.78892468e-03, -1.43334211e-04, 6.18603022e-04,
          1.45253085e-03, 2.00511800e-04, -1.72785833e-04,
          1.17791038e-04, 4.41671524e-04, -2.97125825e-05,
          1.04002582e-04, 1.56386028e-04, 2.64120608e-04, 1.77785856e-04,
          -8.49264252e-05, 7.69614999e-05, 2.96259350e-05,
          3.50741961e-04, 9.09498194e-04, 1.96072462e-04, 1.53262587e-03,
          1.05299412e-04, 5.70622156e-04, 1.57688162e-04, 7.53237167e-04,
          2.62911752e-04, 1.64832361e-03, 3.40581522e-04, 2.53018108e-04,
          7.35926384e-04, 1.57905300e-03, 8.81321670e-04, 1.02284527e-03,
          6.46938395e-04, 5.00933733e-04, 4.68967366e-04, 6.06801594e-04,
          8.84611451e-04, 4.84784745e-04, -1.57383784e-05,
          3.31106625e-04, 3.68731155e-04, -6.68210560e-04,
          3.57837620e-04, 1.40824902e-03, 3.87527456e-04,
          -1.16468023e-03, 6.44244836e-04, 1.31357438e-03,
          1.59754214e-04, -1.14295573e-03, 1.03133696e-03,
          1.29930943e-03, -2.94144358e-03, -1.42425054e-03,
          7.88474688e-04, 6.82749436e-04, -2.46290746e-03,
          2.80140898e-06, 3.11813637e-04, 9.50240530e-04, 1.83852419e-04,
          3.82819097e-04, 4.09014581e-04, 2.39328758e-04, 1.29557026e-04,
          3.37499368e-05, 3.05525580e-04, 2.19895781e-04, 1.89672268e-04,
          2.29438447e-04, 3.65757820e-04, 2.78553431e-04, 3.40716128e-04,
          9.76392534e-04, 1.15408060e-04, 1.20724831e-03, 1.85123514e-04,
          6.40406215e-04, 7.11235552e-05, 6.93921465e-04, 2.56135943e-04,
          1.00832595e-03, 6.48561690e-04, 1.47890765e-03, 8.36313935e-04,
          9.10968054e-04, 7.62211799e-04, 1.54090568e-03, 6.01860927e-04,
          4.60483687e-04, 1.37955431e-04, 6.19134807e-04, 5.01884497e-04,
          4.53936955e-04, 5.72021410e-04, 8.70314980e-05, 3.92706046e-04,
          -4.51042055e-04, 1.34127971e-04, 8.87439004e-04,
          4.43246419e-04, -2.29035242e-04, 9.02695523e-04,
          8.98866332e-04, -2.18239074e-04, -2.36881385e-03,
          4.07127343e-04, 1.05833553e-03, 8.69973330e-04,
          -2.01447969e-04, 6.30518945e-04, 7.02808436e-04,
          -3.64708481e-03, -1.70809362e-04, 4.34268732e-04,
          4.55035362e-04, 6.25898363e-04, 3.17687955e-04, 2.33410246e-04,
          3.14893754e-04, 1.66830127e-04, 1.02265723e-04, 1.16463416e-04,
          2.20377377e-04, 1.32121160e-04, 3.19375133e-04, 1.66240541e-04,
          1.04590581e-04, -4.86588078e-06, 3.87603359e-04,
          1.25795574e-04, 1.20172335e-03, 1.56626964e-04, 4.52923094e-04,
          4.34721733e-05, 1.84688042e-03, 9.97512252e-05, 1.12595723e-03,
          5.48393000e-04, 1.00246398e-03, 4.16852883e-04, 9.01449181e-04,
          3.97125928e-04, 1.80721038e-03, 7.46235717e-04, 1.68005150e-04,
          2.20663074e-04, 4.11120156e-04, 2.15693115e-04, 7.52410735e-04,
          1.05509767e-03, 7.99773261e-04, 6.42048893e-04, 1.35847693e-03,
          -5.94650555e-05, 4.70135885e-04, 6.07870170e-04,
          1.01631146e-03, 8.79820087e-04, 6.58558682e-04, 2.81515444e-04,
          -1.18374825e-03, 3.18939914e-04, 2.82190507e-04,
          2.03029206e-03, 3.66072054e-04, 1.32897461e-04, 3.59511003e-04,
          -7.23439807e-05, 7.59236398e-04, 6.49864262e-04,
          4.43261408e-04, 2.69249635e-04, 6.52286166e-04, 4.39391180e-04,
          1.77946873e-04, 8.36737381e-05, 8.07610704e-05,
          -1.94087261e-06, 3.74513358e-04, 2.36557185e-04,
          2.73131707e-04, 1.83702563e-04, 4.79890266e-04, 2.60449684e-04,
          1.74156725e-04, 7.38070521e-05, 1.63209997e-03, 8.31933939e-05,
          2.87066272e-04, 1.39163210e-04, 2.44059647e-03, 1.75477267e-04,
          1.68645789e-03, 3.63686035e-04, 6.06966845e-04, 2.98730156e-04,
          1.39084901e-03, 6.73466478e-04, 1.44874060e-03, 5.81656524e-04,
          3.23819928e-04, 5.10898535e-04, -7.71365521e-05,
          3.63363972e-04, 8.90478084e-04, 7.20116659e-04, 5.77779720e-04,
          5.40233217e-04, 5.91659220e-04, 2.17396402e-04, 6.80441095e-04,
          2.83712347e-04, -2.77718646e-04, 2.42783412e-04,
          7.02441437e-04, 5.79268613e-04, -2.33582818e-04,
          1.21396457e-04, 7.63787713e-04, -1.36840448e-03,
          -2.33888160e-03, -3.52994801e-04, 8.02618859e-04,
          -3.39989434e-04, 2.28285877e-04, 2.84986076e-04,
          2.34637599e-04, 3.99619375e-06, 1.79310853e-04, 5.08015451e-04,
          8.05564850e-05, 3.33794422e-04, 2.08313810e-04, 9.72464768e-05,
          3.70564201e-04, 1.38247531e-04, -3.30587500e-05,
          1.97519083e-04, 5.00213428e-05, -8.72085948e-05,
          7.18834752e-04, 1.59763498e-04, 8.88830982e-04, 1.44480626e-04,
          5.19739697e-04, 9.11097304e-05, 1.52365235e-03, 1.44895370e-04,
          4.26418555e-04, 3.26628564e-04, 1.23902154e-03, 4.46449907e-04,
          6.62672217e-04, 3.55808879e-04, 1.60780596e-03, 4.30724438e-04,
          3.91256355e-04, 3.48580972e-04, 4.86872887e-04, 4.21856123e-04,
          4.91572719e-04, 8.91113770e-04, 2.15993059e-04, 9.55711992e-04,
          -2.82504305e-04, 1.10476431e-05, 8.68265866e-04,
          6.36608631e-04, 7.63473625e-04, 1.88238817e-04,
          -9.76443349e-04, 1.43500321e-04, -1.36530166e-03,
          3.69688030e-04, 1.14545960e-03, 4.66551195e-04, 1.05300907e-03,
          -4.88789054e-04, -1.02724542e-03, -2.26043817e-03,
          -2.33953469e-04, 3.38656449e-04, 1.40667264e-03,
          6.49288122e-04, 5.05107513e-04, 6.60511025e-04,
          -2.42166905e-04, 4.07686690e-04, 3.03505018e-04,
          1.05583989e-04, 4.18824231e-04, 2.67589901e-04, 1.23566017e-04,
          5.07956953e-04, 3.54473072e-04, 1.02196071e-04, 3.77335673e-04,
          8.53129459e-05, 6.71592134e-04, 3.26863810e-05, 3.78342258e-04,
          9.09079536e-05, 7.61740434e-04, 1.33589187e-04, 9.82087338e-04,
          4.90664330e-04, 6.87916065e-04, 4.80974209e-04, 1.18361355e-03,
          5.77299157e-04, 7.46257021e-04, 3.39953753e-04, 2.92967248e-04,
          4.91226441e-04, 5.05139004e-04, 3.55686469e-04, 6.26598136e-04,
          5.51247271e-04, 4.81790106e-04, 8.59980471e-04,
          -2.77831889e-04, 8.07716919e-04, 1.49735622e-03,
          3.03118868e-04, 3.16152029e-04, 3.43639578e-04,
          -8.07697768e-04, 3.51151917e-04, 8.33077356e-04,
          5.86668844e-04, 1.14983204e-03, -1.32309797e-03,
          3.68692155e-04, -4.42251985e-05, -8.41150235e-04,
          -1.95288844e-03, -2.03889649e-04, 4.83303185e-04,
          1.09789963e-03, 3.77936027e-04, 1.86101403e-04, 7.12151930e-04,
          -2.61762558e-04, 4.46257996e-04, 5.73442900e-04,
          2.50076322e-04, 4.10677749e-04, 9.29906382e-05, 1.24844213e-04,
          2.99719279e-04, 1.73879613e-04, 2.01221381e-04, 3.72826209e-04,
          4.16451912e-05, 5.81090862e-04, 7.19322925e-05, 8.68577990e-05,
          9.55222640e-05, 2.36098494e-04, 2.75696715e-04, 1.16786466e-03,
          5.23779774e-04, 7.01880199e-04, 5.30343270e-04, 1.55200914e-03,
          4.87431098e-04, 3.62321734e-04, 2.72416568e-04, 5.31708007e-04,
          6.16649631e-04, 5.86518378e-04, 6.39176171e-04, 2.02835668e-04,
          -2.75534607e-04, 3.81413265e-04, 4.91555198e-04,
          -3.27431771e-04, 6.22003630e-04, 1.95001182e-03,
          1.84342251e-04, -1.30568072e-03, -8.34358565e-04,
          -7.48808525e-05, -1.24578844e-04, 1.27988029e-03,
          1.11691200e-03, 1.40965311e-03, -3.24550341e-03,
          -4.12377622e-03, 9.42005892e-04, -1.81673735e-04,
          -2.80977879e-03, -2.16698118e-05, 5.38204971e-04,
          9.41784761e-04, -7.97788107e-06, -6.54494725e-05,
          -1.75562731e-04, 1.95732107e-04, -2.56532803e-05,
          4.28201514e-04, 1.64400524e-04, 1.13476621e-04, 1.21522644e-04,
          -1.04823535e-04, 1.06295323e-04, 1.94807872e-04,
          1.81125244e-04, 9.20394552e-04, 9.60875550e-05, 1.02020183e-03,
          6.60412115e-05, 5.13994950e-04, 4.17377523e-05, 9.00486019e-04,
          2.52117490e-04, 1.67022110e-03, 3.33043892e-04, 1.32723741e-04,
          6.13185344e-04, 1.34320732e-03, 2.62684276e-04,
          -1.39085503e-04, 5.22606599e-04, 3.80663783e-04,
          4.18869982e-04, 4.06867272e-04, 8.79463914e-04, 1.34045898e-04,
          -5.62293280e-04, -9.55873111e-05, 6.30956129e-05,
          -1.26913947e-03, 1.35279173e-04, 1.80635299e-03,
          -3.09594725e-05, -1.61012262e-03, -2.29203826e-04,
          5.72326477e-04, -3.94748204e-04, -1.58581615e-03,
          1.32735074e-03, 1.52149261e-03, -3.49448342e-03,
          -4.12516668e-03, 5.86171111e-04, 5.20363916e-04,
          -2.96036992e-03, 4.21171979e-04, 2.16727305e-04,
          7.97048328e-04, 2.80510449e-05, 2.15464679e-04, 2.88887113e-05,
          2.60715664e-04, -5.97813814e-05, 6.07293259e-05,
          7.26736471e-05, 1.22050202e-04, 1.76715228e-04, 1.24573111e-04,
          -6.16287707e-06, 9.04576373e-05, 1.63187564e-04,
          9.49489942e-04, 7.91637285e-05, 8.72752862e-04, 6.77585267e-05,
          9.49550886e-04, 9.98763790e-05, 7.73618754e-04, 2.08877304e-04,
          8.69841373e-04, 3.96738993e-04, 7.90258113e-04, 6.94315706e-04,
          1.35614362e-03, 4.39771771e-04, 1.02076866e-03, 4.72556421e-04,
          5.57943247e-04, 5.11526421e-04, 6.08894799e-04, 6.30112947e-04,
          2.99153326e-04, 4.30794986e-04, -1.28774234e-04,
          2.08195888e-05, -8.64195405e-04, 2.29103855e-04,
          1.92814856e-03, 3.63825646e-04, -4.20199467e-05,
          3.44601751e-04, -6.67210435e-04, -8.19308159e-04,
          -2.60620681e-03, 1.72355352e-03, 1.28499698e-03,
          1.17288076e-03, -2.11948366e-03, -4.95520129e-04,
          4.73523833e-04, -3.40094417e-03, -1.50997133e-04,
          5.38200911e-05, 9.05217486e-04, 3.00570304e-04,
          -8.86174239e-05, 3.15535843e-04, 1.20357348e-04,
          -3.66843269e-05, -8.85329518e-06, 5.50718796e-05,
          2.79153115e-04, 2.31347396e-04, 3.76013108e-04, 2.74851627e-04,
          7.82974967e-05, -8.55035178e-05, 4.45829122e-04,
          1.25801147e-04, 1.05892215e-03, 6.19974962e-05, 4.58647846e-04,
          1.53975736e-04, 1.18669146e-03, 9.05977140e-05, 9.92565881e-04,
          6.14307821e-04, 1.10581017e-03, 6.02680957e-04, 1.01777364e-03,
          4.45907703e-04, 1.12269470e-03, 4.97540052e-04, 6.12566655e-04,
          6.54691714e-04, 4.78708796e-04, 5.92402474e-04, 3.41292296e-04,
          4.93663072e-04, 6.40215236e-04, 5.39638335e-04, 4.12068999e-04,
          5.91474585e-04, 1.80786743e-03, 6.98401302e-04,
          -2.10806553e-04, 7.18915428e-04, -1.23727648e-03,
          1.14106449e-04, -8.28696880e-04, 1.40487030e-03,
          1.19732472e-03, 8.99351842e-04, -8.11817299e-04,
          -5.23960683e-04, -1.56113485e-04, 6.66588196e-04,
          4.78010363e-04, 3.70095862e-04, 8.24246032e-04, 2.09531921e-04,
          -4.88249498e-04, 6.00241765e-04, -5.28164150e-04,
          4.67343401e-04, 1.46769977e-04, 2.68173433e-04, 2.26635879e-04,
          1.83491415e-04, 4.46668419e-04, 4.30858810e-04, 2.16762041e-04,
          2.25829848e-04, 3.56084522e-04, 1.50402891e-04, 2.93855468e-04,
          2.53802682e-05, 2.10230690e-04, 1.28957341e-04, 1.10774324e-03,
          9.36340512e-05, 1.37377717e-03, 5.21442271e-04, 6.16900506e-04,
          5.58049069e-04, 1.00977079e-03, 4.70716041e-04, 5.12943254e-04,
          6.45151653e-04, 3.65225453e-04, 6.69087574e-04, 3.43353749e-04,
          4.34417918e-04, 5.04030904e-04, 3.71179951e-04, 3.25388392e-04,
          7.27157807e-04, -6.73527131e-04, 6.50341855e-04,
          9.55066178e-04, 1.00505495e-05, -6.82452403e-04,
          1.41893237e-04, -3.70292866e-04, 5.23702824e-04,
          -3.04158166e-04, 1.07227149e-03, 1.12834352e-03,
          -9.72560025e-04, -1.00126246e-03, -9.03119799e-04,
          4.33097390e-04, -5.84557827e-04, 1.58085299e-04,
          5.04362048e-04, 5.64796967e-04, 2.48162105e-04,
          -3.42357904e-04, 3.01378896e-04, -4.15147078e-04,
          5.82355191e-04, 1.97244546e-04, 1.91688538e-04, 1.53023953e-04,
          1.17551033e-04, 1.57159229e-04, 4.07218788e-04, 1.88735939e-04,
          1.45007944e-04, 5.99098275e-04, 1.46353967e-04, 3.80094047e-04,
          1.30871602e-04, 7.73718115e-04, 1.38508258e-04, 5.10454585e-04,
          2.01504095e-04, 5.80318912e-04, 1.98963302e-04, 7.94469030e-04,
          3.67503439e-04, 1.12651696e-03, 4.43401514e-04, 1.16362597e-03,
          4.50606225e-04, 3.92144604e-04, 4.45632060e-04, 8.46637995e-04,
          8.61995155e-04, 5.04641968e-04, 4.47294093e-04, 2.88709853e-04,
          6.14717021e-04, -1.25608858e-04, 2.93220481e-04,
          1.19503855e-03, 6.92811271e-04, 1.21481763e-03, 3.41696956e-04,
          -2.18750953e-04, 3.91405338e-04, 1.81991229e-04,
          -4.39934054e-04, 5.93273260e-04, 1.01244694e-03,
          8.85025838e-06, -1.27248268e-03, -9.27630521e-04,
          -1.72303081e-03, -3.60871578e-04, 1.48862964e-04,
          7.22988916e-04, 5.80247666e-04, 6.93492184e-04, 7.59694813e-05,
          6.32443771e-05, 1.76071873e-04, -4.85858109e-05,
          1.25712380e-04, 2.30250793e-04, 3.28123424e-04, 3.08998453e-04,
          3.38480459e-04, 1.14737857e-04, -7.76191973e-06,
          3.66342458e-04, 7.13031695e-05, 4.81699069e-04, 3.66099448e-05,
          8.13590595e-04, 6.09118833e-05, 4.29862906e-04, 1.72121916e-04,
          8.58522311e-04, 1.57281334e-04, 7.14744325e-04, 3.05594702e-04,
          1.43324293e-03, 6.17672689e-04, 3.48790199e-04, 3.56618984e-04,
          1.49650019e-04, 6.08739909e-04, 3.97668016e-04, 6.88855653e-04,
          3.90653877e-04, 4.16205381e-04, 3.36494704e-04, 3.39687278e-04,
          -2.20074566e-04, -3.40659717e-05, 8.17236549e-04,
          7.04560778e-04, 8.12549551e-04, -1.31621520e-04,
          -1.61373719e-05, 2.67187308e-04, -5.16661850e-04,
          -1.11244072e-03, 1.01076963e-03, -8.45860850e-05,
          -7.03403202e-04, -3.05140624e-04, -7.14398921e-04,
          -8.59600434e-04, -3.57936573e-04, -5.25703399e-05,
          6.07586931e-04, 5.62510046e-04, 2.46289972e-04,
          -1.12969974e-04, -3.85778170e-04, -1.31388500e-04,
          9.50532994e-05, 2.89546850e-04, 1.72967862e-04, 3.20912339e-04,
          2.19440830e-04, 9.52932824e-05, 1.21046076e-04,
          -1.24107231e-04, 4.13241767e-04, 6.91597597e-05,
          2.70979828e-04, 7.23069970e-05, 5.14096057e-04, 5.22617629e-05,
          4.83068638e-04, 1.79322000e-04, 8.57553328e-04, 1.57997565e-04,
          -1.53479286e-05, 1.63507342e-04, 2.29917630e-03,
          3.06953007e-04, -9.75734074e-05, 1.62884840e-04,
          -7.37823502e-05, 4.17085248e-04, 9.83804639e-05,
          3.23754590e-04, -3.40922183e-04, 1.33731053e-04,
          3.57872486e-04, -2.02664291e-04, 6.45524560e-05,
          -1.01964462e-04, 1.00331148e-03, -4.15840012e-04,
          -1.30032119e-03, -6.19710423e-04, -3.90079484e-04,
          -5.42714726e-04, -1.39478580e-04, 1.52159162e-04,
          8.20227375e-04, -3.00655258e-03, -3.40975425e-03,
          -7.24740908e-04, -5.34088409e-04, -1.55609671e-03,
          8.18960034e-05, -9.28752415e-05, 2.83835281e-04,
          -4.83343872e-04, -8.29094730e-04, -1.39709236e-03,
          -4.24522907e-04, -7.05659506e-04, 1.10153567e-04,
          2.25486889e-04, 3.52186612e-06, -1.37913557e-05,
          -3.85935040e-04, -2.30128440e-04, 6.93827315e-05,
          -1.03532628e-04, 6.25658839e-04, 1.10360961e-04,
          5.72554825e-04, 1.62949582e-05, -5.92411307e-05,
          2.64469563e-05, 5.42311638e-04, 9.92981804e-05, 1.57167192e-03,
          3.71672795e-04, -1.21539442e-05, 4.17114119e-04,
          1.56066101e-03, 2.49761524e-05, -9.42358747e-05,
          2.46424082e-04, -1.20908895e-04, -3.47635534e-04,
          -1.21352787e-04, 1.33462192e-04, -3.38463782e-04,
          -1.30405009e-04, 1.25460763e-04, 2.71686167e-05,
          -8.30065750e-04, -3.63702653e-04, 1.48031977e-03,
          -7.31619599e-04, -1.88422832e-03, -6.57183700e-04,
          -4.45574951e-05, -6.11164141e-04, -1.37392431e-03,
          8.49030679e-04, 1.91180312e-04, -2.74960254e-03,
          -3.68677918e-03, -1.56112073e-03, -1.20040763e-03,
          -1.23315200e-03, 8.98043290e-05, -2.67877454e-06,
          1.95765155e-04, -4.93262603e-04, -5.53998165e-04,
          -1.26075384e-03, -3.99941986e-04, -1.36755721e-03,
          8.65008406e-05, 1.05004205e-04, 7.87058671e-05,
          -8.33720260e-05, -4.10258188e-04, -4.60819749e-04,
          -2.97466002e-04, -2.89465359e-04, -7.55891160e-05,
          1.15811090e-04, 8.32812104e-04, 2.97526876e-05, 1.25398234e-04,
          6.01543106e-05, 4.73805063e-04, 1.12940485e-04, 9.56126023e-04,
          4.48444334e-04, 6.84989907e-04, 4.89431666e-04, 9.32575611e-04,
          2.37310698e-04, 5.40699635e-04, 4.02598962e-04, 1.22539350e-04,
          -1.14407710e-04, 2.75962404e-04, 2.83236150e-04,
          2.72262550e-04, 2.26393531e-04, 6.96570860e-05,
          -2.50758050e-04, -1.15491031e-03, -3.20372201e-04,
          1.34287716e-03, -9.75918956e-05, 3.72208102e-04,
          3.04940593e-04, -3.66146094e-04, -6.25547604e-04,
          -2.20381748e-03, 5.69240423e-04, -3.97871372e-05,
          3.15327168e-04, -1.85163342e-03, -6.41995633e-04,
          -1.32702722e-03, -2.65971106e-03, -7.61263422e-04,
          -3.17298545e-04, 2.29157784e-04, 9.01468775e-06,
          6.96920033e-05, -3.74486262e-04, -6.18093007e-04,
          -1.32984039e-03, -2.28391771e-04, 1.62444034e-04,
          3.60653532e-04, 3.66065709e-04, -1.37749754e-04,
          -5.38500644e-05, -2.18550864e-04, -4.26906161e-04,
          -6.10715302e-04, 6.74979383e-05, 7.30552129e-04,
          1.03790881e-04, 4.20411379e-04, 8.61195294e-05, 5.00125694e-04,
          1.50761873e-04, 9.15340614e-04, 3.95158102e-04, 5.84231340e-04,
          4.62872325e-04, 6.00304687e-04, 3.81624239e-04, 3.17424099e-04,
          5.51278063e-04, 2.93905992e-04, 7.11277593e-04, 5.19493042e-05,
          1.74300119e-04, 3.19059123e-04, -6.18763515e-05,
          7.19440635e-04, 5.40606794e-04, 7.95447500e-04, 4.56554670e-04,
          6.55561744e-04, -1.50286141e-04, -7.10602326e-04,
          3.99839977e-04, -1.02227530e-03, 2.37905566e-04,
          1.29945794e-04, 8.02847440e-04, 4.58331429e-04,
          -5.46462310e-04, -2.09472328e-03, -4.71730047e-04,
          -4.70667524e-04, -2.04280979e-04, -1.14476046e-04,
          5.74130856e-04, 5.34524443e-04, 5.80489686e-05,
          -6.14948862e-04, -7.39475872e-05, -6.69225818e-04,
          -2.74629623e-04, 1.28643325e-04, 4.45433514e-04,
          2.94285855e-04, 2.08099969e-04, 3.99716810e-05,
          -3.61729917e-06, 1.12592890e-04, -5.77374849e-05,
          1.99651651e-04, 1.48645369e-04, 1.89909770e-04, 2.06646910e-05,
          2.63036753e-04, 1.11720663e-04, 3.12572694e-04, 1.59992429e-04,
          7.77935958e-04, 3.91087902e-04, 5.69522963e-04, 3.47516587e-04,
          6.97850774e-04, 4.19934891e-04, 4.60379961e-04, 4.60659561e-04,
          2.82190391e-04, 4.50275635e-04, 1.94251275e-04, 1.80265270e-04,
          2.33299914e-04, 9.02618922e-05, 5.21361129e-04, 6.83867664e-04,
          -7.54431006e-04, 6.14170043e-04, 6.35106990e-04,
          -2.78890831e-04, -1.73108274e-05, 4.83866927e-04,
          -1.02749642e-03, 2.08828846e-04, -1.43090874e-04,
          1.15119317e-03, 5.82794019e-04, 9.12503863e-04,
          -1.31942914e-03, -4.74934466e-04, -6.28442038e-04,
          -7.17431074e-04, -1.68638275e-04, 5.90342213e-04,
          4.56418929e-04, 1.39052194e-04, -2.23785799e-04,
          -2.60237808e-04, -3.74938536e-04, 3.72461713e-04,
          2.05019212e-04, 2.43242379e-04, -3.37063357e-05,
          -1.69247305e-05, 9.11179523e-05, 1.03143910e-04,
          9.32992116e-05, 9.34016352e-05, 4.99911199e-04, 1.74357716e-04,
          3.57593352e-04, 8.70309887e-05, 3.43885440e-05, 1.00398931e-04,
          5.69217082e-04, 1.11790250e-04, 1.13701378e-03, 3.81776423e-04,
          1.18234078e-03, 4.64792567e-04, 1.21567806e-03, 5.39836008e-04,
          1.21662754e-03, 5.74976846e-04, 3.28840513e-04, 5.73245692e-04,
          8.32179445e-04, 9.45473788e-04, 6.58449135e-04, 5.43446222e-04,
          6.07318245e-04, 3.11449316e-04, -2.28086374e-05,
          4.97338711e-04, 8.36387742e-04, 6.53484662e-04, 1.44621031e-03,
          6.91476045e-04, -4.21501958e-04, 1.58895549e-04,
          5.02942072e-04, 8.26784526e-04, 7.41152035e-04, 2.05680239e-03,
