%YAML:1.0
---
opencv_ml_svm:
   format: 3
   svmType: C_SVC
   kernel:
      type: LINEAR
   C: 1.
   term_criteria: { epsilon:1.1920928955078125e-07, iterations:1000 }
   var_count: 5880
   class_count: 2
   class_labels: !!opencv-matrix
      rows: 2
      cols: 1
      dt: i
      data: [ 0, 1 ]
   sv_total: 1
   support_vectors:
      - [ -1.50324013e-02, -2.74178269e-03, -1.71022885e-03,
          -2.85802106e-03, -1.11231711e-02, -4.10181499e-04,
          -2.72308127e-03, -1.81214220e-03, -3.42477090e-03,
          -3.69317108e-03, 9.69233879e-05, -3.75275500e-03, 0.,
          -3.25644469e-05, -4.39464580e-03, -8.52471031e-03,
          -1.39754936e-02, -5.30524505e-03, -9.39765829e-04,
          -5.04614692e-03, -1.55599313e-02, -3.27799958e-03,
          -1.03410101e-02, 1.18673597e-04, -8.73457547e-03,
          -6.75797137e-03, -2.68404465e-03, -1.85305271e-02,
          -8.62631481e-03, -6.76109036e-03, 0., -1.43091157e-02,
          -1.21257640e-02, -5.26180491e-03, 1.38079759e-03,
          -7.94144627e-03, -2.54476303e-03, -4.87386761e-03,
          -4.74447338e-03, -6.21094694e-03, 6.79477118e-04,
          5.93367986e-05, -5.58597036e-03, 0., -1.03515782e-03,
          -2.33982620e-03, -2.11344729e-03, -3.25644469e-05,
          -3.19189043e-03, -5.07011777e-04, -1.72526299e-04, 0.,
          -6.90105185e-03, 0., 0., 0., -1.71075519e-02, -4.13804455e-03,
          -1.27367605e-03, -6.98340358e-03, -1.59973465e-02,
          -1.99548271e-03, -1.15484849e-03, -3.72996030e-04,
          7.75537395e-04, -1.39130035e-03, -2.34013423e-03,
          -4.09836276e-03, -3.48309032e-03, -4.59354324e-03,
          -3.45607102e-03, -3.20267258e-03, -4.93856896e-05,
          -6.42681960e-03, -4.50348109e-03, -1.70695353e-02,
          -7.19240587e-03, -9.92026180e-04, -1.13977650e-02,
          -3.50453262e-03, -1.14317122e-03, -6.07399829e-03,
          -5.71456319e-03, -2.87924847e-03, -5.21892030e-03,
          -1.23250633e-02, -1.46098936e-03, -5.17331820e-04,
          -1.83401440e-04, 1.95811433e-03, -1.61558113e-04,
          -5.04639419e-03, -2.76042079e-03, 0., -2.49106414e-03,
          -1.98405236e-03, 7.12041568e-04, 2.64119561e-04,
          -6.02785312e-03, -1.25081569e-03, -1.03515782e-03,
          -2.02718400e-03, -5.82276238e-03, 2.04782744e-04,
          -1.08848680e-02, -4.74447326e-04, -1.66592619e-03, 0.,
          -6.68514706e-03, -1.72526299e-04, -7.76368368e-04, 0.,
          -3.67148151e-03, -4.25077183e-03, -1.58616423e-03,
          -2.71790521e-03, -2.95469747e-03, -6.36714511e-04,
          2.09802565e-05, -1.39164052e-03, -2.48344179e-04,
          -2.69097905e-03, -1.69300660e-03, -2.43736547e-03,
          -3.48309032e-03, -5.51535795e-03, -2.45865388e-03,
          1.40302000e-04, -1.20250811e-03, -2.12971331e-03,
          -6.77572004e-03, -1.44710746e-02, -7.15984125e-03,
          -2.84668407e-03, -5.70439687e-03, -1.08891749e-03,
          -2.57723429e-03, -6.36541843e-03, -5.54142287e-03,
          -2.28597363e-03, -5.39144687e-03, -4.44255210e-03,
          -1.50935806e-03, -2.69560004e-03, 3.83194216e-04,
          -8.72364268e-04, -2.32910505e-03, -2.10288004e-03,
          -2.76042079e-03, -2.76042079e-03, -3.25644469e-05,
          -2.03217403e-03, -3.34238430e-04, -3.25644469e-05,
          -3.19173653e-03, 0., 0., -2.02718400e-03, -1.13189497e-04,
          2.37347194e-04, -8.67775409e-04, 0., -1.72526296e-03,
          -2.58789456e-04, -2.73873168e-03, -1.72526299e-04,
          -7.76368368e-04, -2.58789456e-04, -1.23901926e-02,
          -7.22121261e-03, -8.23899359e-03, -2.00127484e-03,
          -3.10633658e-03, -2.48542614e-03, -1.55289064e-03,
          -2.90703797e-03, -1.54796161e-03, -4.11965093e-03,
          -2.78765499e-03, -2.94437748e-03, 0., 0., -4.13021818e-03,
          -5.74229145e-03, -1.58618521e-02, -1.37869157e-02,
          -5.78110991e-03, -1.06772222e-03, -2.41536833e-03,
          -2.54476303e-03, -1.55273674e-03, -2.28597363e-03,
          -1.39372908e-02, -8.12463555e-03, -5.07569918e-03, 0.,
          -2.22115242e-03, -6.77165762e-03, 1.18673597e-04,
          -2.83047860e-03, -1.12900604e-02, -9.15436726e-03,
          -6.15164870e-03, -6.51288938e-05, 0., -4.78760479e-03, 0.,
          -2.36690650e-03, -8.08932818e-04, 0., -1.54192245e-03, 0.,
          -3.79557861e-03, 0., -1.13189497e-04, 0., -3.96810472e-03, 0.,
          -8.08932818e-04, -2.69615487e-03, -3.45052598e-04, 0.,
          -2.87924847e-03, -2.58789456e-04, -1.46533344e-02,
          -9.20440163e-03, -9.15532466e-03, -7.44573888e-04,
          -8.34571104e-03, -3.29974992e-03, -1.10552378e-03,
          -1.99594465e-03, -4.91730776e-03, -1.77434064e-03,
          -9.68337711e-03, -3.01887025e-03, -7.48868892e-03,
          -2.65810639e-03, -6.83678640e-03, -7.05259806e-03,
          -1.21631045e-02, -1.25410287e-02, -3.73241003e-03,
          -1.52849359e-02, -1.48372613e-02, -7.31616281e-03,
          -8.95516295e-03, -3.79573251e-03, -6.21094694e-03,
          -5.67065831e-03, -5.80122741e-03, -4.24325373e-03,
          -7.52085214e-03, -1.54842352e-02, -2.84668407e-03,
          -3.28847382e-04, -9.65090562e-03, -4.81453072e-03,
          -8.34999233e-03, -1.45354951e-02, -5.13265748e-03,
          -9.38647799e-03, -3.53678921e-03, -1.29394722e-03,
          -3.25644469e-05, 0., 2.50682025e-03, -2.18423957e-04,
          -8.54005199e-03, 0., 0., 0., -6.32977439e-03, -2.48222321e-04,
          -3.56935360e-03, 9.54718911e-04, -1.38021039e-03,
          -6.03842083e-04, -3.90383904e-03, -2.58789456e-04,
          -2.20599473e-02, -4.82494105e-03, -4.22636792e-03,
          3.46833863e-03, -9.32907313e-03, 1.88898377e-03,
          4.50429879e-03, -1.09960651e-03, 1.36133202e-03,
          -4.53405268e-03, -2.78503029e-03, 2.67607300e-03,
          1.15531392e-03, -1.23402325e-03, -6.13481738e-03,
          -1.43418340e-02, -4.52881539e-03, -9.05793812e-03,
          1.77457149e-03, 2.44782376e-03, -3.39336856e-03,
          -1.83099182e-03, -8.93895794e-03, -1.34897707e-02, 0.,
          8.59322550e-04, -4.32259258e-04, 1.11347102e-02,
          -2.45301565e-03, -2.97607877e-03, -6.55599916e-03,
          -5.60710486e-03, -9.70891968e-04, -1.19043151e-02,
          2.18240684e-03, -3.16960178e-03, 1.39191980e-03,
          -9.05763078e-03, 1.01094937e-03, -7.10441312e-03,
          -4.70134150e-03, -1.03515782e-03, 6.19004341e-03,
          5.93368022e-04, 1.21598886e-02, 7.02965679e-03, 2.78383959e-03,
          -2.14363933e-02, -1.12625780e-02, 1.91467488e-03,
          -3.57992062e-03, 6.92096353e-03, 2.96684011e-04,
          -9.81459161e-04, -1.02459069e-03, -1.24024856e-03,
          1.09381750e-02, 1.12151196e-02, 7.18472572e-03, 1.14521272e-02,
          2.12707799e-02, 3.82338800e-02, -1.16728665e-03,
          2.61408817e-02, 2.15561446e-02, 1.31576452e-02, 1.21729877e-02,
          2.53762212e-02, 1.82875358e-02, 1.91992782e-02, 8.72562465e-04,
          1.11182604e-03, -7.41863064e-03, 8.25186167e-03,
          1.77875534e-02, 2.43569892e-02, -9.60431527e-03,
          -5.33028739e-03, 9.89600550e-03, 3.75264557e-03, 0.,
          1.11359470e-02, 2.84490995e-02, -3.65205319e-03,
          -6.03842083e-04, 1.79501921e-02, 4.12936741e-03,
          -2.07031565e-03, -1.88722217e-03, -1.05566690e-02,
          1.35881267e-02, 8.08773935e-03, -1.48302959e-02,
          -1.11214742e-02, 1.39017571e-02, -5.59480814e-03,
          -3.57992062e-03, 3.77112278e-03, 3.33589874e-03,
          9.13885515e-03, 1.78776626e-02, 1.01745073e-02, 6.84616296e-03,
          -2.25146823e-02, -3.04791471e-03, 9.02477093e-03,
          -3.25644469e-05, 7.89179467e-03, 1.28760859e-02,
          -8.57054314e-04, 3.45234852e-03, -9.48894653e-04,
          -1.10692251e-02, -1.55059213e-04, -1.97370024e-03,
          -4.05005383e-04, -1.34139815e-02, -2.59097433e-04,
          -3.21323983e-03, -1.62307045e-03, -5.79127623e-03,
          -3.64495651e-03, 1.12881498e-04, -3.99539992e-03,
          -3.50042566e-04, -5.23702693e-06, -3.82312108e-03,
          -5.33746881e-03, -9.72157996e-03, -1.88321713e-03,
          -6.59231888e-03, -7.76121276e-04, -3.05157751e-02,
          -4.05436801e-03, -4.35732584e-03, 3.88277287e-04,
          -1.09286476e-02, -5.94633305e-03, 9.16824327e-04,
          -2.10643224e-02, -5.60710486e-03, -4.57659690e-03,
          2.94539775e-03, -5.80631010e-03, -8.08196422e-03,
          -3.31031717e-03, -2.11952138e-05, -3.19173653e-03,
          -2.63102609e-03, -3.23486817e-03, -9.57886106e-04,
          -3.45052592e-03, 9.49388777e-04, 5.93367986e-05,
          -6.51288938e-05, -7.76368368e-04, 0., -1.92995276e-03,
          -2.11344729e-03, -4.42745950e-04, -6.82566408e-03,
          -4.74447326e-04, -9.48894653e-04, 0., -6.51286822e-03, 0.,
          -2.15657870e-03, 0., -1.38079571e-02, -2.64495215e-03,
          -8.90574942e-04, -2.31970893e-03, -1.77539103e-02,
          -8.89865856e-04, -8.84936773e-04, -1.21307513e-03,
          7.59733317e-04, -2.86874222e-03, -8.04447010e-03,
          -2.50240136e-03, -1.99452648e-03, -6.29720977e-03,
          -2.49614730e-03, -3.11600836e-03, -3.39844351e-04,
          -9.36540496e-03, -1.23024788e-02, -4.97156102e-03,
          -7.57002318e-03, -4.48568398e-03, -6.79611275e-03,
          -3.15948017e-03, -3.39228369e-04, -5.73600549e-03,
          -8.57147388e-04, -2.35110242e-03, -1.38021039e-03,
          -7.83315394e-03, 3.97655368e-03, -3.87601764e-03,
          2.37347194e-04, 1.24028069e-03, -8.89711839e-04,
          -5.30518359e-03, -5.52084157e-03, 0., -9.58874531e-04,
          -1.57941598e-03, -1.04740539e-05, 2.67723535e-05,
          -2.92237988e-03, -1.63899979e-03, 0., -8.08531709e-04,
          -2.88981549e-03, 2.75087747e-04, -8.90654698e-03,
          -4.74447326e-04, -8.35859159e-04, 0., -6.59913104e-03,
          -1.72526299e-04, -4.39942069e-03, 1.78010392e-04,
          -1.78679638e-02, -1.62975781e-03, -1.15069626e-04,
          -1.41841971e-04, -1.39161563e-02, -5.79209291e-06,
          -8.52927449e-04, -1.83799281e-03, 1.83364865e-03,
          -2.16776202e-03, -7.75327021e-03, -2.23135529e-03,
          -3.48826894e-03, -7.98812602e-03, -4.35628928e-03,
          1.03549799e-03, -2.95364787e-03, -5.57983806e-03,
          -3.30275707e-02, -1.10253068e-02, -1.60421673e-02,
          -8.49153101e-03, -1.71606373e-02, -1.41751766e-03,
          5.07599034e-04, -2.13648267e-02, -3.80058698e-02,
          -8.83142743e-03, -5.84153924e-03, -1.10848146e-02,
          -3.28002428e-03, -6.61524292e-03, 4.74694389e-04,
          -7.70390208e-04, -5.62910223e-03, -1.54652912e-02,
          -1.19034732e-02, -4.40266263e-03, -1.74014550e-03,
          -5.62306261e-03, -6.43268068e-05, 1.78010392e-04,
          -2.88981549e-03, -5.86160051e-04, -7.16417795e-04,
          -1.63899979e-03, -1.72526299e-04, -8.02800525e-04,
          -2.10796320e-03, 0., -3.25644469e-05, 0., -6.31702133e-03,
          -5.17578912e-04, -4.14063130e-03, 0., -1.46601154e-02,
          -1.02495961e-03, -4.14029090e-03, -2.37315107e-04,
          -1.32473400e-02, 1.18920689e-04, -3.77388927e-03,
          -2.83260830e-03, -1.14751316e-03, -2.48579518e-03,
          -2.86843418e-03, -3.51294503e-03, -1.63321011e-03,
          -7.66187022e-03, -3.18092247e-03, -6.70683617e-03,
          -1.49047328e-02, -5.94769046e-03, -1.94845069e-02,
          -4.91032703e-03, -7.62567995e-03, -7.54263718e-03,
          -9.25840810e-03, -1.20768417e-03, -3.94623727e-02,
          -2.54377015e-02, -4.87596728e-02, -1.94178394e-03,
          -8.69843992e-04, -1.00065256e-02, -8.00023135e-03,
          -5.83037827e-03, -1.97728276e-02, -1.25498939e-02,
          -1.44419847e-02, -8.01085401e-03, -2.21438240e-03,
          -5.58865722e-03, -6.18724502e-04, -5.37742954e-03,
          -2.78186309e-03, -3.86579055e-03, -3.53629515e-03,
          -1.88010721e-03, -7.16417795e-04, -4.74447326e-04,
          -2.18030205e-03, -4.04888391e-03, -3.13239964e-03, 0.,
          -3.01896315e-03, -6.51288938e-05, -2.09012697e-03, 0., 0.,
          -7.76368368e-04, -7.02600880e-03, 3.37659556e-04,
          -1.20527111e-03, -6.58525678e-04, -4.13948577e-03,
          2.10947008e-04, -2.74711783e-04, 1.65579561e-03,
          -6.14437915e-04, 4.61345771e-03, 3.50281852e-03,
          6.64304756e-03, -5.17480122e-03, -5.15989214e-03,
          -9.29011032e-03, -4.71064122e-03, -2.84691341e-03,
          -5.51889418e-04, -4.52538533e-03, 4.00520954e-03,
          1.61438100e-02, -1.23194251e-02, -9.05763078e-03,
          -1.97733333e-03, -3.40854600e-02, -6.26267074e-03,
          3.82432761e-03, 1.85432211e-02, -5.10350754e-03,
          -3.79557861e-03, -1.72526296e-03, -5.27850911e-03,
          -1.78233050e-02, -1.34020513e-02, -7.90257065e-04,
          1.56449564e-02, 7.32757617e-03, -8.60462524e-03,
          -6.08155224e-03, -6.48289267e-03, -9.31454182e-04,
          1.78405724e-03, 5.95759274e-03, 1.06920861e-02,
          -5.73002733e-03, -5.13265748e-03, -2.00777594e-03,
          -5.13265748e-03, -3.55878659e-03, -6.51288938e-05,
          -3.88609036e-03, 1.33218197e-03, -1.85465766e-03,
          -6.03842083e-04, -6.68539433e-03, -2.67415773e-03,
          -1.68375194e-03, 1.14718433e-02, 2.16431189e-02,
          1.79667901e-02, 1.10964915e-02, 6.46130275e-03, 1.47372801e-02,
          8.69419705e-03, 7.78052118e-03, 1.23828824e-03, 3.16742659e-02,
          1.23424875e-02, 5.36258845e-03, 7.74752256e-03,
          -7.66028836e-03, -3.00549157e-03, 1.04037896e-02,
          1.09475544e-02, 8.71143211e-03, 1.42313465e-02, 2.59262715e-02,
          -7.34234788e-03, -1.07936142e-02, -1.14125805e-02,
          -2.51328922e-04, 2.95843557e-03, 1.83025058e-02,
          3.13570052e-02, 1.67486910e-03, -8.58318340e-03,
          -1.13004735e-02, -5.82276238e-03, -2.58015445e-03,
          -3.48312897e-04, 8.38885829e-03, 2.75185406e-02,
          2.93813576e-03, -4.62980103e-03, -1.36128720e-03,
          -1.15900971e-02, 5.94089320e-03, 1.02133900e-02,
          1.12414276e-02, 4.86635882e-03, 2.19155289e-03,
          -1.92847056e-03, 2.78383959e-03, -7.20297312e-03,
          -1.87501893e-03, 1.68844988e-03, 4.17650072e-03,
          4.62827040e-03, -4.27002599e-03, -9.81459161e-04,
          -7.54802581e-03, -1.20768417e-03, 1.37878722e-02,
          1.44844363e-02, 1.36766452e-02, 1.71314850e-02, 2.82756630e-02,
          1.62207596e-02, 4.78610583e-03, 1.37281818e-02, 1.35299638e-02,
          -1.10875221e-03, 2.93771718e-02, 1.82884634e-02,
          1.19235283e-02, 1.54833356e-02, -1.36667874e-03,
          -1.01081142e-03, 7.09851010e-05, 7.38839526e-03,
          3.28550534e-03, 2.95191514e-03, -8.63472000e-03,
          -5.45019656e-03, -7.15312269e-03, 2.61852681e-03,
          -1.29394722e-03, 8.20457377e-03, 5.28039597e-02,
          -4.52392362e-03, 1.92817498e-03, 1.91789281e-04,
          8.93263787e-04, 8.63218738e-04, -1.13728608e-03,
          -4.00066935e-03, -2.00466067e-03, 1.56000452e-02,
          -4.72945860e-03, -4.14063130e-03, 9.20866616e-03,
          2.15316424e-03, 6.15679799e-03, 1.52304396e-03, 5.36906114e-03,
          1.13557586e-02, 2.62810569e-03, 7.00174225e-03, 3.56020802e-03,
          -7.37549970e-03, -5.08952606e-03, 5.75591670e-03,
          -3.25644469e-05, 1.92554994e-03, 2.13785423e-03,
          9.23345142e-05, 0., -9.48894653e-04, -2.20038719e-03,
          -1.54565030e-04, 3.32283229e-03, 8.51326506e-04,
          -9.18157026e-03, 1.45658676e-03, 4.48809331e-03,
          9.48404020e-04, -2.49676313e-03, -4.91767656e-03,
          2.20103888e-03, -2.31271377e-03, -2.65745842e-03,
          2.84801237e-03, -2.31187907e-03, -1.99917634e-03,
          -6.17414946e-03, -1.97980041e-03, -7.48335896e-03,
          -2.00549467e-03, -1.98964626e-02, -9.48894653e-04,
          7.91382801e-04, 7.17525720e-04, -7.67209008e-03,
          1.34792516e-03, 1.48342003e-03, -2.17273459e-02,
          -1.57417892e-03, 1.36113988e-04, 1.94813439e-03,
          -7.31507433e-04, -9.03624948e-03, -2.96551152e-03,
          1.80727744e-03, -2.37223669e-03, -2.09052255e-03,
          -3.24010523e-03, 1.16129220e-03, -5.49915200e-03,
          5.87434322e-03, -1.81676319e-03, 6.26025547e-04, 0.,
          -9.27205314e-04, 2.69757642e-04, 1.24607282e-03,
          -1.83312246e-03, -7.96778593e-03, 0., 2.48675444e-03,
          4.31562803e-04, -3.00251087e-03, 7.71378400e-04,
          2.34204950e-03, 0., -4.65429807e-03, -1.71709899e-03,
          -1.51074398e-03, -9.78009077e-04, -9.09570884e-03,
          7.44391116e-04, -2.26520817e-03, -1.90364243e-03,
          -2.07093172e-03, -1.37531036e-03, -4.93437564e-03,
          -1.79593684e-03, -2.11819005e-03, -2.48049712e-03,
          -1.35260390e-03, -2.10746913e-03, 6.77539501e-03,
          -3.92010529e-03, -9.04706400e-03, -2.26483913e-03,
          5.58223401e-04, -3.61208408e-03, -3.39420256e-03,
          -1.00813829e-03, 4.68902290e-04, -1.49804982e-03,
          -1.52032624e-03, -7.93620944e-03, -4.74447326e-04,
          -2.95695761e-04, 2.74742744e-03, 1.62412308e-03,
          -6.03842083e-04, 2.90891883e-04, 2.21684296e-03,
          -6.11411640e-03, -8.27577896e-03, -9.97263240e-04,
          7.01814657e-04, 6.52704795e-04, 5.14634326e-03,
          -5.07011777e-04, -3.45052592e-03, -1.63899979e-03,
          -6.90105197e-04, 3.56020784e-04, 7.71625491e-04,
          1.06830942e-03, -7.04615749e-03, -1.72526299e-04,
          1.44635967e-03, 0., -9.61834192e-03, 0., 2.69233948e-03,
          3.56020784e-04, -8.33675498e-04, -7.89011974e-05,
          -2.70281010e-03, -2.76319712e-04, -5.41988900e-03,
          -4.29129868e-04, -9.36041400e-03, -1.34201010e-03,
          -1.40115852e-04, 4.30706023e-05, -5.02338447e-03,
          -1.94539246e-03, -4.74598911e-03, -1.50080053e-02,
          -3.63941165e-03, -1.85465766e-03, -4.18376271e-03,
          -3.21856979e-03, -3.15830372e-02, -6.35135546e-03,
          -2.80716047e-02, -1.32791372e-02, -1.34705184e-02,
          -4.53944318e-03, -9.97417257e-04, -1.89661831e-02,
          -1.29874246e-02, -2.42799576e-02, -2.19880957e-02,
          -3.01921018e-03, -2.23674253e-02, -6.46425225e-03,
          -3.60136293e-03, 1.18673597e-04, -4.00168635e-03,
          -1.14816166e-02, -2.26750560e-02, -7.74034578e-03,
          -4.43574553e-03, -6.71207346e-03, 0., 0., -2.88981549e-03,
          -3.62585153e-04, -1.00949779e-03, -5.21892030e-03,
          -4.74447326e-04, -1.55826885e-04, -2.15377915e-03,
          -1.72526299e-04, -4.35628928e-03, 0., -6.96119526e-03, 0.,
          -8.41065682e-03, 0., 8.11497122e-03, -3.29645397e-03,
          -1.46218183e-04, 3.01530538e-03, 9.65223153e-05,
          -2.08911230e-03, -1.11047756e-02, 2.51398981e-03,
          -2.03248672e-03, 1.04163005e-03, -2.23628082e-03,
          2.83630518e-03, -3.25576216e-03, -1.07055362e-02,
          -1.60015672e-02, -8.58318340e-03, -1.81415770e-02,
          -1.08510545e-02, -9.89111047e-03, -1.00753736e-03,
          -1.54594816e-02, 4.59922384e-03, -2.23322632e-03,
          -1.17749199e-02, -4.30350602e-02, -1.62849668e-03,
          -1.44400699e-02, -9.66250140e-04, -1.66272335e-02,
          -3.60086886e-03, -1.40842088e-02, -1.36750881e-02,
          -1.59446839e-02, -7.78871262e-03, 5.10644820e-03,
          1.10188816e-02, 4.78735985e-03, -1.04404418e-02,
          -4.52860491e-03, -7.18895579e-03, -2.24284199e-03,
          -2.40480108e-03, -9.58847057e-04, 1.95155002e-03,
          5.72735257e-03, -5.21892030e-03, -7.48548564e-03,
          -8.59430805e-03, -2.15467019e-03, 0., -5.60463406e-04, 0.,
          -4.35731281e-03, 3.32646468e-03, -3.27799958e-03,
          -1.29394722e-03, 5.59997838e-03, -2.81431567e-04,
          3.48813948e-04, 1.41232493e-04, -6.95510814e-03,
          1.70385616e-03, -1.13555300e-03, 4.02011862e-03,
          -2.56636064e-03, 4.03087167e-03, 1.07023576e-02,
          9.93538275e-03, -3.25957104e-03, -6.93074428e-03,
          -1.84218325e-02, -5.75162377e-03, -2.33075637e-02,
          -1.83024127e-02, 5.41980518e-03, 2.93527432e-02,
          2.60527749e-02, 7.00870901e-03, -9.56156640e-04,
          -6.45229593e-03, -5.42487614e-02, 1.58606879e-02,
          1.09829707e-02, 4.23071384e-02, 6.34903740e-03,
          -2.91076372e-03, -1.78928755e-03, -1.40721137e-02,
          -2.14299802e-02, -8.68390780e-03, 7.92574603e-03,
          3.63532491e-02, 2.28802897e-02, 5.34772291e-04,
          -2.54476303e-03, -8.29441845e-03, -3.36426287e-03,
          -1.97699293e-03, 7.73766218e-03, 3.97680094e-03,
          5.93417417e-03, 0., -7.61488080e-03, -6.86356053e-03,
          -2.78549478e-03, -7.65801233e-04, 2.01394386e-03, 0.,
          -1.85782481e-02, 3.61954467e-03, -4.08929819e-03,
          -2.05934746e-03, 5.49300341e-03, 1.49449855e-02,
          1.42171811e-02, 7.17353122e-03, 2.75215367e-03, 6.90404885e-03,
          5.64770028e-03, 6.37633633e-03, -1.36541075e-03,
          -1.38592604e-03, 2.51265299e-02, 4.05728351e-03,
          -2.10099667e-03, -3.28027178e-03, -5.44421794e-03,
          1.82422390e-03, -1.21312644e-02, 8.24526791e-03,
          -5.42092137e-03, 9.01840441e-03, 4.01835376e-03,
          -3.84295871e-03, -2.78161606e-03, 4.03490243e-03,
          -1.52808230e-03, 9.35559440e-03, 1.55105703e-02,
          1.26080578e-02, 3.86909582e-03, 0., 8.30715173e-04,
          3.32483742e-03, -5.32914512e-03, 4.02911054e-03,
          2.92281155e-04, 5.41956071e-03, -3.18555953e-03,
          2.78882962e-03, -2.54476303e-03, -4.94343182e-03,
          -2.60360562e-03, 5.37414383e-03, 1.60209357e-03,
          -7.27229007e-03, 1.83944078e-03, 0., 0., -5.49742312e-04,
          -1.32078049e-03, 5.02114883e-04, -4.84521221e-03,
          3.44153447e-03, -9.31642018e-03, -1.29394728e-04,
          -1.14346100e-02, 3.56020784e-04, 5.52522810e-03,
          1.12624075e-02, 1.37061591e-03, 1.21731320e-02, 7.01496657e-03,
          4.65039304e-03, -3.60877928e-03, -7.31722568e-04,
          -8.06461787e-04, -2.41277250e-03, 7.44008878e-03,
          4.42886259e-03, -7.90495396e-05, 1.89798791e-03,
          2.14792718e-03, 4.29902179e-03, -1.71346646e-02,
          -4.10788041e-03, -9.75219905e-03, -5.18770097e-03,
          -2.04842854e-02, -2.90004234e-03, -5.33042999e-04,
          7.02648831e-04, -8.02306458e-04, -4.47298633e-03,
          1.19771343e-02, -2.10637227e-02, -6.78440323e-03,
          -4.65821009e-03, 3.26352403e-03, 5.63699612e-03,
          -3.60635272e-03, 0., -7.83937983e-03, -1.32271263e-03,
          5.80467633e-04, -3.60269507e-04, -3.27799958e-03,
          -3.12617468e-03, -1.57882890e-03, -6.58717426e-03,
          -1.12542266e-03, 8.42177542e-04, 2.01745122e-03,
          -1.03392242e-03, 0., 0., -3.33101791e-03, -1.29394728e-04,
          -4.33410564e-03, 6.52704795e-04, -3.72453243e-03,
          6.09419250e-04, -1.08303223e-03, 0., -2.33725924e-03,
          -2.02983432e-03, 8.47964920e-03, 2.01492821e-05,
          -6.50466280e-03, 3.29033472e-04, 3.73465009e-03,
          5.77968531e-05, 1.15500391e-02, -2.15930231e-05,
          3.97584448e-03, 9.17619467e-03, -2.88981549e-03,
          4.56298748e-03, -2.20522474e-04, -3.13205970e-03,
          2.81647989e-03, -7.86656223e-04, 1.34129599e-02,
          -2.15657870e-04, 3.05971294e-03, -1.46074244e-03,
          6.33148756e-03, 0., 3.56212375e-03, 1.11637008e-03,
          -2.73759215e-04, -1.88379306e-02, -3.93584836e-03,
          1.12739915e-03, -6.41242426e-04, -2.57501099e-03,
          -2.99120275e-03, -4.55081277e-03, 5.75566944e-03,
          -1.77886861e-03, 7.18514028e-04, -5.74173639e-03,
          8.90299038e-04, -5.95215755e-03, 2.81200139e-03,
          -3.27266962e-03, -2.58789444e-03, -4.31315741e-04,
          -4.74447326e-04, -1.20768417e-03, 1.24607282e-03,
          -4.52881539e-03, 7.44234119e-03, 1.24157712e-04,
          4.38088225e-03, 4.74694389e-04, 4.59808391e-03, 7.71378400e-04,
          4.39092331e-03, 0., 5.24478126e-03, -2.18513818e-03,
          -2.22752849e-03, -1.63117587e-03, -2.87030172e-03,
          -1.19711692e-03, -4.65176627e-03, -3.85044841e-03,
          1.12386304e-03, 1.79113669e-03, -1.85558177e-03,
          7.13710499e-04, -5.60137397e-03, -5.82707813e-04,
          -1.59608317e-03, -5.29421587e-03, 1.26505410e-02,
          -3.74178682e-03, 1.65883061e-02, -1.99492765e-03,
          1.32281976e-02, -8.51663353e-04, 5.02589112e-03,
          -1.19905770e-02, 7.82087352e-03, 2.39500729e-03,
          1.39170489e-03, -3.86090986e-02, 0., 0., -5.95215755e-03,
          -2.20436491e-02, 8.79824976e-04, 8.12732105e-05,
          6.90984074e-03, -2.80878949e-03, -2.84668407e-03,
          2.96684011e-04, -4.74447326e-04, -2.15657870e-03,
          4.93068574e-03, -1.93035381e-03, -1.45352897e-04,
          4.15357586e-04, -2.58789444e-03, 0., 7.71625491e-04,
          -1.75194244e-03, 3.98558984e-03, -1.72526299e-04,
          4.09008376e-03, 0., 5.04585449e-04, 0., 8.11002625e-04, 0.,
          7.22100725e-03, 3.79219040e-04, -5.77146932e-03,
          3.48595995e-03, 1.93593558e-02, 8.29449017e-03,
          -7.04473071e-03, -3.78208677e-03, 6.21468644e-04,
          8.60205386e-04, 2.11616280e-03, 7.70147482e-04,
          -4.73649520e-03, -5.26075531e-03, -3.49365757e-03,
          -5.83678205e-03, -8.12879670e-03, -3.41786840e-03,
          6.38342276e-03, -1.55856833e-02, -2.27536671e-02,
          -5.77963097e-03, -7.54971616e-03, -2.05138121e-02,
          -5.38839819e-03, 1.26980748e-02, 1.46117825e-02,
          -6.00897186e-02, -7.26843020e-03, -1.89778931e-03,
          -3.16690505e-02, -3.69924530e-02, -1.94092083e-03,
          -1.75194244e-03, 5.94886811e-03, 4.46055643e-03,
          -6.05944218e-03, -3.57992062e-03, -7.03217322e-03,
          -9.66147333e-03, -1.20768417e-03, 2.96684011e-04,
          -9.21721279e-04, 5.50454995e-03, -5.39913075e-04,
          -3.27799958e-03, -4.74447326e-04, 0., -2.39962479e-03,
          -9.54073039e-04, -6.63677882e-03, 1.06806238e-03,
          1.97743420e-02, 0., -1.20337093e-02, 0., 2.79930681e-02,
          3.15171492e-04, -7.70108169e-03, 5.15007554e-03,
          9.73860361e-03, 9.00653750e-03, 3.15194926e-03, 1.14431488e-03,
          -1.42140547e-03, 3.26251029e-03, 2.28610560e-02,
          1.74635630e-02, 1.72991958e-03, 1.09659799e-03,
          -1.33214043e-02, -6.15272205e-03, -1.95008814e-02,
          2.69886485e-04, 2.49908324e-02, 2.74532754e-02,
          -8.89426842e-03, 1.14849070e-02, -9.05858073e-03,
          -2.08640415e-02, -1.86283141e-02, 2.17973292e-02,
          2.59615853e-02, 5.69825293e-03, -8.45302176e-03,
          -1.20324735e-02, -2.93934941e-02, -2.03436632e-02,
          -3.27799958e-03, -2.11344729e-03, 2.55697835e-02,
          4.91085500e-02, 9.22711752e-03, -9.18702502e-03,
          -1.42351463e-02, -1.78996027e-02, -1.30257788e-04,
          -4.55902278e-04, 7.65774352e-03, 3.83239868e-03,
          1.02864336e-02, -3.27799958e-03, -1.23787625e-02,
          -4.58855554e-03, 9.12332255e-03, -5.53595601e-04,
          7.93156680e-03, 1.21350843e-03, 5.42632863e-03, 3.32646468e-03,
          -4.14149417e-03, -5.17578912e-04, 1.51282102e-02,
          1.39266474e-03, -3.84532963e-03, -1.74912787e-03,
          -4.43462236e-03, 7.18302210e-04, -6.03207015e-03,
          -3.74875008e-03, -5.83724584e-03, -8.21344147e-04,
          2.62328144e-02, 6.89395843e-03, -2.25583534e-03,
          2.66091735e-03, -9.87512805e-03, -4.59677912e-03,
          -2.64232997e-02, -2.88147805e-03, 2.32266877e-02,
          3.54476124e-02, 4.65111667e-03, -3.98885412e-03,
          3.02032474e-03, -1.24048907e-02, -6.54859617e-02,
          8.09747819e-03, 1.28477691e-02, 6.55373419e-03,
          -9.65277664e-03, -2.79420465e-02, -5.37179736e-03,
          -1.90771017e-02, -7.70676415e-03, -9.39106382e-03,
          1.11798737e-02, 3.00042126e-02, 7.80676678e-03,
          -5.69835817e-03, -5.86568378e-03, -1.83177125e-02,
          -1.30257788e-04, -4.88466700e-04, 1.09179709e-02,
          2.19220133e-03, 5.04362816e-03, -1.76814757e-03,
          -8.70629400e-03, -7.58667290e-03, 9.26803239e-03,
          -7.33236782e-04, 8.31364247e-04, 2.76675055e-05,
          -1.79100782e-02, 3.61954467e-03, -3.43111786e-03,
          3.56020784e-04, 2.72502890e-03, 1.54378067e-03,
          -1.28893424e-02, -8.82440712e-03, -5.69188548e-03,
          -1.66943390e-03, -1.98335573e-02, -3.17515898e-03,
          2.62620422e-04, -3.04655143e-04, 5.60640777e-03,
          -1.93740800e-02, -7.62183871e-03, -8.38965294e-04,
          -2.97459634e-03, -2.73025595e-03, -1.30085181e-02,
          1.16983239e-04, 1.15259165e-04, -1.73716850e-04,
          -1.82102695e-02, -1.76443215e-02, -1.61916856e-02,
          1.05383352e-03, -4.13093530e-02, 2.33607157e-03,
          -2.85706483e-03, -6.21060655e-03, -1.40965637e-02,
          -1.94835141e-02, -5.89781068e-03, 1.36454270e-04,
          -3.25644469e-05, -7.38091394e-03, -3.25644469e-05,
          -3.12642148e-03, -3.96711659e-03, -9.96838417e-03,
          -7.00306101e-03, -3.89506784e-03, 2.16289726e-03,
          2.57825479e-03, -1.93227344e-04, -6.50165277e-03, 0.,
          -3.19148949e-03, -3.65472143e-03, -2.16740184e-03,
          2.31413520e-03, 4.20934812e-04, -3.54054361e-03,
          -1.33707887e-03, -1.01895258e-02, 0., -5.05064288e-03,
          -1.15358434e-03, -1.20610825e-03, 2.39661522e-03,
          -7.15061976e-03, 2.65959185e-03, -4.89283912e-03,
          -3.70733906e-03, -1.14696948e-02, -3.32075893e-03,
          4.16072877e-03, -8.33295635e-04, 2.12429208e-04,
          -5.26004424e-03, -1.16774421e-02, -1.07581844e-03,
          -7.85266981e-04, 2.06773542e-03, -1.62018836e-02,
          -3.59944697e-03, 2.56198854e-03, -5.38987108e-03,
          -1.63351577e-02, -8.96514207e-03, -1.11546256e-02,
          -2.98097567e-03, -1.18544633e-02, 4.96630848e-04,
          -4.07636538e-03, -1.29014850e-02, -5.38897607e-03,
          -1.84974670e-02, -1.80579489e-03, 4.49912250e-03,
          -2.50163139e-03, -6.63104700e-03, 4.68902290e-04,
          3.05902027e-03, -5.47770970e-03, -7.64950598e-03,
          -3.53678921e-03, 0., -2.26908782e-03, -3.65995849e-03,
          1.16578792e-03, -1.29394722e-03, 1.54275680e-03,
          -1.03515782e-03, -3.83846322e-03, -3.45052598e-04,
          2.10356037e-03, 1.12160714e-03, -6.17483456e-04, 0.,
          -1.81577483e-03, 1.42408314e-03, -2.81204958e-03,
          5.34031191e-04, -7.67823018e-04, -3.78849043e-04,
          1.59514043e-02, 1.06094533e-03, -3.56927654e-03,
          3.26321600e-03, -1.03912724e-03, 1.49250799e-03,
          8.54225922e-03, -1.78992667e-03, -5.06979646e-04,
          1.00443112e-02, 3.19445436e-03, 5.89532312e-03,
          -1.39638351e-03, 5.77769894e-03, 3.01469746e-03,
          -6.75052311e-03, 8.39888304e-03, -3.35877878e-03,
          1.26182835e-03, -2.75468966e-03, 8.90382472e-03,
          3.38219758e-03, -1.02970330e-02, -3.65536986e-03,
          -1.73981357e-02, -1.47298649e-02, -2.80355243e-03,
          4.98429127e-03, 3.31238657e-03, -3.84366815e-03,
          -2.35519721e-03, -7.23005366e-03, 2.22920068e-03,
          5.93368022e-04, 8.85788258e-03, -5.39144687e-03,
          8.69583059e-03, -1.68213143e-03, -3.06234183e-03,
          -1.36979739e-03, -2.85740523e-03, -2.26378994e-04,
          -6.46973611e-04, -1.85465766e-03, 0., -4.52881539e-03,
          5.14481217e-03, 2.64119561e-04, 6.88380934e-03,
          -3.45052598e-04, 4.24181577e-03, 0., 8.36648885e-03, 0.,
          1.09127378e-02, 1.88818155e-03, -5.57835854e-04,
          -7.25540594e-05, 1.47705676e-03, -1.73065404e-03,
          -3.08682560e-03, 4.25477810e-05, 3.08209890e-03,
          1.30261076e-04, -5.98880870e-04, 5.50408801e-03,
          1.48015947e-03, 2.05122909e-04, -1.65043015e-03,
          4.69123624e-04, 1.04153976e-02, -6.15724828e-03,
          2.75354460e-03, -3.40982061e-03, 8.47567711e-03,
          1.47393416e-03, 9.34053212e-03, 5.29782439e-04, 1.15706762e-02,
          -1.58073511e-02, -7.81744253e-03, -9.16544721e-02, 0.,
          2.72949273e-03, -6.61696366e-04, -2.05160864e-02,
          1.48366694e-03, -8.33754987e-03, -6.32947718e-04,
          1.13920169e-03, -6.25284272e-04, -1.75416481e-03,
          6.89453166e-03, -5.04639419e-03, -2.15211185e-03,
          -3.64504964e-03, -1.03266630e-03, 6.52704795e-04,
          -2.94256047e-03, 1.60209357e-03, 0., -3.62305227e-03,
          5.07642864e-04, 2.37347194e-04, 4.88579413e-03, 6.63673040e-04,
          3.82571667e-03, 0., 9.31587722e-03, 0., 2.60047056e-02,
          7.98264984e-03, -7.66768167e-03, 1.10931164e-02,
          2.83573233e-02, 1.92314424e-02, -4.37541027e-03,
          7.06610456e-03, 1.20615307e-03, 2.80775269e-03, 8.56458768e-03,
          1.57251153e-02, 2.59517040e-03, 1.18094394e-02,
          -2.09942646e-03, -6.21815957e-03, -1.35191707e-02,
          -2.24715727e-03, 1.22966506e-02, 2.23833825e-02,
          4.93527716e-03, 2.65419553e-03, 2.75377231e-03,
          -6.34206738e-03, -4.00312804e-02, 1.59540903e-02,
          2.71332152e-02, -8.93328488e-02, 9.90628544e-03,
          -3.52601171e-03, -4.28425428e-03, -4.05897498e-02,
          -3.41343600e-03, -1.28663667e-02, 9.25678760e-03,
          3.11547443e-02, 8.68982077e-03, -3.54952458e-03,
          4.40386590e-03, -4.30949498e-03, -4.26555891e-03,
          -3.83871002e-03, 9.54647828e-03, 1.16300127e-02,
          1.97237637e-03, 2.65014707e-04, -2.15657870e-04,
          -4.31315741e-04, -2.30193161e-03, 9.39605889e-06,
          -6.33012131e-03, 1.54275680e-03, 2.46247724e-02,
          3.08551360e-03, -6.81633188e-04, 0., 2.02222634e-02,
          3.83720570e-03, -1.74305547e-04, 1.32750878e-02,
          1.54061299e-02, 3.23967561e-02, 2.30219564e-03, 9.76112112e-03,
          5.90783497e-03, 7.85929337e-03, 2.67963260e-02, 3.19855250e-02,
          1.59392618e-02, 1.35338102e-02, -8.01815838e-03,
          -9.12966393e-03, -1.26504973e-02, -5.19147725e-04,
          1.85891185e-02, 3.70872878e-02, 3.49292508e-03, 1.44360971e-03,
          -1.03313681e-02, -8.59008823e-03, -5.30559421e-02,
          2.71535795e-02, 2.49424353e-02, 8.62100511e-04, 1.19237360e-02,
          -1.03180101e-02, -2.06600241e-02, -9.56594758e-03,
          -3.53429769e-03, -1.87486468e-03, 1.36686917e-02,
          2.63111312e-02, 6.52544852e-03, -2.24694679e-03,
          -8.37011449e-03, -9.46501270e-03, -1.30257788e-04,
          -1.35993923e-03, 3.65904742e-03, -9.48894653e-04,
          8.14777985e-03, -1.33707887e-03, -4.34532063e-03,
          -4.14063130e-03, 4.92495438e-03, 3.08551360e-03,
          -7.11979205e-03, 1.86621316e-03, 1.17704077e-02,
          3.08551360e-03, -3.14494222e-03, 0., 5.28097525e-03,
          1.03553338e-03, 3.06766538e-04, 1.24398666e-03, 4.65516793e-03,
          4.98977909e-03, -6.08130218e-03, -4.07140423e-03,
          -4.32822295e-03, -4.12121974e-03, 1.39439339e-02,
          5.42517286e-03, 5.86716505e-03, 4.86561749e-03,
          -8.68888572e-03, -1.25559140e-02, -2.35258825e-02,
          -2.82136071e-03, 1.63149100e-03, -4.16104961e-03,
          -3.28280265e-03, 1.29620056e-03, 3.05554888e-04,
          -1.73469225e-03, -6.32568374e-02, -1.87440644e-04,
          6.16083201e-03, -1.52340764e-02, -2.27936786e-02,
          -3.22026596e-03, -6.89267274e-03, -1.60542727e-02,
          -4.38680407e-03, -2.00910307e-03, -3.43370694e-03,
          -3.97149287e-03, 3.70827876e-03, -5.69835817e-03,
          -5.99594135e-03, -1.40182693e-02, -9.06626170e-04,
          -8.04465730e-04, -8.63546599e-03, -6.55501150e-03,
          4.74694389e-04, 4.74694389e-04, -5.21313073e-03,
          -7.79669033e-03, 6.28970098e-03, 3.08551360e-03,
          -1.98417604e-02, -9.58380348e-04, -3.22622043e-04, 0.,
          -1.27001340e-03, 0., 6.96362578e-04, 1.15497713e-03,
          -1.02564339e-02, -6.61970675e-03, -5.25024952e-03,
          -3.63743491e-03, -2.14447957e-02, -7.80553150e-04,
          1.65854208e-03, -1.10354729e-03, -4.51192958e-03,
          -5.85834030e-03, -9.61735286e-03, 4.15357575e-03,
          -1.16356427e-03, -1.03018545e-02, -2.03960333e-02,
          -3.62055493e-03, -7.33612198e-03, -1.79730766e-02,
          -1.42324315e-02, -4.02670074e-03, -1.54208001e-02,
          5.04387496e-03, -4.98368703e-02, -2.06222907e-02,
          -1.06049441e-02, -1.10199014e-02, -1.97954159e-02,
          -1.04318624e-02, -3.91400512e-03, -1.08361095e-02,
          -7.26898620e-03, -3.90190259e-03, -8.20023566e-03,
          -4.37723706e-03, -3.14860488e-03, -1.31169884e-02,
          -5.00779320e-03, -6.92549348e-03, -3.07466078e-04,
          2.01745122e-03, -4.69561061e-03, -2.66269525e-03,
          -1.29147680e-04, -1.81127922e-03, -5.65023674e-03,
          -2.72262841e-03, 1.12739915e-03, 2.13612476e-03,
          -5.78458887e-03, -6.73405826e-04, -4.26953146e-03, 0.,
          -4.33410564e-03, -1.50960509e-03, -1.17711246e-03,
          2.62308680e-03, -3.36138619e-04, 5.90083981e-03,
          -3.42642749e-03, -2.17595161e-03, -3.10386706e-04,
          2.79992307e-03, 1.33967481e-03, -1.15650462e-03,
          -1.97043046e-04, -1.74454250e-03, -1.60167851e-02,
          4.68760729e-03, -3.31989606e-03, -5.27822506e-03,
          -3.51407914e-03, -6.59207162e-03, -5.96718816e-03,
          -1.04684290e-02, -1.98306423e-03, -6.03145454e-03,
          -1.20491739e-02, 7.18266936e-04, -8.85743741e-03,
          -9.55752283e-03, -8.25439673e-03, 2.69692834e-03,
          1.12315046e-03, -1.31491516e-02, -1.89181103e-03,
          -3.75620136e-03, -5.93274948e-04, -6.38347305e-03,
          -1.45506856e-04, -2.73512211e-04, -4.25945874e-03,
          -1.25512881e-02, -6.03842083e-04, -6.77165762e-03,
          -3.93002434e-03, 1.35451939e-03, 3.62493156e-04, 0.,
          -2.11344729e-03, -2.76042079e-03, -2.63077905e-03,
          -2.56047398e-03, 1.25704100e-03, 1.80163933e-03,
          5.42642083e-03, 1.60209357e-03, -5.03419060e-03,
          -3.01921042e-04, -1.90702768e-03, 0., 3.71782877e-03,
          1.94499025e-03, 1.82583593e-02, 1.01359363e-03, 3.95188294e-03,
          1.41853816e-03, 2.14238232e-03, 3.42486729e-03, 3.97714088e-03,
          6.82469131e-03, 5.46456268e-03, -6.97177893e-05,
          1.60757767e-03, 2.61081918e-03, 7.90799968e-03,
          -2.09175772e-03, 1.67078730e-02, -4.29682713e-03,
          8.73336510e-04, -2.82474770e-03, 2.55437251e-02, 0.,
          -1.31917903e-02, 2.55148229e-03, 7.87875091e-04,
          -4.22775745e-03, 3.30917072e-03, -1.62843277e-03, 0.,
          -6.17644154e-02, -2.21048091e-02, -6.51288938e-05,
          5.69633255e-03, -4.58396127e-04, -2.81442748e-03,
          6.05235342e-03, 2.14372836e-02, -1.03515782e-03, 0.,
          -7.76368368e-04, 1.66143035e-03, 3.17162275e-03,
          3.44153447e-03, -3.12642136e-04, 0., 0., -4.31315748e-05,
          -2.02718400e-03, -9.35382023e-03, -6.51288938e-05,
          1.44781787e-02, -3.45052598e-04, 5.02766948e-03, 0.,
          5.45898546e-03, 0., 2.75146146e-03, 6.38631638e-03,
          8.37302580e-03, 1.61148969e-03, -2.45282962e-03,
          8.52651603e-04, 6.30674046e-03, 1.73232250e-03, 3.24929529e-03,
          6.49473025e-03, 4.65556886e-03, 8.35225452e-03,
          -4.13489994e-03, -1.74097402e-03, 1.20294129e-03,
          -4.03548265e-03, 7.78557267e-03, -4.75272955e-03,
          -4.10229154e-03, 2.21969057e-02, 2.65171770e-02,
          -4.86289989e-03, -8.06560460e-03, -4.31315748e-05,
          8.38701054e-03, -7.88330100e-03, 3.88999358e-02,
          -7.84050524e-02, -1.76839461e-03, -2.36792341e-02,
          -1.16023934e-02, -9.83649492e-03, 4.62876447e-03,
          -8.15531984e-03, 3.56258894e-03, 2.92204767e-02,
          1.21415639e-03, -2.15657870e-03, 0., -1.81152613e-03,
          -2.15211185e-03, -8.25073745e-04, 2.52754171e-03,
          7.12041603e-03, 0., -1.12142100e-03, 0., -1.07828935e-03,
          -6.94418373e-03, 2.37347194e-04, 9.51473881e-03,
          3.51183931e-03, -1.64423685e-03, 0., 1.73796073e-03, 0.,
          6.32007699e-03, 7.02762324e-03, -2.42174859e-03,
          6.09298889e-03, 3.59113910e-03, 3.35912220e-03,
          -3.13945231e-03, 8.95414269e-04, -6.38427213e-03,
          -1.14871620e-03, 9.67386924e-03, 1.32961879e-02,
          -2.09418940e-03, 2.75241735e-04, -1.73000596e-03,
          -7.70238403e-04, -1.92362610e-02, -3.27520003e-03,
          9.70136002e-03, 4.31338884e-02, 2.66123693e-02,
          -3.79807455e-03, -1.81152613e-03, -2.50163139e-03,
          -2.60275379e-02, 2.10013222e-02, 2.76755318e-02,
          -6.57024756e-02, -3.40739585e-04, 0., -2.54476303e-03,
          -5.25384806e-02, -5.53100975e-03, -8.45724065e-03,
          1.37487613e-02, 3.52280065e-02, 1.43275885e-02,
          -5.60710498e-04, -2.15657870e-04, -2.15657870e-03,
          -3.74884298e-03, -3.89586133e-03, 1.32291457e-02,
          1.39325643e-02, 1.51583040e-03, -1.12142100e-03,
          -2.15657870e-04, -1.98491546e-03, -2.38024106e-04,
          1.51084052e-04, -2.65728449e-03, 2.13612476e-03,
          4.28365124e-03, 7.71378400e-04, -2.36425875e-03, 0.,
          5.86057082e-03, -1.61225291e-03, -1.15878694e-03,
          6.58647530e-03, 1.21190760e-03, 1.84831407e-03,
          -9.94493533e-03, 4.81225923e-03, 1.84687250e-03,
          -4.92870575e-03, 1.04696173e-02, 1.36063667e-02,
          3.30930692e-03, 1.18673604e-03, -8.08630511e-03,
          -5.45669766e-03, -1.43977851e-02, -5.39973727e-04,
          9.22431611e-03, 6.12269156e-03, -3.58469947e-03,
          -1.85810996e-03, -9.21474129e-04, -1.83296844e-03,
          -5.40164411e-02, 1.68588590e-02, 8.23623128e-03,
          -4.95656580e-03, -6.85397827e-04, -2.57692626e-03,
          5.34031191e-04, -2.63396837e-02, -5.75840613e-03,
          1.18741626e-03, 7.85343815e-03, 2.59276922e-03,
          -3.80140147e-03, -4.96013090e-03, -2.15657870e-04,
          -6.98108852e-05, -2.31265300e-03, -3.96810472e-03,
          3.73388012e-03, -1.31625263e-03, 1.51583040e-03,
          -4.23337828e-04, -5.77963097e-03, -1.32697378e-03,
          1.34737010e-03, 2.10420869e-04, -8.60583410e-03,
          9.49388777e-04, 4.80123004e-03, 7.71378400e-04,
          -3.97932483e-03, -2.50163139e-03, 3.88828549e-03,
          1.72375658e-04, -1.29194267e-03, 3.83255258e-03,
          1.15903968e-03, -8.35332787e-04, -1.19454116e-02,
          2.35202978e-03, -2.31166463e-03, -9.99573153e-04,
          4.18475224e-03, 5.38782123e-03, 2.72850762e-03, 1.78010401e-03,
          -5.78363286e-03, -2.10124394e-03, -2.79715043e-02,
          -3.10571748e-03, -5.14762709e-03, -6.20872900e-03,
          -1.45366462e-02, -4.90797218e-03, 1.74344482e-03,
          -2.71131098e-03, -6.48942664e-02, -2.85809091e-03,
          -1.99279725e-03, -6.82213577e-03, -6.17088675e-02,
          -4.35628928e-03, -5.01897372e-03, -3.73500027e-02,
          -4.73918207e-03, -1.54528383e-03, 2.36909580e-03,
          -4.60725697e-03, -3.30086029e-03, -4.36676294e-03,
          7.12041568e-04, -1.83272141e-03, -1.32062647e-03,
          -1.02958072e-03, -1.20550608e-02, -7.87653308e-03, 0.,
          -2.10546935e-03, -5.82276238e-03, -2.49066320e-03,
          2.07678787e-03, 2.96684011e-04, -1.62735488e-02,
          -6.40995509e-04, -2.34432193e-03, 0., -6.86914008e-03,
          -2.50163139e-03, 1.44007348e-03, 3.00849252e-03,
          -2.83869705e-03, -1.56881660e-03, 1.56453927e-03,
          -2.05876026e-03, -1.62637718e-02, 3.53814964e-03,
          -2.98577966e-03, 3.31198564e-03, -2.68355012e-03,
          5.34089934e-03, 3.97556555e-03, 2.34254380e-03, 5.50576544e-04,
          -1.57349859e-03, -2.39542630e-02, -4.25828435e-03,
          -6.22043293e-03, -6.77615264e-03, -2.27137022e-02,
          -5.22292219e-03, 8.32444523e-04, -1.70258537e-03,
          -3.82259823e-02, -4.07024007e-03, -1.07181333e-02,
          -9.33712069e-03, -4.13626879e-02, 2.11162143e-04,
          -5.85492607e-03, -3.56176533e-02, -4.33839671e-03,
          -3.25492886e-03, -1.20620185e-03, -8.03047675e-04,
          -3.14860488e-03, -5.52084157e-03, 2.30366108e-03,
          -4.10812767e-03, -8.08932818e-04, 1.53696467e-03,
          -2.15035351e-03, -5.02421102e-03, 4.42377001e-04,
          -3.96810472e-03, -4.31315741e-03, -5.44258161e-04,
          1.45085563e-03, 0., -6.04393333e-03, 1.45445942e-04,
          5.41491841e-04, 0., -7.22441543e-03, 0., 7.30101077e-04,
          2.42723525e-03, 3.83566658e-04, 1.69855484e-03, 2.34124786e-03,
          -9.63970815e-05, 5.18105167e-04, 1.07930973e-03,
          -6.56366232e-04, -7.19611475e-04, 1.24102179e-03,
          3.07636778e-03, -1.96726015e-03, 2.82672420e-03,
          1.41305407e-03, 9.30758615e-05, 1.61854585e-03, 1.71023211e-03,
          1.09012413e-03, 1.18707609e-03, 4.75682755e-04,
          -1.55100704e-03, -6.02359709e-04, -7.91832397e-04,
          -8.89310846e-04, -8.28892575e-04, 6.79663266e-04,
          -1.14162790e-03, -1.10447442e-03, 1.34379813e-03,
          -2.59313150e-03, 1.27398747e-03, -6.79291028e-04,
          -2.11344729e-03, -2.15962573e-05, -3.45052598e-04,
          -5.04639419e-03, -6.25407882e-03, 7.60904280e-04,
          -2.39358586e-03, 4.75034554e-04, 1.09483476e-03,
          2.22836621e-03, 7.12041568e-04, -8.08191602e-04,
          -1.63326878e-03, -2.07031565e-03, -3.10547347e-03,
          3.37640569e-03, 0., 1.00422977e-03, 1.09483476e-03,
          2.11068103e-03, 0., -1.91923161e-03, 0., 6.35489449e-03,
          7.08550913e-03, 2.20023673e-02, 9.44450218e-03, 1.13845412e-02,
          7.75121665e-03, 3.05257328e-02, 5.39943390e-03, 5.45892492e-03,
          1.21631203e-02, 1.69371441e-02, -1.34631729e-04,
          4.11592843e-03, 4.77920054e-03, 9.77985002e-03,
          -1.91978656e-03, 1.20777814e-02, 1.25680650e-02,
          1.02228150e-02, 2.10913364e-02, 3.67446691e-02,
          -9.96428891e-04, -8.83851387e-03, 2.55148229e-03,
          2.57825479e-03, -4.10181499e-04, 3.67559418e-02,
          1.76026933e-02, 2.37940568e-02, -8.22087824e-02,
          7.13771209e-04, 2.04782744e-04, 2.40009022e-03,
          -6.36406534e-04, 2.04782744e-04, 2.00668052e-02,
          2.56334972e-02, -2.58789456e-04, 2.94539775e-03,
          1.31637778e-03, 3.64631717e-03, 3.08551360e-03, 1.29947588e-02,
          2.86985561e-03, -2.15657870e-04, 8.30715173e-04,
          -4.31315748e-05, -4.31315748e-05, -8.03201692e-04,
          2.10356037e-03, 2.22513005e-02, 4.15203598e-04, 5.63160470e-03,
          0., 1.96404811e-02, 0., 7.07204733e-03, 2.60552112e-03,
          1.11908780e-03, 3.89839080e-03, 1.34872738e-03, 7.36333989e-03,
          3.90928658e-03, 1.00810016e-02, 4.06978372e-03, 4.54382971e-03,
          1.28423534e-02, 6.16030628e-03, -1.90253207e-03,
          2.88590696e-03, 6.31288043e-04, -2.06341571e-03,
          -4.71058022e-03, 1.11316482e-03, 6.78633153e-03,
          2.91234944e-02, 2.69711055e-02, -1.27238147e-02,
          -8.32439400e-03, -2.80355243e-03, -1.92733249e-04,
          8.57127085e-03, 4.44410741e-02, -5.15214540e-02,
          -3.66779715e-02, -4.74447347e-02, -3.58768832e-03,
          -2.36961935e-02, 1.60258764e-03, 3.46769067e-03,
          3.11675295e-03, 3.26865949e-02, 1.08967759e-02,
          -2.95925979e-03, 0., -5.19305002e-04, 0., 5.26359864e-03,
          3.10320104e-03, 1.94739318e-03, 1.13704230e-03,
          -1.25448289e-03, -1.03515782e-03, -4.31315748e-05,
          1.78257455e-04, 0., 1.68961869e-03, 4.47703199e-03,
          1.46207085e-03, 0., -2.51478772e-03, 0., 2.88606435e-03,
          3.71609908e-03, -5.16004814e-03, 5.13703795e-03,
          -2.50319997e-03, 7.81526510e-03, -1.24086710e-02,
          3.49856145e-03, -4.72392282e-03, -2.24456470e-03,
          3.42178717e-03, 1.25509989e-03, -2.11027521e-03,
          -1.34718849e-03, -4.08872636e-03, 1.13368314e-03,
          -2.23215781e-02, -1.01191010e-02, 4.03397856e-03,
          1.52268214e-02, 5.39626414e-03, -1.44527275e-02,
          -9.62881558e-03, -1.28100775e-02, -6.85253134e-03,
          5.59599791e-03, 8.89285095e-03, -1.99425705e-02,
          -4.77374010e-02, -2.76963365e-05, -7.82687590e-03,
          -4.62420620e-02, -1.99335767e-03, -1.93121692e-03,
          -3.25644476e-04, 1.45657044e-02, 2.82697123e-03,
          -2.91699125e-03, -1.59586826e-03, -5.91075188e-03,
          -3.96896806e-03, -7.41030788e-04, -1.97878317e-03,
          1.70918298e-03, 1.30322145e-03, -3.38777597e-03,
          -1.42334204e-03, -6.40719663e-03, -2.08347198e-03, 0.,
          6.80893019e-04, 1.36474636e-03, 9.31242597e-04, 7.71378400e-04,
          -3.10313585e-03, 0., -3.59651702e-03, 7.01739592e-03,
          8.14436655e-03, 1.40963169e-03, -3.10251093e-03,
          -9.51883849e-04, -7.21805322e-04, 5.52269956e-03,
          -5.88240428e-03, -5.47434948e-03, -1.37784064e-03,
          1.06069315e-02, 7.92035554e-03, 6.09971932e-04, 3.68387485e-03,
          1.31037002e-02, -1.45130325e-02, 2.69204425e-03,
          3.34631513e-05, 2.08023936e-03, -5.59074990e-03,
          -5.13799209e-03, -8.63167457e-03, 2.47564516e-03,
          -8.93376768e-03, -2.39230506e-02, 4.18592623e-04,
          -5.06184343e-03, -9.85685969e-04, 1.30901358e-03,
          -6.11475203e-03, -1.31991254e-02, -4.10248945e-03,
          -1.25173980e-03, -1.53714744e-03, 8.76927865e-04,
          -2.51423498e-03, -1.36770669e-03, -1.59586826e-03,
          6.51706802e-03, -3.00275814e-03, -4.93844179e-03,
          1.14837952e-03, 4.76465793e-03, 5.10862854e-04, 7.12041568e-04,
          -4.39942069e-03, -4.90689464e-03, -2.61602085e-03, 0.,
          9.17982776e-03, 1.84883678e-03, -1.96430413e-03,
          1.36474636e-03, 5.75009547e-03, 1.54275680e-03, 1.20641124e-02,
          6.23042788e-03, 5.15909123e-05, -1.09347980e-03,
          2.03480907e-02, -8.61398410e-04, -1.03773521e-02,
          2.26691249e-03, -6.25059614e-03, -3.96693032e-03,
          -2.99927616e-03, 9.77914501e-03, 6.35686982e-03,
          -1.33215915e-04, 5.90774231e-03, 1.48342000e-02,
          -1.60433725e-02, 1.17061418e-02, 3.50684226e-02,
          -8.15386698e-03, -1.00675896e-02, -1.04206230e-03,
          3.98800597e-02, 2.28167605e-03, -2.57067324e-04,
          5.37872729e-05, 2.55818069e-02, -2.13827156e-02,
          -3.57224382e-02, 2.05189474e-02, 2.10485570e-02,
          -7.96769857e-02, -8.72165058e-03, 2.25066833e-04,
          1.02178864e-02, -4.21475759e-03, -7.04532908e-03,
          -1.07462669e-03, 1.26980748e-02, -1.09054171e-03,
          -6.36702077e-03, -3.82667960e-04, -2.42442125e-03,
          5.22884633e-03, -3.01921018e-03, -1.68213143e-03,
          -2.24284199e-03, -1.75742642e-03, -3.99354892e-03, 0.,
          3.23758903e-03, 1.89877755e-03, 3.54499090e-03, 5.93368022e-04,
          -2.49900366e-03, 8.30715173e-04, 5.93901007e-03,
          3.15185825e-05, -8.13535135e-03, 3.17356258e-04,
          1.95000563e-02, 1.30026566e-03, -5.79960737e-03,
          2.33531740e-04, -5.22936830e-07, 2.94829253e-03,
          8.24954454e-03, 7.59120192e-03, -1.85258815e-03,
          5.75665757e-03, -1.57646020e-03, 6.42169733e-04,
          -1.39133828e-02, 1.86621316e-03, 2.54460946e-02,
          1.98415291e-04, -5.72335534e-03, 9.39087756e-03,
          2.34886277e-02, -5.65023674e-03, -9.67088272e-04,
          4.08844696e-03, 1.89192928e-02, -3.83649170e-02,
          -2.51794010e-02, -6.35096151e-03, 3.32059368e-04,
          -7.64469877e-02, -7.97849987e-03, 4.99732886e-03,
          1.08705908e-02, -6.18392741e-03, -5.34831546e-03,
          -6.94418373e-03, 4.99026943e-03, -4.25945874e-03,
          -2.76042079e-03, 1.12160714e-03, -1.97086041e-03,
          6.79477118e-04, -4.10289085e-03, -1.68213143e-03,
          -2.24284199e-03, -3.45052598e-04, 4.02911054e-03,
          1.30540959e-03, -4.39368980e-03, 5.34031191e-04,
          6.05235342e-03, 0., -8.79884139e-03, 2.37347194e-04,
          6.68387103e-04, 9.63806990e-04, 1.28781842e-03, 1.44153018e-04,
          5.26918757e-06, 6.25717454e-04, 5.10783261e-03, 1.29955646e-03,
          3.13905836e-03, 2.89656711e-03, 1.54827302e-03, 3.58168245e-03,
          2.22756388e-03, 2.97518360e-04, -1.22983544e-03,
          1.19206612e-03, 9.32968687e-04, 1.32130680e-03, 1.28939049e-03,
          -1.29455701e-04, 2.49263970e-03, -5.23438444e-03,
          -6.54543238e-03, 0., 1.36474636e-03, 3.14454245e-03,
          -2.20708665e-04, -4.22091642e-03, 1.27324613e-03,
          -4.65594232e-02, -1.51484215e-03, -2.47445796e-03,
          -3.23363289e-04, 1.21883850e-03, 9.60048987e-04,
          2.13813109e-05, 0., -3.66494874e-04, 7.12041568e-04,
          -1.61959164e-04, 1.62052282e-04, 6.79477118e-04,
          2.52455613e-03, 4.20687662e-04, -2.48222321e-04,
          5.50236437e-04, 0., 0., 2.42701685e-03, 0., -1.01974190e-04,
          0., 9.65841115e-04, -3.45052598e-04, -2.57094810e-03,
          6.48208952e-05, 2.17079534e-04, 5.62433386e-03, 4.98204529e-02,
          1.90820580e-03, 7.67102512e-03, 8.40955973e-03, 3.27805318e-02,
          7.69761112e-03, 7.91865960e-03, -1.15484849e-03,
          1.55551760e-02, 2.13724617e-02, 6.13337941e-03, 2.52973218e-03,
          1.23366639e-02, 7.54708191e-03, 7.68121937e-03, 2.15719803e-03,
          5.72409341e-03, 6.94742799e-03, 2.64903698e-02, 3.87359131e-03,
          1.60764228e-03, 2.96160299e-03, -1.29394728e-04,
          3.51177831e-03, 2.30360008e-03, 1.07492274e-02, 2.31413525e-02,
          1.65589377e-02, 1.29592372e-03, 4.50959662e-03,
          -1.83956494e-04, 5.24881203e-03, 3.43035115e-03,
          1.04116080e-02, 2.19546165e-02, 8.67650751e-03, 5.64272748e-03,
          2.70829769e-03, 0., 1.19222002e-03, 1.89069957e-02,
          9.48316604e-03, -1.15261377e-04, 6.58188888e-04,
          1.08586345e-02, -5.17578912e-04, 1.65154343e-03,
          -2.15657870e-04, 2.59895176e-02, 2.36767996e-03,
          8.81499331e-03, 5.71925717e-04, 1.32914428e-02, 1.14360452e-03,
          1.01695182e-02, 7.05232087e-05, 3.65904160e-02, 3.44628072e-03,
          -4.64095094e-04, 1.05941454e-02, 2.73557496e-03,
          9.58760642e-03, 6.55644480e-03, -1.95589056e-03,
          1.83490291e-02, 4.92449244e-03, 1.76611710e-02, 1.27279265e-02,
          1.68862916e-03, 1.31302206e-02, 4.74694418e-03, 1.30863516e-02,
          2.03439756e-03, 1.36065483e-02, 1.63803156e-02,
          -5.56397298e-03, 4.72580874e-03, 1.51593182e-02,
          7.58038787e-03, 7.03464728e-03, 1.19231315e-03,
          -3.45171578e-02, -3.64281796e-02, -1.67161115e-02,
          6.50431029e-03, -4.31317836e-02, 0., 3.93816503e-03,
          3.57666053e-03, 1.86910927e-02, 2.31004432e-02,
          -2.34835618e-03, -4.27392032e-03, -5.63057046e-03, 0.,
          2.31413520e-03, 6.36672555e-03, 3.54948686e-03,
          -1.38277630e-03, -8.23167094e-04, -1.27001340e-03,
          -9.48894653e-04, -1.28821610e-03, -2.15657870e-04,
          -8.79240106e-04, 1.77431188e-03, 7.62326736e-03,
          1.83944078e-03, -3.90773348e-04, 3.26352403e-03,
          5.38104400e-03, -4.33111796e-03, 2.57025496e-03,
          3.84472380e-03, -6.39228430e-03, 8.11059773e-03,
          -1.11531457e-02, 3.99513124e-03, -3.10848677e-03,
          -4.23262222e-03, 1.18499268e-02, 2.03522993e-03,
          1.07891317e-02, 7.87977688e-03, -5.67291724e-03,
          -4.10235516e-04, -7.03478511e-03, 3.40133882e-03,
          4.54859668e-03, 1.63980629e-02, 1.36995688e-03,
          -7.79167050e-03, -5.50315389e-03, -2.02997262e-03,
          -2.39545689e-03, -4.81813401e-03, -1.51567301e-03,
          -2.92845257e-03, -8.74447450e-02, -5.35163702e-03,
          1.01430714e-03, -5.09350896e-02, -4.01123660e-03,
          -8.58817343e-03, 1.99502194e-03, 1.86389638e-03,
          2.70451396e-03, -1.30111659e-02, -1.59586826e-03,
          -8.74775369e-03, -6.72852574e-03, -1.07156998e-03,
          -3.11493478e-03, 1.13602309e-03, 4.51525993e-04,
          -5.11303870e-03, -4.48568398e-03, -1.41268857e-02,
          -1.56470574e-02, 8.90052004e-04, -4.85249147e-05,
          1.30540959e-03, 2.18366575e-03, 1.00872561e-03,
          -1.27506442e-03, -7.05569226e-04, -7.00462051e-03,
          5.06316498e-03, 8.85912403e-03, -5.50744263e-03,
          -4.30634059e-03, -3.87198292e-03, 4.74916073e-04,
          8.94676428e-04, -5.81693510e-03, 2.14793021e-03,
          5.04655857e-03, 1.07016033e-02, 7.24830618e-03,
          -1.32955634e-03, 6.77441433e-03, 5.58833079e-03,
          -2.56031333e-03, 7.40633160e-03, -2.86973384e-03,
          5.79972425e-03, -2.73864088e-03, -1.64084684e-03,
          -9.36408876e-04, -1.54347857e-03, -3.67079265e-05,
          -2.32856609e-02, -1.13651808e-02, -1.96706932e-02,
          -2.81264936e-03, 1.47183577e-03, -1.26531366e-02,
          -1.76250620e-03, -4.27002599e-03, -5.89143578e-03,
          -2.09921738e-03, -3.90913943e-03, -6.44768262e-03,
          -2.97456223e-04, -1.92151277e-03, 5.10897487e-03,
          -1.15495585e-02, -4.38345922e-03, -2.11283239e-03,
          1.01320483e-02, 7.87982368e-04, 7.12041568e-04,
          -6.77338382e-03, -9.91055742e-03, -1.61223691e-02, 0.,
          7.29393028e-03, 1.20192417e-03, -4.54092212e-03, 0.,
          6.36223005e-03, 8.90052004e-04, 5.08147618e-03, 6.11036923e-03,
          1.59166325e-02, 1.88001886e-03, 2.54809465e-02, 1.07542751e-03,
          1.77947581e-02, -4.05014493e-03, -1.47913443e-03,
          8.38584546e-03, 5.88303898e-03, 8.70670658e-03, 5.91474026e-03,
          5.92610426e-03, 1.02608986e-02, 9.96606331e-03,
          -8.21530912e-03, 1.30336694e-02, 2.79029701e-02,
          -3.71882482e-03, 5.52137801e-03, 3.98634886e-03,
          5.89095242e-03, -9.69713510e-05, -4.04636096e-03,
          -3.21121275e-04, 2.14258377e-02, -1.15024997e-02,
          -5.03317639e-03, -5.60796773e-03, -8.87163822e-03,
          -5.94815239e-02, -9.33219213e-03, 2.37193168e-03,
          7.13237282e-03, -4.45398269e-03, -2.40200153e-03,
          3.07753333e-03, 2.38240603e-03, -2.98466836e-03,
          -1.45924920e-02, 2.27309734e-04, -1.05607067e-03,
          9.11642518e-03, -6.37549534e-03, -4.87386761e-03,
          5.32293553e-03, -1.15484849e-03, 2.40046275e-03,
          1.24607282e-03, 1.34056211e-02, 1.89877755e-03, 2.24457122e-03,
          0., 9.02052131e-03, 8.90052004e-04, 1.87820173e-03,
          -9.28498281e-04, 2.00304594e-02, 2.05442170e-03,
          2.61944868e-02, 1.91033294e-03, 1.66252442e-02,
          -2.38273968e-03, 8.19130975e-04, 6.98824297e-04,
          7.89959542e-03, 7.11102271e-03, -2.39145523e-03,
          -1.03268679e-03, -1.54389569e-03, 3.94502567e-04,
          -1.14025874e-02, -2.71621579e-03, 2.30129790e-02,
          3.24603426e-03, 2.00430937e-02, 1.94062560e-03,
          -6.31292118e-03, -4.42086300e-03, 4.35925974e-03,
          6.79477118e-04, 2.17290707e-02, -3.59938666e-03,
          4.90173372e-03, -4.02574688e-02, -7.24610453e-03,
          -5.54606132e-02, -7.96168577e-03, 3.88668547e-03,
          7.13237282e-03, -4.38885344e-03, 7.34225032e-04,
          -1.02221302e-03, -1.76839461e-03, -4.35090065e-03,
          -5.38088009e-03, 2.84816627e-03, -2.71531288e-03,
          -2.58789456e-04, -5.30518359e-03, 0., 4.48316475e-03,
          -5.83485635e-05, 4.67673223e-03, 1.13288325e-03,
          1.78583513e-03, 1.88978593e-04, 2.11468269e-03,
          -3.88184184e-04, -2.87361024e-03, -3.66494874e-04,
          -2.52883346e-03, 1.91873478e-04, 7.53592321e-05,
          -1.88885524e-03, -1.81099982e-03, -1.32124242e-03,
          3.39353806e-03, -6.37083373e-04, 2.21644179e-03,
          1.16483180e-03, 1.19724218e-03, 2.45952024e-03, 1.78597693e-04,
          -2.26379000e-03, -5.60710498e-04, -4.30385007e-05,
          1.91516906e-03, -1.07366836e-03, 3.17689171e-03,
          1.94462671e-04, 2.28819717e-03, -6.59380062e-03,
          -3.91874788e-03, 3.82793136e-04, 1.00872561e-03,
          -2.04750657e-04, 1.72218308e-04, 6.90599321e-04,
          1.54275680e-03, -7.64448643e-02, -1.93543686e-03,
          6.85609470e-04, -3.25644469e-05, -1.24539249e-03,
          9.49388777e-04, 4.09565488e-04, 0., -4.63232020e-04,
          4.15357586e-04, 5.34031191e-04, -7.56960217e-05,
          7.12041568e-04, 1.24607282e-03, 0., -8.19499895e-04,
          -5.36055777e-05, -1.03515782e-03, -6.09079085e-04,
          -4.74447326e-04, -2.15657870e-04, 1.13313040e-03,
          -8.19499895e-04, -1.65471097e-03, -7.33236782e-04,
          1.17102475e-03, -5.39021159e-04, 1.84588449e-03,
          6.20214455e-03, 2.93007325e-02, 1.69324018e-02, 8.04873556e-03,
          4.81170369e-03, 1.93002038e-02, 9.37524717e-03, 1.43812876e-02,
          7.76740722e-04, 1.45373624e-02, 2.21760049e-02, 1.09665859e-02,
          1.61340192e-03, 2.10272577e-02, 9.69392806e-03, 1.64630655e-02,
          2.37882640e-02, 7.16961874e-03, 1.59694965e-03, 1.54385371e-02,
          1.44031309e-02, -3.77530744e-03, 2.53028725e-03,
          1.65116824e-02, 1.83962681e-03, 5.15731191e-03, 2.78638443e-03,
          1.37661379e-02, 2.71866955e-02, 2.05925055e-04, 4.23968490e-03,
          6.19779946e-03, 2.40853485e-02, 7.76732853e-03, 1.95860839e-03,
          1.68516506e-02, 9.53439716e-03, 4.68785409e-03,
          -1.02459069e-03, 0., -3.01921042e-04, 1.15706762e-02,
          3.26352403e-03, -4.00456367e-03, 0., 1.08586345e-02,
          -5.17578912e-04, 2.85922759e-03, -2.15657870e-04,
          1.79790501e-02, 3.58698028e-03, 9.72199161e-03,
          -2.58789456e-04, 2.61081918e-03, 8.95382138e-04,
          7.93674868e-03, 2.73913611e-03, 3.56125236e-02, 9.57931951e-03,
          7.53155677e-03, 9.47691221e-03, 2.41605844e-02, 1.19752511e-02,
          1.26013374e-02, -9.10907052e-04, 1.31233269e-02,
          1.43595058e-02, 1.42089147e-02, 8.01179651e-03, 1.50176939e-02,
          1.82640273e-02, 1.39057916e-02, 1.73531175e-02, 4.81660943e-04,
          5.94153395e-03, 2.23497674e-02, 1.11772548e-02, 7.82802142e-03,
          1.14308074e-02, 9.63933393e-03, 2.84943404e-03, 2.31946539e-03,
          -1.39558166e-02, -4.54877550e-03, 1.20156454e-02,
          4.99575399e-03, -5.51098539e-03, 1.66143035e-03,
          9.14359838e-03, 4.09423932e-03, 7.77312089e-03, 1.47676002e-02,
          1.59210823e-02, 9.14167985e-03, -7.45380623e-03, 0.,
          -1.94523614e-04, 5.22712246e-03, 1.60209357e-03,
          -3.51914833e-03, 5.60803572e-04, -1.30257790e-03,
          5.93862147e-04, -1.55273674e-03, -2.48222321e-04,
          1.87990442e-02, 1.24028069e-03, 5.80027886e-03, 0.,
          1.13981497e-02, 1.82308152e-03, 2.64601205e-02,
          -1.95820420e-03, 1.30025251e-02, 3.12405941e-03,
          9.49022919e-03, 6.91067567e-03, 3.16117331e-02, 3.20650381e-03,
          2.20717094e-03, -4.34329209e-04, 6.94308849e-03,
          2.43216404e-03, 1.25210891e-02, -1.86468603e-03,
          1.24953613e-02, 4.75485018e-03, -4.86083003e-03,
          1.06212869e-02, 3.10880272e-03, 1.06217200e-02, 4.78238380e-03,
          2.39635911e-03, 3.04724351e-02, -6.53682975e-03,
          2.17649015e-03, 2.86883563e-02, 1.12739915e-03,
          -1.45851467e-02, -8.35370347e-02, 3.73761356e-02,
          1.12146549e-02, -3.93783078e-02, -1.44059462e-02,
          5.12588944e-04, 3.11730593e-03, -4.81700199e-03,
          -5.30075375e-03, -3.18943453e-03, 1.50508462e-02,
          -7.01003987e-03, 2.37347209e-03, -2.00555567e-03,
          -7.53666507e-04, 3.45015828e-03, -2.65866378e-03,
          3.03002424e-04, -3.32612125e-03, -6.46973634e-03,
          -6.57921936e-03, 2.86209921e-04, 2.39795279e-02,
          1.27284520e-03, 4.53874655e-03, -1.98405236e-03,
          1.39913347e-03, -4.31315748e-05, 3.45401540e-02,
          2.13572686e-03, -1.39345077e-03, -8.11643619e-03,
          2.08099689e-02, 1.00841215e-02, -4.44200728e-03,
          3.56172258e-03, 1.30002212e-03, 6.03313511e-03, 5.92216011e-03,
          -2.89228163e-03, -3.10022989e-03, -8.71860515e-03,
          8.64567794e-03, -3.93771939e-03, -7.48753920e-03,
          3.51757044e-03, 1.59038103e-03, 1.31837849e-03,
          -4.67490917e-03, -7.56547647e-03, 2.88759116e-02,
          -1.16508929e-02, -9.91517585e-03, 7.20037296e-02,
          -2.96336482e-03, -1.78315714e-02, -4.62394468e-02,
          5.18983342e-02, 7.89487455e-03, -3.13758962e-02,
          -9.35955159e-03, 3.63177247e-03, -9.76933399e-04,
          -3.10574891e-04, -1.44402375e-02, 5.19177737e-03,
          7.18646776e-03, -5.59287518e-03, -2.31816573e-03,
          1.31711899e-03, -1.55048887e-03, 3.36765288e-03,
          3.67513014e-04, 1.41249900e-03, 7.06592808e-04,
          -9.00565833e-03, -6.59992080e-03, 0., -3.79557861e-03,
          1.30540959e-03, -3.59181468e-05, -1.98405236e-03,
          -5.01826080e-03, 2.49214564e-03, 1.38636157e-02,
          5.95968263e-03, 9.03337356e-03, 3.85467522e-03, 3.47267538e-02,
          1.33179072e-02, 8.11053498e-04, 4.86650795e-04, 6.53983047e-03,
          1.77850816e-02, 8.71826056e-03, 1.23693389e-04, 7.32951192e-03,
          4.44675237e-03, 6.89101825e-03, -5.42884739e-03,
          -3.01046763e-02, 1.05213514e-03, 5.85838500e-03,
          8.26004334e-03, 1.02962018e-03, 3.74591281e-03, 2.65296139e-02,
          -4.36957972e-03, -5.47154583e-02, 8.14672410e-02,
          1.05026131e-02, -3.29123315e-04, -1.50373625e-02,
          3.19665484e-02, -1.91359352e-02, -4.58963402e-02,
          -1.42882178e-02, 6.11876976e-03, 0., 2.99373758e-03,
          -1.16455252e-03, 5.56743192e-03, 9.56215896e-03,
          -4.96229948e-03, -4.85445978e-03, 5.22163836e-03,
          2.29050475e-03, 3.24208173e-03, 6.64572138e-03,
          -1.21766399e-03, 3.96758551e-03, -2.08412460e-03,
          2.66199303e-03, 1.24607282e-03, 3.19969142e-03,
          -1.72526299e-04, 1.66143035e-03, 0., 5.30774752e-03, 0.,
          5.53065119e-03, -1.51133130e-03, 1.73528702e-03,
          3.62506090e-03, 2.61738468e-02, 1.42990751e-03,
          -1.50694838e-03, 2.16228119e-03, 2.61568744e-03,
          1.90937682e-03, 2.29362026e-03, 1.75416609e-03, 2.07850728e-02,
          -2.61383294e-03, 2.38088309e-04, -4.58149036e-04,
          -1.32203056e-02, -1.84301718e-03, 3.24759819e-03,
          7.52529921e-03, -8.68905394e-04, 3.04885418e-03,
          1.70141980e-02, -2.81366426e-03, -1.50272036e-02,
          3.41079384e-02, 1.29621942e-02, 1.22586591e-03,
          -7.91926309e-03, 5.86688779e-02, 2.86165974e-03,
          -2.93968879e-02, -6.25431444e-03, -1.97327486e-03, 0.,
          -2.19971035e-03, 4.00140620e-04, 4.36523231e-03,
          -6.46973611e-04, -2.31207558e-03, -2.91353907e-04,
          2.10356037e-03, 5.12588944e-04, -4.74447326e-04,
          -8.19499895e-04, -8.62631481e-04, -1.03515782e-03,
          -1.79104449e-03, 4.20924602e-03, -1.72526299e-04,
          -1.76839461e-03, -5.17578912e-04, 8.97107273e-03,
          1.72076724e-03, 2.01794528e-03, 0., 3.25490464e-03,
          -1.46927766e-03, -3.19216633e-03, 3.77466495e-04,
          1.40212048e-02, 2.33015744e-03, -3.49951047e-03,
          1.50976249e-03, 8.19532084e-04, -1.08414236e-03,
          -9.70452093e-05, -1.97280501e-03, 2.28255894e-03,
          1.47082392e-04, 4.31902969e-04, 3.50321789e-04,
          -1.28338009e-03, -1.46185246e-03, 3.15603660e-03,
          -2.74901628e-04, -3.28507333e-04, 4.67747310e-03,
          7.93092418e-03, -8.73352576e-04, 0., 2.43665549e-04,
          1.90410775e-03, -8.62631481e-04, 0., 5.93926311e-02,
          4.73671686e-03, -6.99648444e-05, -4.74447326e-04,
          -1.06772222e-03, 7.98150722e-04, -4.31315741e-04,
          -6.90105197e-04, 3.15132271e-03, 0., -5.92437391e-05,
          -6.36406534e-04, -6.51288938e-05, -6.51288938e-05,
          3.61504906e-04, -4.63479111e-04, -8.62631481e-04,
          -1.03515782e-03, 2.96684011e-04, 1.06979208e-03,
          -2.15657870e-04, -1.50960509e-03, -8.19499895e-04,
          7.87731912e-03, 1.33806712e-03, 1.12152738e-05,
          -1.67042206e-04, 3.82011081e-03, 9.17437579e-03,
          1.21958386e-02, 1.30593656e-02, 3.81512078e-03, 1.18132923e-02,
          2.67013460e-02, 4.25546011e-03, 1.06967688e-02, 6.85617467e-03,
          1.58000402e-02, 1.49582038e-02, 7.96209928e-03, 1.33307721e-03,
          6.56543672e-03, 5.20013506e-03, 1.40031772e-02, 2.16526948e-02,
          5.12564229e-03, 1.09523581e-03, 1.17486864e-02, 4.40213829e-03,
          -1.75169518e-03, -5.37596607e-05, 4.07318175e-02,
          -1.62843277e-03, 5.22712246e-03, 2.25479831e-03,
          4.17785905e-02, -9.64605657e-04, 3.02118668e-03,
          2.57825479e-03, 8.57127085e-03, 1.40302572e-02, 3.70057067e-03,
          0., 1.19266966e-02, 4.71478049e-03, 1.45125657e-03,
          -2.05090750e-04, 0., 0., 4.39092331e-03, 7.12041568e-04,
          1.77486683e-03, 1.48342003e-03, 5.34031191e-04,
          -2.15657870e-04, -1.84409064e-03, 2.10904446e-03,
          1.67597495e-02, 1.80687639e-03, 6.87278109e-03,
          -3.25644469e-05, 1.44781787e-02, -2.15657870e-04,
          5.62640000e-03, 6.34725066e-03, 3.94584499e-02, 1.00805396e-02,
          1.79590303e-02, 9.21233185e-03, 5.84297702e-02, 7.77213648e-03,
          1.09824836e-02, 9.60187241e-03, 4.14951332e-03, 1.72776692e-02,
          1.54263503e-03, 9.06898361e-03, 1.13064954e-02, 1.26762632e-02,
          3.70142721e-02, 1.59400012e-02, 1.20855053e-03,
          -4.96444642e-04, 2.78893765e-02, 8.17276724e-03,
          -1.12671882e-03, 1.01196049e-02, 2.45958124e-03,
          -1.82295637e-03, 2.96104793e-03, -4.56630513e-02,
          1.00872561e-03, -3.83871002e-03, 1.08999887e-03,
          3.96977365e-03, 6.17102720e-03, 1.22827170e-02,
          -2.58789444e-03, -2.84668407e-03, 2.97553581e-03,
          5.74504165e-03, 2.91446981e-04, 1.29453454e-03, 2.13612476e-03,
          7.37381401e-03, 6.52704795e-04, 6.25778397e-04, 2.65261711e-04,
          6.31355681e-04, 5.60443150e-03, 1.54275680e-03, 2.73506995e-03,
          2.49214564e-03, 2.77263373e-02, 0., 9.91506968e-03,
          -3.25644469e-05, 1.69432443e-02, 1.86113000e-03,
          1.48723414e-02, 9.22401552e-04, 7.52287731e-02, 1.08965933e-02,
          6.56691892e-03, 1.59450248e-02, 1.14816643e-01, 1.12316944e-02,
          -3.87561624e-03, -1.14113360e-03, -5.51027432e-03,
          2.72903079e-03, 8.91774613e-03, 3.96414753e-03, 1.38691925e-02,
          2.12121122e-02, 2.61510592e-02, -7.22758239e-03,
          -2.91353907e-04, 5.97745238e-04, 3.68912593e-02,
          6.47972245e-03, 5.10937674e-03, 2.56368611e-03,
          -5.37504349e-03, 2.24313792e-02, -2.70672212e-03,
          -3.96995544e-02, -5.81992194e-02, 1.02447411e-02,
          1.42408314e-03, -2.79386919e-02, -6.24088617e-03,
          4.43776045e-03, -5.04639419e-03, 3.85039416e-03,
          2.03430708e-02, 6.82973117e-03, 7.06528604e-04,
          -3.25644469e-05, -4.31192201e-03, 1.04700485e-02, 0.,
          5.51832234e-03, -2.61593307e-03, 6.23375410e-04,
          8.42582528e-03, 6.88306894e-03, 2.98927049e-03, 2.49214564e-03,
          4.39877398e-02, 1.60209357e-03, 2.92836176e-03,
          -3.25644469e-05, 2.18370240e-02, -4.31315748e-05,
          4.34722789e-02, 7.49875268e-04, 3.24524902e-02, 8.36298056e-03,
          1.80778578e-02, 2.82343365e-02, 3.75144705e-02, 2.05909498e-02,
          -1.04538479e-03, 9.17749107e-03, -6.67916890e-03,
          1.80253468e-03, 7.72050349e-03, 3.41973500e-03, 1.17978901e-02,
          3.11731398e-02, -9.67348646e-03, -4.90643224e-03,
          1.19844545e-03, 6.95438590e-04, 1.44291706e-02,
          -4.42719134e-03, 2.13873945e-03, -7.68497633e-03,
          7.88336899e-03, 7.38807917e-02, -1.48742169e-03,
          -5.51379845e-03, -1.00436278e-01, 4.98563014e-02,
          -4.46180347e-03, -5.32802418e-02, -5.36612375e-03,
          3.02988314e-03, -3.19173653e-03, 8.12837481e-03,
          8.92970338e-03, 2.64879018e-02, -6.61178143e-04,
          2.19539832e-03, -1.60910853e-03, 1.28414286e-02,
          4.19295253e-03, 5.75566944e-03, -9.76933399e-04,
          -3.91785847e-03, 1.11126807e-02, 6.71054283e-03,
          8.61505140e-03, 0., 2.01216470e-02, 2.90750316e-03,
          -1.39250362e-03, 0., 2.75115343e-03, 9.84990876e-03,
          3.79254892e-02, 6.74249092e-03, 2.01637931e-02, 5.19887079e-03,
          5.86725101e-02, 1.90078299e-02, 2.68164016e-02, 2.07461286e-02,
          3.23286955e-03, 7.61803472e-03, 2.78882962e-03,
          -8.20083776e-04, 1.33501636e-02, 2.46409159e-02,
          1.38153406e-02, 6.87259482e-03, -1.18715521e-02,
          -3.26881860e-03, 2.76363268e-03, 1.37072464e-03,
          1.38657624e-02, 9.72299604e-04, 1.41467089e-02,
          -2.12900643e-03, -5.74873947e-02, 9.01545361e-02,
          9.11642518e-03, 1.21173374e-02, -5.09988368e-02,
          6.68436438e-02, -2.22313567e-03, -4.14574668e-02,
          -1.16461171e-02, 3.45755834e-03, -8.62631481e-04,
          4.11515869e-03, 6.72024675e-03, 1.62480567e-02, 4.39092331e-03,
          -8.84197280e-03, 2.70281360e-03, 1.77659630e-03,
          2.33606948e-03, 6.45175064e-03, 7.76862493e-04, 4.03490243e-03,
          2.45890417e-03, 4.21839720e-03, 1.22886952e-02, 2.01745122e-03,
          -1.65992370e-03, -1.72526299e-04, -3.45052598e-04,
          -1.30257788e-04, 2.95525580e-03, 7.35776313e-03,
          3.10490746e-02, 7.77229015e-03, -2.42503663e-03,
          6.86119683e-03, 4.75342907e-02, 1.51239503e-02, 2.54369783e-03,
          1.17043834e-02, 1.26240321e-03, 3.89605644e-04, 4.66111396e-03,
          -2.86753871e-03, 2.45069321e-02, 1.88154969e-02,
          1.13934064e-02, 9.20247287e-03, -6.72667008e-03,
          3.07931361e-04, 3.43180145e-03, 2.68171146e-03, 1.13683629e-04,
          3.43130715e-03, 1.15552116e-02, 3.52878589e-03,
          -5.17019629e-02, 7.56221041e-02, 1.76012795e-02,
          -3.27799958e-03, -6.40941132e-03, 1.11148797e-01,
          8.01071525e-03, -1.24661420e-02, -8.01817921e-04,
          -2.44544121e-03, -1.29394728e-04, -1.38021039e-03,
          2.37347209e-03, 6.16751984e-03, 0., -2.45849974e-03,
          2.19546165e-03, -2.91353907e-04, 3.83544993e-03,
          3.73821845e-03, 7.76862493e-04, 3.17227095e-03, 0.,
          4.21839720e-03, 2.59954967e-02, 0., -2.37223669e-03,
          -1.72526299e-04, 1.53739611e-02, 8.90052004e-04,
          -8.19499895e-04, 3.50087113e-03, 5.46227321e-02,
          7.19978008e-03, -4.72506508e-03, 4.86417022e-03,
          4.24963348e-02, 1.19959237e-02, -2.24342593e-03,
          1.11219836e-02, 1.08953670e-03, 2.63762358e-03, 7.10448995e-03,
          -1.53116928e-03, 3.78236291e-04, 1.18895434e-02,
          1.02384333e-02, 5.97681035e-04, 2.18991656e-03, 2.91232020e-04,
          6.71097543e-03, -9.70891968e-04, 2.85901886e-04,
          8.47493578e-03, 9.87308007e-03, -1.33707887e-03,
          1.24607282e-03, 8.20412934e-02, 2.53521628e-03,
          -1.68213143e-03, -2.37223669e-03, 9.81662348e-02,
          4.07877518e-03, -5.39576227e-04, -2.15657870e-04,
          -1.93968546e-04, -2.48222321e-04, -1.29394722e-03, 0.,
          6.26974087e-03, 3.65269650e-03, -5.93274948e-04,
          1.42966048e-03, -3.23918328e-04, -2.68332515e-05,
          -8.95195932e-04, 5.52380644e-03, -8.62631481e-04, 0., 0.,
          2.54831538e-02, -3.25644469e-05, -2.24284199e-03, 0.,
          2.27855779e-02, 1.33806712e-03, -8.19499895e-04,
          1.78010392e-04, 3.85218137e-03, 8.52151681e-03, 2.10910290e-02,
          8.20908975e-03, 1.03684478e-02, 1.26274945e-02, 3.69285643e-02,
          4.38500941e-03, 1.11552579e-02, 4.98980749e-03, 1.05792843e-03,
          1.51681621e-02, 1.13874283e-02, 8.22113641e-03, 5.84791135e-03,
          9.34339035e-03, 5.95521554e-03, 5.01608569e-03, 2.42880685e-03,
          3.91083770e-03, 2.74136011e-02, 8.47167452e-04, 2.87044299e-04,
          8.25478113e-04, 6.44290447e-02, -1.83215292e-04,
          1.05210429e-03, 9.87668056e-03, 5.78588657e-02,
          -1.11085386e-03, 3.89487995e-03, 3.84617085e-03,
          4.12101112e-03, 1.92595099e-03, 1.02517789e-03,
          -2.48222321e-04, 1.45642878e-02, 2.09872448e-03,
          4.61754948e-03, -5.93274948e-04, 4.23968490e-03, 0.,
          1.21899240e-03, -8.52064346e-04, 8.15591402e-03,
          1.48342003e-03, 3.21515533e-03, 3.14509729e-03, 2.20667687e-03,
          1.93651812e-03, 1.52437650e-02, -1.72526299e-04,
          1.56815222e-04, -3.25644469e-05, 2.89993361e-02,
          -1.72526299e-04, 9.51449946e-03, 5.72578516e-03,
          2.71048713e-02, 8.17064010e-03, 1.68356653e-02, 1.31774833e-02,
          3.51862945e-02, 2.15321008e-04, 1.67325158e-02, 8.17175023e-03,
          2.08215020e-03, 1.05290171e-02, 2.06061476e-03, 5.34034381e-03,
          2.61584134e-03, 3.93884536e-03, 2.24615671e-02, 1.26000131e-02,
          3.44175287e-03, 2.99549592e-03, 1.73263457e-02, 4.91023157e-03,
          3.11287330e-03, -2.94856494e-03, 3.02617671e-03,
          2.33027944e-03, 1.20263326e-03, -6.29713610e-02,
          7.24457391e-03, 3.29094427e-03, 2.54723383e-03,
          -1.83463842e-02, 1.78010401e-03, 7.85414688e-03,
          -9.04928718e-04, -2.35864893e-04, -5.76906372e-03,
          1.92619814e-03, 4.32086550e-03, 2.64307554e-03, 7.83245731e-03,
          0., 3.34963319e-03, 3.34455003e-03, 8.35635513e-03,
          -1.81517855e-04, 5.11941733e-03, 0., 8.73896200e-03,
          2.31961929e-03, -8.29386816e-04, 5.98852115e-04,
          3.24257603e-03, 4.74694389e-04, -3.30497534e-03,
          2.07678787e-03, 1.20777199e-02, 3.12279211e-03, 6.83832020e-02,
          9.21297912e-03, 4.44416003e-03, 1.27357552e-02, 6.57884926e-02,
          6.75401418e-03, 6.12497563e-03, 3.28638777e-03, 6.87296689e-03,
          9.54188779e-03, 2.97275698e-03, 6.78685773e-03, 5.41579304e-03,
          3.96031979e-03, 4.51139025e-02, 1.69757858e-03, 1.39161188e-03,
          6.15051202e-03, 3.16028297e-02, 9.12456028e-03,
          -3.50394542e-03, -7.96877407e-03, -8.15052539e-04,
          3.66933527e-03, -2.91181286e-03, -6.62744567e-02,
          -3.63692082e-02, -3.32113123e-03, -5.77963097e-03,
          -2.53147762e-02, 5.00256615e-03, 3.31036164e-03,
          -1.07082888e-03, 2.59492546e-03, 1.52279027e-02,
          9.65140760e-03, -3.05263768e-03, 2.84115179e-03,
          -4.54926956e-03, 0., 1.95811433e-03, 4.97930124e-03,
          3.76187454e-05, 8.19227367e-04, 7.65444711e-03, 6.88306894e-03,
          -1.63899979e-03, 3.38219758e-03, 1.01804854e-02,
          7.71378400e-04, 7.65063334e-04, 1.42408314e-03, 8.13082233e-03,
          -2.58789456e-04, 3.59795764e-02, 1.03343390e-02,
          4.79235239e-02, 1.64576136e-02, 1.54328374e-02, 2.44415235e-02,
          5.72223663e-02, 1.38954706e-02, 1.25579129e-04, 3.27646895e-03,
          -3.00428877e-03, 1.86621316e-03, 2.67015607e-03,
          2.35419255e-03, 5.59445191e-03, 1.82797387e-02, 2.70447284e-02,
          7.32597243e-03, -2.32910505e-03, 5.10656834e-03,
          3.27932239e-02, 7.46843126e-03, -6.90105197e-04,
          -5.14688622e-03, -1.38197802e-02, 4.27274359e-03,
          -2.84668407e-03, -3.20243277e-02, -5.50371669e-02,
          2.81204060e-02, -8.62631481e-04, -7.47661814e-02,
          4.84300591e-03, -2.14338698e-03, 7.17874864e-05,
          5.33014908e-03, 1.15927998e-02, 3.93198095e-02,
          -2.93080026e-04, 3.00436746e-03, 1.44374708e-03,
          1.36123900e-03, 1.26387384e-02, 1.18030338e-02,
          -1.62822238e-04, -8.80097563e-04, 1.03661017e-02,
          5.80477947e-03, 2.62178737e-03, 0., 2.07786933e-02,
          1.48342003e-03, 9.94082540e-03, 9.49388777e-04,
          -4.72216448e-03, 5.04362816e-03, 3.92580703e-02,
          1.46335158e-02, 5.04731573e-02, 1.67437904e-02, 4.48860414e-02,
          2.82538962e-02, 9.16585326e-02, 2.42144354e-02,
          -6.29750371e-04, 8.30863416e-03, 1.09234545e-02,
          1.15545634e-02, 2.72246869e-03, 2.18735281e-02, 1.04007320e-02,
          1.35883745e-02, 4.60813493e-02, 1.07659018e-02,
          -2.37223669e-03, -3.01921042e-04, 3.78611274e-02,
          4.09423932e-03, 4.81225923e-03, -2.65325792e-03,
          -3.49826738e-02, 2.38431673e-02, -3.45052598e-04,
          2.25609839e-02, -4.81983423e-02, 6.54163286e-02,
          -2.58789444e-03, -5.59288077e-02, -1.60674355e-03,
          1.52829569e-02, 2.26257136e-04, 1.04270584e-03, 1.26757696e-02,
          3.51991095e-02, 0., 3.44131957e-04, 1.03570139e-02,
          6.23036409e-03, 1.49391014e-02, 9.83034447e-03, 0.,
          3.94863915e-03, 9.24677402e-03, 1.01849809e-02, 3.85738583e-03,
          0., -2.09068137e-04, 4.56893351e-03, 4.51508118e-03,
          -4.31315748e-05, 2.99925054e-03, 1.03224153e-02,
          3.01275086e-02, 1.99460369e-02, 3.74262743e-02, 1.84805486e-02,
          5.15481532e-02, 2.54380796e-02, 5.88302538e-02, 3.17927860e-02,
          2.01554201e-03, 1.05406009e-02, 7.54658738e-03, 1.11611420e-02,
          6.03969116e-03, 2.34220773e-02, 1.64203346e-02, 1.79738458e-02,
          2.83779949e-02, 1.28786117e-02, -1.20768417e-03,
          -7.22669647e-04, 1.38947656e-02, -1.16455252e-03,
          7.31487852e-03, 1.02114137e-02, -6.23118468e-02,
          3.94216627e-02, 1.66136958e-03, -1.05357997e-03,
          -1.66618060e-02, 8.21495578e-02, -4.74447326e-04,
          5.72883617e-03, 2.40064552e-03, 1.59341805e-02,
          -3.45915643e-04, 5.19628171e-03, 1.46338837e-02,
          2.18495615e-02, -2.58789456e-04, -1.49106001e-03,
          2.22787214e-03, 0., 1.76230296e-02, -3.88184184e-04, 0.,
          3.94863915e-03, 9.50556342e-03, 1.12632699e-02, 2.08279584e-02,
          2.37895595e-03, 2.26499652e-03, 3.08551360e-03, 8.07578303e-03,
          0., 7.86486827e-03, 9.01700556e-03, 7.11514205e-02,
          2.29611248e-02, 1.39219686e-02, 1.89601108e-02, 5.27565181e-02,
          2.91882530e-02, 1.40193524e-02, 2.74618473e-02, 2.73953704e-03,
          1.73208937e-02, 1.50176333e-02, 4.62870393e-03,
          -1.13285112e-03, 2.33842768e-02, 1.96083169e-02,
          4.67627030e-03, 1.12146549e-02, 1.25939129e-02, 6.60875440e-03,
          -1.49903796e-03, 1.05087776e-02, 5.44875860e-03,
          1.28470862e-03, 4.69857547e-03, 3.35375150e-03, 7.13713840e-02,
          8.52436700e-04, 5.91273187e-03, 2.46047624e-03, 1.08603537e-01,
          -4.74447326e-04, -3.25644469e-05, 1.24607282e-03,
          6.74329326e-03, -9.38327517e-04, 4.69358545e-03,
          6.94788992e-03, 2.11077416e-03, 9.61098063e-04, 0.,
          -4.20748634e-04, -3.45052598e-04, -1.93035381e-03,
          4.69383271e-03, -1.72526299e-04, 0., 0., 0., 2.12380774e-02,
          2.24869815e-03, 2.55721365e-03, 0., 1.74245667e-02,
          1.16893491e-02, 1.55462418e-02, 4.15357575e-03, 1.21433754e-02,
          9.57297254e-03, 4.09467034e-02, 1.48324128e-02, 7.93668721e-03,
          2.39332486e-02, 4.49875556e-02, 1.88525282e-02, 1.15044080e-02,
          1.06094880e-02, 5.96541306e-03, 2.28273850e-02, 1.31821651e-02,
          9.66666173e-03, 4.32111230e-03, -5.60710498e-04,
          1.16300127e-02, 7.48718996e-03, -1.78199317e-02,
          6.75900420e-03, 3.56614180e-02, 1.94215635e-03,
          -2.01661675e-03, 1.57516717e-03, 7.84918666e-02,
          -7.87095204e-02, -1.16487676e-02, 1.06480597e-02,
          5.17416894e-02, -1.32651161e-03, -2.91353907e-04,
          1.06212869e-02, 1.43505144e-03, 8.87196045e-03,
          -4.46655136e-03, 9.86760482e-04, 2.85084359e-02,
          -2.58789456e-04, 0., 2.22811918e-03, 7.75152445e-03,
          9.01919324e-03, -1.72526299e-04, 9.59741010e-04, 0., 0.,
          2.68112402e-03, 3.61954467e-03, 2.49762973e-03, 2.88057700e-03,
          1.22233806e-02, -2.15657870e-04, 2.28197197e-03, 0.,
          2.17172690e-02, 2.37347209e-03, 1.80596467e-02, 9.43143852e-03,
          1.45644136e-02, 1.56414397e-02, 2.01045778e-02, 2.84446962e-02,
          3.86128239e-02, 9.33917426e-03, 8.28451850e-03, 1.43913003e-02,
          1.16160361e-03, 1.42859723e-02, 1.32914428e-02, 7.56803015e-03,
          8.15665442e-03, -4.74447326e-04, -2.06236076e-03,
          4.19320306e-03, -3.74291776e-05, -2.61259708e-03,
          9.49986558e-03, -7.46176252e-03, 6.21035462e-04,
          9.56448377e-04, 1.48516409e-02, -5.29599115e-02,
          -2.30344501e-03, -3.40500325e-02, 2.38533933e-02,
          7.82746729e-03, -2.58789456e-04, -8.98712594e-03,
          -2.31739576e-03, -4.64002788e-03, -6.81264210e-04,
          -1.41439855e-03, -5.19066583e-03, -2.58789456e-04,
          9.49388777e-04, -4.97510098e-03, 3.77359381e-03,
          9.01919324e-03, -4.28999076e-04, -1.49107364e-04,
          3.62502877e-03, 0., -5.17578912e-04, 0., 2.99450755e-03,
          4.30466002e-03, -8.42866284e-05, 5.98852115e-04,
          2.51956610e-03, 4.09423932e-03, -8.00878741e-03,
          4.92495438e-03, 1.61156431e-02, 1.48170702e-02, 2.92860400e-02,
          1.52323665e-02, 1.65760405e-02, 1.84010677e-02, 2.57202536e-02,
          1.27240196e-02, 2.55577546e-03, 1.18949991e-02, 1.15536517e-02,
          7.25644035e-03, 1.94627177e-02, 7.62287108e-03, 1.23047465e-02,
          2.71951267e-03, 4.51474130e-04, -7.98908761e-04,
          -1.26489811e-02, -1.93610368e-03, -2.81919865e-03,
          -3.04415985e-03, 1.74008557e-04, -4.99551126e-04,
          -3.14860488e-03, 1.50268304e-03, -4.04869812e-03,
          -7.04653785e-02, -3.06732636e-02, 6.57042628e-03,
          1.76963001e-03, -1.44075258e-02, -5.20835305e-03,
          -2.91975541e-03, -3.69212218e-03, -4.33398597e-03,
          1.77921692e-03, 2.52455613e-03, 0., 3.90397664e-03,
          -2.78087473e-03, 1.78010401e-03, -4.28999076e-04,
          3.41670209e-04, 1.83944078e-03, 2.90750316e-03, 3.14485049e-03,
          0., 1.83944078e-03, 8.57487554e-04, 5.73071931e-03,
          -2.20647795e-04, 4.46326006e-03, 4.92495438e-03,
          -6.71385182e-03, 2.29269289e-03, 1.82448346e-02,
          1.74812805e-02, 3.58842276e-02, 6.32796763e-03, 1.64554585e-02,
          1.06708910e-02, 4.31503989e-02, 9.29754879e-03, 9.21457715e-04,
          4.46083350e-03, 2.33725784e-03, 9.83891170e-03, 7.17975292e-03,
          4.98527940e-03, 1.12039335e-02, 8.04907456e-03, 6.96359389e-03,
          1.38550885e-02, -2.06501083e-03, 1.32293746e-04,
          1.81992222e-02, 5.99163468e-04, -4.90158389e-04,
          -2.67415773e-03, -3.81295085e-02, -4.46849037e-03,
          5.82107529e-03, -7.15861022e-02, -3.51618789e-02,
          -4.31315741e-04, -3.45052598e-04, -2.85747014e-02,
          -6.85980078e-03, -8.72798916e-03, -5.71786053e-03,
          -4.44902293e-03, 8.43226071e-03, 2.88057700e-03, 0.,
          -2.28300877e-03, -3.14860488e-03, -1.56856631e-03, 0.,
          1.38082961e-03, 1.89877755e-03, 2.90750316e-03, 0.,
          -9.05763067e-04, 1.61487877e-03, 0., 1.34245325e-02,
          1.73746655e-03, 4.14701179e-03, 8.30715173e-04,
          -3.74923483e-03, 1.24607282e-03, 2.23761685e-02,
          9.29258764e-03, 6.37865663e-02, 1.36255594e-02, 2.37632208e-02,
          1.39881130e-02, 7.67569020e-02, 1.32545689e-02,
          -1.92218099e-03, -5.20123821e-03, 1.57984681e-02,
          1.18622482e-02, 2.73522409e-03, -2.15657870e-04,
          6.73247874e-03, 1.36203831e-02, 2.31896974e-02, 6.66907942e-03,
          2.61547253e-03, -3.06234183e-03, 2.63370443e-02,
          -4.74447326e-04, 4.37521236e-03, -3.53678921e-03,
          -2.52491906e-02, 9.90425609e-03, 7.79490266e-03,
          1.36604635e-02, -4.06801999e-02, 2.53368132e-02,
          -1.72526299e-04, -2.40503810e-02, 9.36828204e-04,
          -2.99024372e-03, 2.15695123e-03, 3.01230303e-03,
          -2.28598504e-03, 1.97215080e-02, 0., -4.09749988e-03,
          -2.73759215e-04, 5.55196777e-03, 1.12599116e-02,
          4.56893351e-03, 1.60209357e-03, -2.58789456e-04,
          1.01251509e-02, 5.92345279e-03, -7.33236782e-04,
          -3.25644469e-05, 5.94057981e-03, 6.48940029e-03,
          5.22163836e-03, 1.61829882e-03, 7.89179467e-03, 2.75118207e-03,
          4.32132743e-02, 2.64567584e-02, 5.03609553e-02, 1.77151170e-02,
          4.09383886e-02, 1.48080140e-02, 5.37388101e-02, 3.16381641e-02,
          1.61065883e-03, 9.17027798e-03, 3.02339159e-02, 9.01922584e-03,
          2.84890737e-03, 1.91393550e-02, 1.25153223e-02, 4.93043847e-03,
          2.87813954e-02, 1.71345938e-02, 4.00822284e-03, 7.35213282e-04,
          9.16483533e-03, 3.51277908e-04, -4.74447326e-04,
          3.53402318e-03, -6.01754524e-02, 4.56357300e-02,
          3.23185464e-03, -1.46992574e-03, -4.24551591e-02,
          7.63071254e-02, 3.08551360e-03, 1.28546432e-02, 5.47950389e-03,
          6.05891040e-03, -1.21787954e-04, 4.54635774e-05,
          -1.87062728e-03, 1.85564607e-02, 0., 2.37895595e-03,
          8.97051487e-03, 3.20418715e-03, 1.28163770e-02, 1.63475121e-03,
          -3.88184184e-04, 3.62502877e-03, 1.53467888e-02,
          6.82921614e-03, 0., 2.37895595e-03, 8.15671310e-03,
          2.65419786e-03, 2.99925054e-03, 1.66143035e-03, 8.07528850e-03,
          7.79480953e-03, 4.68067862e-02, 2.10340023e-02, 3.20250802e-02,
          1.49095589e-02, 4.40185107e-02, 1.22947674e-02, 6.09014332e-02,
          2.56877821e-02, 2.54045334e-03, 8.83613247e-03, 2.74891760e-02,
          1.74337737e-02, -1.28338009e-03, 1.78012270e-02,
          1.68031286e-02, 2.31961929e-03, 2.79454440e-02, 2.76854225e-02,
          1.92385598e-03, 4.04088059e-03, 2.84609012e-02, 3.32335476e-03,
          2.41186051e-03, 4.91423346e-03, -9.79996659e-03,
          3.48962620e-02, 1.53197488e-03, 1.42520471e-02, 2.42094137e-02,
          8.29229057e-02, 3.08551360e-03, 8.26402009e-03, 5.91630349e-03,
          2.95341071e-02, -9.38327517e-04, 6.97007263e-03,
          1.16948336e-02, 7.44436635e-03, 0., 2.55148229e-03,
          5.75566944e-03, 9.43455100e-03, 1.03395153e-02, 3.11650964e-03,
          -1.85465766e-03, -1.38021039e-03, 1.69703253e-02,
          7.41710002e-03, -1.50960509e-03, 2.15186784e-03,
          1.23721231e-02, 4.96383698e-04, 8.02193023e-03, 1.16893491e-02,
          1.05290776e-02, 5.22163836e-03, 1.24182459e-02, 5.72892930e-03,
          5.69836907e-02, 1.15028359e-02, 1.24818897e-02, 2.38087829e-02,
          3.74054424e-02, 1.64947975e-02, 1.20070465e-02, 1.27223516e-02,
          1.79882310e-02, 1.66208949e-02, 2.10422911e-02, 8.70282389e-03,
          0., 5.41384704e-03, 6.57840446e-03, -1.23227062e-03,
          -3.25104743e-02, 4.29144269e-03, 1.67867672e-02,
          -7.51046371e-03, -2.58671003e-04, 3.83657170e-04,
          8.60981867e-02, -9.36952159e-02, -4.42852490e-02,
          2.78882962e-03, 6.58163726e-02, -8.22172016e-02,
          -7.06389593e-03, 5.10296458e-03, 3.85165471e-03,
          2.43641273e-03, -1.24345841e-02, 4.93555376e-03,
          2.65883710e-02, -1.71231851e-03, -1.17232010e-03,
          -2.50746240e-03, 2.29379861e-03, 7.97971990e-03,
          -2.54476303e-03, -1.57279742e-03, 1.22233806e-02, 0., 0., 0.,
          1.35787413e-03, 2.96684005e-03, 1.97627582e-02, 3.60882375e-03,
          3.93104553e-03, 1.18673604e-03, 1.56055782e-02, 0.,
          1.41839944e-02, 1.18860025e-02, 4.61388007e-02, 3.19599546e-03,
          9.03894566e-03, 2.24458892e-02, 4.34041023e-02, 1.79647598e-02,
          7.71146221e-03, 1.16668241e-02, -5.65203663e-04,
          1.14377709e-02, 2.08425261e-02, 4.33408376e-03,
          -7.25802151e-04, 4.91919322e-03, -5.27079636e-03,
          -4.12990339e-03, -7.77632045e-03, 8.10323108e-04,
          -9.11804556e-04, -2.36859284e-02, 1.38175278e-03,
          -1.71160861e-03, 5.72711378e-02, -9.57763195e-02,
          -1.34050976e-02, -1.28739104e-02, 3.71875428e-02,
          -1.41991572e-02, -1.19228819e-02, 3.21214180e-03,
          4.04359866e-03, -1.01832366e-02, -1.22002373e-02,
          -5.80763863e-03, 0., -7.22389715e-03, -4.23337828e-04,
          -1.01848822e-02, -6.47218316e-04, 1.14791756e-02,
          -2.57732742e-03, -4.65368433e-03, 1.95811433e-03, 0.,
          -3.88184167e-03, -5.44937029e-05, -3.06526991e-03,
          4.14183782e-03, 2.29973216e-02, 3.34825600e-04, 2.01535388e-03,
          5.87434322e-03, 6.62501995e-03, 2.42122449e-03, 3.81179787e-02,
          2.38945559e-02, 2.96312422e-02, 2.58401949e-02, 2.30100807e-02,
          2.68414319e-02, 1.76336281e-02, 1.51223848e-02,
          -3.99705628e-03, 4.77624359e-03, 9.33993957e-04,
          1.23307016e-03, 2.72497945e-02, 7.89727829e-03, 7.34186638e-03,
          8.15428793e-03, -4.40268079e-03, -4.68414836e-03,
          -1.83483027e-02, 5.36196865e-03, -9.35835298e-03,
          6.61244988e-03, 7.17616786e-05, -2.26705056e-03,
          3.56569211e-03, -3.09996381e-02, -1.63343754e-02,
          -4.62129451e-02, -4.24672384e-03, -2.49207709e-02,
          -5.82497939e-03, -2.39348947e-03, -6.03842037e-03,
          -1.03875306e-02, -1.52241839e-02, -8.14365502e-03,
          -4.26607113e-03, 3.96436837e-04, -1.36465009e-03,
          -8.20104126e-03, -5.56828827e-03, 1.32420170e-03,
          -2.91353907e-04, -1.10506057e-03, 1.72437122e-03,
          5.50730620e-04, 7.29482214e-04, -5.43457828e-03,
          1.03115628e-03, 1.94073806e-03, -6.18724502e-04,
          3.63624422e-03, 6.80888770e-03, 6.61879499e-03, 5.31961070e-03,
          2.16329820e-03, 3.11269835e-02, 2.41118185e-02, 3.89661901e-02,
          1.40387937e-02, 1.81274265e-02, 1.35062989e-02, 1.91063285e-02,
          1.73836201e-02, 8.87433626e-03, 6.19804719e-04,
          -4.39975411e-03, 1.39294183e-02, 1.38488263e-02,
          2.28462275e-03, 2.70166760e-03, 1.30553003e-02,
          -2.48125801e-03, -7.75116123e-03, -4.06494457e-03,
          -1.53842079e-03, -4.98825265e-03, 8.49683769e-03,
          1.19016189e-02, -4.55902278e-04, -3.74130495e-02,
          -1.72743984e-02, 1.75914401e-03, -4.07352373e-02,
          -3.73524264e-03, -8.99823606e-02, -5.47404727e-03,
          -3.77129363e-05, -2.36946042e-03, -9.28155612e-03,
          -7.54301390e-03, -2.18810346e-05, -4.26607113e-03,
          5.02882700e-04, -1.95386674e-04, -7.05202343e-03, 0.,
          1.79397059e-03, -1.07828935e-03, 2.71790847e-03,
          1.72437122e-03, 1.54275680e-03, 1.98269868e-03, 0.,
          -6.58138702e-03, 3.50087113e-03, -7.48982246e-04,
          2.12457264e-03, -2.05557630e-03, 2.70256656e-03,
          -1.02246006e-03, 5.63699612e-03, 8.25764518e-03,
          7.23111304e-03, 4.61455770e-02, 8.74358043e-03, 1.52642298e-02,
          1.02015249e-02, 2.82711852e-02, 1.18835997e-02, 1.93564314e-02,
          4.78546601e-04, 4.54467908e-03, 1.28690936e-02, 7.45711988e-03,
          -1.22512365e-03, 3.36297089e-03, 7.27624632e-03,
          9.38349776e-03, -5.37886377e-03, -5.52654266e-04,
          -8.85213073e-03, 1.68613046e-02, 1.72101427e-03,
          7.87608325e-03, -1.31853379e-03, -2.00033970e-02,
          -1.21772019e-02, -1.28772529e-02, -8.63794063e-04,
          -1.68748461e-02, -3.37182023e-02, -1.06534995e-02,
          1.30867539e-02, 4.65154275e-03, -1.53621081e-02,
          -8.65467545e-03, 3.55209899e-03, -6.69274107e-03,
          1.98990665e-03, -4.74447338e-03, -7.62782665e-03,
          2.54787767e-04, 3.52434884e-03, 0., 6.74704881e-03,
          3.66871338e-03, 1.78558799e-03, -1.29394728e-04,
          -3.36426287e-03, -8.74596834e-03, 1.36474636e-03,
          9.86546744e-04, 1.99899683e-03, 4.78564436e-03, 3.61954467e-03,
          2.84816627e-03, 4.77411738e-03, 3.67381349e-02, 2.55233888e-02,
          3.88822109e-02, 2.68016253e-02, 2.59811413e-02, 1.82395335e-02,
          2.99023017e-02, 2.47617792e-02, 1.85181629e-02, 1.08679673e-02,
          1.10118669e-02, 4.22237301e-03, 9.91380494e-03, 1.76049154e-02,
          1.14784967e-02, 4.70513804e-03, 1.40656503e-02,
          -5.10295015e-03, 1.40931562e-03, -4.11553634e-03,
          7.63779273e-03, 1.66241871e-03, -7.67527381e-04,
          1.29314850e-03, -3.23041417e-02, -2.78795115e-03,
          -5.00751007e-03, -2.60575651e-03, -1.92470830e-02,
          1.62141342e-02, 4.64857370e-03, 4.99880593e-03, 6.97689771e-04,
          -4.26895265e-03, 1.82129222e-03, 5.87720238e-03,
          -7.08092516e-03, -8.64504327e-05, -8.65220674e-04,
          -5.27173094e-03, 8.89620744e-03, 7.83026963e-03,
          -6.38995669e-04, 4.77578072e-03, 2.06661946e-03,
          5.66940615e-03, 3.95594025e-03, -9.86637431e-04,
          6.27922686e-03, 1.25200646e-02, 4.13577259e-03, 7.30298692e-03,
          8.95394292e-03, 4.39092331e-03, -1.68299454e-03,
          -3.88184184e-04, 4.57387269e-02, 2.22135279e-02,
          3.37111577e-02, 1.73966195e-02, 3.57225128e-02, 1.68042090e-02,
          6.18271865e-02, 4.15985174e-02, 1.01143029e-02, 1.49393780e-02,
          2.94195283e-02, 1.24911983e-02, 9.05068032e-03, 1.83680691e-02,
          1.02505097e-02, 1.31334895e-02, 3.40758003e-02, 1.07525755e-02,
          -1.28123760e-02, 5.29822707e-03, 3.50084677e-02,
          1.64926238e-03, 4.02147043e-03, 1.83013547e-03,
          -3.76181640e-02, -3.97231925e-04, -1.72964334e-02,
          9.10021923e-03, 1.86003316e-02, 5.14127165e-02, 4.37287008e-03,
          1.42548494e-02, 9.68193822e-03, 1.41814947e-02,
          -4.60524065e-03, 1.04798777e-02, 1.90471131e-02,
          7.77885178e-03, -8.65220674e-04, 2.12814449e-03,
          4.19257581e-03, 1.00257313e-02, 6.66663889e-03, 8.12673848e-03,
          -1.16455252e-03, 0., 1.64527465e-02, 6.83094002e-03,
          -2.87817488e-03, 9.77985002e-03, 8.06074403e-03,
          5.65868523e-03, 8.63066968e-03, 2.04822863e-03, 0., 0.,
          6.86920341e-03, 7.33175455e-03, 5.65186664e-02, 9.21858661e-03,
          1.06793540e-02, 1.68447811e-02, 2.74507534e-02, 4.73705027e-03,
          -1.62208988e-03, 4.71982546e-03, 9.73862689e-03,
          1.82171036e-02, 1.00542279e-02, 9.70883574e-03,
          -2.18065368e-04, 5.46942977e-03, -5.47037111e-04,
          2.68019550e-03, -1.15887066e-02, -1.73060526e-03,
          1.98931694e-02, -1.14981383e-02, -6.96624909e-03,
          5.85462386e-03, 7.51882195e-02, -4.20641294e-03,
          -1.65180620e-02, 1.50756445e-02, 4.72063124e-02,
          -5.57344146e-02, -1.15927113e-02, -1.78100495e-03,
          3.56020802e-03, -6.57209777e-04, -5.76179009e-04,
          1.18481730e-04, 1.98778287e-02, 1.25264120e-03,
          -2.33687251e-03, -2.50746240e-03, -2.60515581e-03,
          -6.51288952e-04, -3.26118083e-03, 1.78576750e-03,
          1.15113389e-02, -2.58789456e-04, 1.83944078e-03, 0.,
          -4.42189688e-04, -1.04206230e-03, 2.21434385e-02,
          -8.53790494e-04, -1.00240624e-03, 1.30540959e-03,
          1.95811433e-03, 3.02617671e-03, 1.47053301e-02, 1.40183941e-02,
          5.66193461e-02, -5.68442571e-04, -1.54737092e-03,
          1.52930273e-02, 3.91788967e-02, 2.07036417e-02, 2.90409522e-03,
          8.35141726e-03, 7.47096317e-04, 1.19874207e-02, 1.18507156e-02,
          3.97867244e-03, 4.98472294e-03, 1.48299802e-02,
          -1.95521931e-03, -5.92458155e-03, 5.66885062e-03,
          -9.52844624e-04, 7.44173909e-03, -2.15582531e-02,
          -1.57097715e-03, 2.53798813e-03, 7.78921843e-02,
          -1.71635672e-02, -1.15676783e-02, -4.19013577e-06,
          1.30237322e-02, -2.61711609e-02, -1.68327671e-02,
          -7.82655610e-04, 4.24132170e-03, -1.26797687e-02,
          -8.86635273e-04, 4.37547779e-03, 4.74694418e-03,
          -3.99382599e-03, -8.37184116e-03, -4.06395365e-03,
          3.84123810e-03, 5.07400418e-03, -2.87040742e-03,
          3.44655430e-03, 2.01745122e-03, -2.60515575e-04,
          -1.42334204e-03, -8.20636190e-03, -2.66186311e-03,
          9.00863903e-04, 1.68788247e-02, -5.42215967e-05,
          -2.55123666e-03, 5.75566944e-03, 6.80303108e-03,
          3.53703951e-03, 3.09531037e-02, 2.48338971e-02, 2.71518528e-02,
          1.74258258e-02, 1.93156376e-02, 2.57763192e-02, 2.92737465e-02,
          2.21173111e-02, 3.09251132e-03, 4.98145260e-03, 1.00604799e-02,
          2.36601569e-03, 6.31856686e-03, 1.13140431e-03, 1.01704346e-02,
          7.84653518e-03, 5.68842632e-04, -6.80551806e-04,
          9.12386924e-03, 7.18588242e-03, 7.78000220e-04, 2.92487396e-03,
          1.16273584e-02, 6.57434249e-03, 4.24347119e-03,
          -1.47781745e-02, 9.75255447e-04, -7.04124570e-04,
          9.39775491e-04, 3.51907522e-03, -1.17632803e-02,
          2.19755783e-03, 2.93944322e-04, -5.70079172e-03,
